current_time,position.x,position.y,position.z,velocity.x,velocity.y,velocity.z,pos_sp.x,pos_sp.y,pos_sp.z,vel_sp.x,vel_sp.y,vel_sp.z,acc_sp.x,acc_sp.y,acc_sp.y,payload_angles.x,payload_angles.y,payload_angles.z
1633078981.271174,-0.012509052641689777,-0.014020959846675396,-10.440665245056152,-0.004679494071751833,-0.005135055165737867,0.0039872233755886555,0.0,0.0,0.0,-0.003404254326596856,-0.0038102848920971155,0.0045375823974609375,-0.006210482679307461,-0.006124225445091724,-0.006124225445091724,0.0,0.0,-0.0
1633078981.272882,-0.012509052641689777,-0.014020959846675396,-10.440665245056152,-0.004679494071751833,-0.005135055165737867,0.0039872233755886555,0.0,0.0,0.0,-0.003404254326596856,-0.0038102848920971155,0.0045375823974609375,-0.006210482679307461,-0.006124225445091724,-0.006124225445091724,0.0,0.0,-0.0
1633078981.282996,-0.012525573372840881,-0.014027426019310951,-10.44068431854248,-0.00466697383671999,-0.0051142689771950245,0.0039891996420919895,0.0,0.0,0.0,-0.003404254326596856,-0.0038102848920971155,0.0045375823974609375,-0.006210482679307461,-0.006124225445091724,-0.006124225445091724,0.0,0.0,-0.0
1633078981.293034,-0.012562403455376625,-0.014056437648832798,-10.440686225891113,-0.004661047365516424,-0.005097175016999245,0.003954482730478048,0.0,0.0,0.0,-0.003404254326596856,-0.0038102848920971155,0.0045375823974609375,-0.006210482679307461,-0.006124225445091724,-0.006124225445091724,0.0,0.0,-0.0
1633078981.30307,-0.012600162997841835,-0.014086614362895489,-10.440686225891113,-0.004656700417399406,-0.005079685244709253,0.003942309878766537,0.0,0.0,0.0,-0.00333339418284595,-0.0037540560588240623,0.004525184631347656,-0.006014563608914614,-0.0059783547185361385,-0.0059783547185361385,0.0,0.0,-0.0
1633078981.312978,-0.012638756074011326,-0.014117824845016003,-10.440683364868164,-0.004653600510209799,-0.005062471143901348,0.003960419446229935,0.0,0.0,0.0,-0.0032967308070510626,-0.0037244060076773167,0.004521369934082031,-0.005905520636588335,-0.005909094586968422,-0.005909094586968422,0.0,0.0,-0.0
1633078981.323119,-0.012677970342338085,-0.014149896800518036,-10.440679550170898,-0.004650927614420652,-0.00504651851952076,0.0039833965711295605,0.0,0.0,0.0,-0.0032967308070510626,-0.0037244060076773167,0.004521369934082031,-0.005905520636588335,-0.005909094586968422,-0.005909094586968422,0.0,0.0,-0.0
1633078981.33295,-0.012700038030743599,-0.014163590036332607,-10.440689086914062,-0.004643712658435106,-0.00503030838444829,0.003962456714361906,0.0,0.0,0.0,-0.0032385129015892744,-0.0036809290759265423,0.004519462585449219,-0.005793832242488861,-0.005860751029103994,-0.005860751029103994,0.0,0.0,-0.0
1633078981.343021,-0.01272278930991888,-0.014178224839270115,-10.44069766998291,-0.00463730888441205,-0.005016305483877659,0.003949065692722797,0.0,0.0,0.0,-0.0032385129015892744,-0.0036809290759265423,0.004519462585449219,-0.005793832242488861,-0.005860751029103994,-0.005860751029103994,0.0,0.0,-0.0
1633078981.35296,-0.01274596806615591,-0.014193526469171047,-10.440711975097656,-0.004631486721336842,-0.00500414427369833,0.003947688732296228,0.0,0.0,0.0,-0.003171722637489438,-0.0036365205887705088,0.00453948974609375,-0.005698768887668848,-0.00581296207383275,-0.00581296207383275,0.0,0.0,-0.0
1633078981.363031,-0.012795103713870049,-0.014227836392819881,-10.44073486328125,-0.00462221959605813,-0.004984227940440178,0.0039785816334187984,0.0,0.0,0.0,-0.003171722637489438,-0.0036365205887705088,0.00453948974609375,-0.005698768887668848,-0.00581296207383275,-0.00581296207383275,0.0,0.0,-0.0
1633078981.373104,-0.012795103713870049,-0.014227836392819881,-10.44073486328125,-0.00462221959605813,-0.004984227940440178,0.0039785816334187984,0.0,0.0,0.0,-0.003171722637489438,-0.0036365205887705088,0.00453948974609375,-0.005698768887668848,-0.00581296207383275,-0.00581296207383275,0.0,0.0,-0.0
1633078981.383964,-0.012884804047644138,-0.014306808821856976,-10.440719604492188,-0.004625530447810888,-0.004971732385456562,0.004003247246146202,0.0,0.0,0.0,-0.003105448093265295,-0.0035822938662022352,0.0045337677001953125,-0.005532917566597462,-0.005660101771354675,-0.005660101771354675,0.0,0.0,-0.0
1633078981.393553,-0.012912015430629253,-0.014327548444271088,-10.440725326538086,-0.004622982814908028,-0.004961016122251749,0.004011006560176611,0.0,0.0,0.0,-0.0030371344182640314,-0.0035251686349511147,0.004523277282714844,-0.005366048775613308,-0.005546866916120052,-0.005546866916120052,0.0,0.0,-0.0
1633078981.402904,-0.012912015430629253,-0.014327548444271088,-10.440725326538086,-0.004622982814908028,-0.004961016122251749,0.004011006560176611,0.0,0.0,0.0,-0.0030371344182640314,-0.0035251686349511147,0.004523277282714844,-0.005366048775613308,-0.005546866916120052,-0.005546866916120052,0.0,0.0,-0.0
1633078981.413275,-0.012958964332938194,-0.014369658194482327,-10.440712928771973,-0.004626483656466007,-0.004952772054821253,0.0040446193888783455,0.0,0.0,0.0,-0.0029641862493008375,-0.0034624526742845774,0.004512786865234375,-0.005182467866688967,-0.005432342179119587,-0.005432342179119587,0.0,0.0,-0.0
1633078981.42411,-0.013018430210649967,-0.014417457394301891,-10.440731048583984,-0.004625815432518721,-0.004943441599607468,0.00407338747754693,0.0,0.0,0.0,-0.0029641862493008375,-0.0034624526742845774,0.004512786865234375,-0.005182467866688967,-0.005432342179119587,-0.005432342179119587,0.0,0.0,-0.0
1633078981.432939,-0.013018430210649967,-0.014417457394301891,-10.440731048583984,-0.004624547902494669,-0.004934594035148621,0.004079414531588554,0.0,0.0,0.0,-0.0029641862493008375,-0.0034624526742845774,0.004512786865234375,-0.005182467866688967,-0.005432342179119587,-0.005432342179119587,0.0,0.0,-0.0
1633078981.443427,-0.01306748203933239,-0.01446226704865694,-10.44072151184082,-0.0046289595775306225,-0.004931112285703421,0.004051776137202978,0.0,0.0,0.0,-0.002889441093429923,-0.003397186053916812,0.004504203796386719,-0.005007768515497446,-0.005292969290167093,-0.005292969290167093,0.0,0.0,-0.0
1633078981.453603,-0.01311741303652525,-0.014508193358778954,-10.440710067749023,-0.004633639939129353,-0.004930626600980759,0.00405136588960886,0.0,0.0,0.0,-0.002889441093429923,-0.003397186053916812,0.004504203796386719,-0.005007768515497446,-0.005292969290167093,-0.005292969290167093,0.0,0.0,-0.0
1633078981.463207,-0.013168363831937313,-0.014555352739989758,-10.44069766998291,-0.004639261867851019,-0.004932642914354801,0.004078496713191271,0.0,0.0,0.0,-0.0027936033438891172,-0.0033087546471506357,0.0044689178466796875,-0.0047666458413004875,-0.00504045095294714,-0.00504045095294714,0.0,0.0,-0.0
1633078981.472941,-0.013219483196735382,-0.014602843672037125,-10.440683364868164,-0.004645207431167364,-0.0049348012544214725,0.004117846488952637,0.0,0.0,0.0,-0.0027450399938970804,-0.003263638122007251,0.0044536590576171875,-0.004632863216102123,-0.004903595428913832,-0.004903595428913832,0.0,0.0,-0.0
1633078981.483053,-0.013252384029328823,-0.01463113259524107,-10.440683364868164,-0.004646411165595055,-0.004931911826133728,0.004104900173842907,0.0,0.0,0.0,-0.0027450399938970804,-0.003263638122007251,0.0044536590576171875,-0.004632863216102123,-0.004903595428913832,-0.004903595428913832,0.0,0.0,-0.0
1633078981.493105,-0.013304756954312325,-0.014680221676826477,-10.440672874450684,-0.004653886891901493,-0.004931825678795576,0.004081906750798225,0.0,0.0,0.0,-0.0026640298310667276,-0.0031901290640234947,0.004436492919921875,-0.004449313040822744,-0.004758045077323914,-0.004758045077323914,0.0,0.0,-0.0
1633078981.503025,-0.013339916244149208,-0.014711225405335426,-10.440677642822266,-0.004656731616705656,-0.004927678499370813,0.004082370549440384,0.0,0.0,0.0,-0.0026640298310667276,-0.0031901290640234947,0.004436492919921875,-0.004449313040822744,-0.004758045077323914,-0.004758045077323914,0.0,0.0,-0.0
1633078981.513002,-0.01339352410286665,-0.014761886559426785,-10.440665245056152,-0.004664208274334669,-0.004924537613987923,0.0041057756170630455,0.0,0.0,0.0,-0.0025797011330723763,-0.003112547565251589,0.004416465759277344,-0.00425094086676836,-0.004629786591976881,-0.004629786591976881,0.0,0.0,-0.0
1633078981.522975,-0.013429799117147923,-0.014794372953474522,-10.440667152404785,-0.0046671126037836075,-0.004919882398098707,0.004109567031264305,0.0,0.0,0.0,-0.0025797011330723763,-0.003112547565251589,0.004416465759277344,-0.00425094086676836,-0.004629786591976881,-0.004629786591976881,0.0,0.0,-0.0
1633078981.533,-0.01346625480800867,-0.014827207662165165,-10.440668106079102,-0.004669164307415485,-0.004915195982903242,0.004102556500583887,0.0,0.0,0.0,-0.0025797011330723763,-0.003112547565251589,0.004416465759277344,-0.00425094086676836,-0.004629786591976881,-0.004629786591976881,0.0,0.0,-0.0
1633078981.543104,-0.013523325324058533,-0.014881875365972519,-10.440649032592773,-0.00467725470662117,-0.004915542900562286,0.004073087591677904,0.0,0.0,0.0,-0.0024563900660723448,-0.0029985581059008837,0.004385948181152344,-0.00398634746670723,-0.004433459136635065,-0.004433459136635065,0.0,0.0,-0.0
1633078981.552872,-0.013560600578784943,-0.014915838837623596,-10.440648078918457,-0.004679028410464525,-0.004913640674203634,0.004065582063049078,0.0,0.0,0.0,-0.0024120770394802094,-0.002968177432194352,0.004414558410644531,-0.004060499835759401,-0.004544345661997795,-0.004544345661997795,0.0,0.0,-0.0
1633078981.563045,-0.013569970615208149,-0.014913855120539665,-10.440682411193848,-0.004653455689549446,-0.004882236942648888,0.004059711936861277,0.0,0.0,0.0,-0.0024120770394802094,-0.002968177432194352,0.004414558410644531,-0.004060499835759401,-0.004544345661997795,-0.004544345661997795,0.0,0.0,-0.0
1633078981.572944,-0.013599451631307602,-0.014933371916413307,-10.440698623657227,-0.004632129799574614,-0.004855282139033079,0.004065441433340311,0.0,0.0,0.0,-0.0024120770394802094,-0.002968177432194352,0.004414558410644531,-0.004060499835759401,-0.004544345661997795,-0.004544345661997795,0.0,0.0,-0.0
1633078981.583109,-0.013629882596433163,-0.01495418418198824,-10.440711975097656,-0.004610680975019932,-0.004828194156289101,0.004014994017779827,0.0,0.0,0.0,-0.0023551606573164463,-0.0029298646841198206,0.004437446594238281,-0.004159128293395042,-0.004680484998971224,-0.004680484998971224,0.0,0.0,-0.0
1633078981.593096,-0.013661104254424572,-0.01497617643326521,-10.44072437286377,-0.004588828422129154,-0.004800081718713045,0.003961899783462286,0.0,0.0,0.0,-0.0023254998959600925,-0.002908972091972828,0.004446983337402344,-0.004180062562227249,-0.004729161504656076,-0.004729161504656076,0.0,0.0,-0.0
1633078981.603022,-0.013674713671207428,-0.014980098232626915,-10.440750122070312,-0.004564283415675163,-0.004770007915794849,0.003941990435123444,0.0,0.0,0.0,-0.0023254998959600925,-0.002908972091972828,0.004446983337402344,-0.004180062562227249,-0.004729161504656076,-0.004729161504656076,0.0,0.0,-0.0
1633078981.613092,-0.013707404024899006,-0.015004235319793224,-10.440757751464844,-0.004542598035186529,-0.0047417376190423965,0.00395003380253911,0.0,0.0,0.0,-0.002281515160575509,-0.002882316242903471,0.0044727325439453125,-0.004265020601451397,-0.004871400073170662,-0.004871400073170662,0.0,0.0,-0.0
1633078981.623109,-0.013722714968025684,-0.01501049380749464,-10.440778732299805,-0.0045196800492703915,-0.004714192822575569,0.003952472470700741,0.0,0.0,0.0,-0.002281515160575509,-0.002882316242903471,0.0044727325439453125,-0.004265020601451397,-0.004871400073170662,-0.004871400073170662,0.0,0.0,-0.0
1633078981.632932,-0.013738621026277542,-0.015017656609416008,-10.440804481506348,-0.004497550893574953,-0.004688560031354427,0.003940447233617306,0.0,0.0,0.0,-0.002281515160575509,-0.002882316242903471,0.0044727325439453125,-0.004265020601451397,-0.004871400073170662,-0.004871400073170662,0.0,0.0,-0.0
1633078981.643106,-0.013773251324892044,-0.015044624917209148,-10.440813064575195,-0.004478089511394501,-0.0046674818731844425,0.00392075115814805,0.0,0.0,0.0,-0.0022189603187143803,-0.002843945985659957,0.004509925842285156,-0.004319001920521259,-0.004967701621353626,-0.004967701621353626,0.0,0.0,-0.0
1633078981.653074,-0.013790997676551342,-0.015054344199597836,-10.440834999084473,-0.004457729868590832,-0.004646619316190481,0.003917348105460405,0.0,0.0,0.0,-0.002184409648180008,-0.0028243372216820717,0.0045490264892578125,-0.0043418616987764835,-0.004992639645934105,-0.004992639645934105,0.0,0.0,-0.0
1633078981.662834,-0.013828624971210957,-0.015076923184096813,-10.440875053405762,-0.0044194916263222694,-0.004608987830579281,0.00394275551661849,0.0,0.0,0.0,-0.002184409648180008,-0.0028243372216820717,0.0045490264892578125,-0.0043418616987764835,-0.004992639645934105,-0.004992639645934105,0.0,0.0,-0.0
1633078981.672815,-0.013848154805600643,-0.015089401043951511,-10.440892219543457,-0.0044013275764882565,-0.00459081307053566,0.003964042756706476,0.0,0.0,0.0,-0.0021478019189089537,-0.0028014087583869696,0.004584312438964844,-0.004341773223131895,-0.004996311850845814,-0.004996311850845814,0.0,0.0,-0.0
1633078981.682956,-0.013887315057218075,-0.015122665092349052,-10.440889358520508,-0.0043860808946192265,-0.004574506543576717,0.003974150400608778,0.0,0.0,0.0,-0.0021478019189089537,-0.0028014087583869696,0.004584312438964844,-0.004341773223131895,-0.004996311850845814,-0.004996311850845814,0.0,0.0,-0.0
1633078981.693568,-0.013925348408520222,-0.015155032277107239,-10.440887451171875,-0.004369748290628195,-0.004554676823318005,0.0039890604093670845,0.0,0.0,0.0,-0.0021478019189089537,-0.0028014087583869696,0.004584312438964844,-0.004341773223131895,-0.004996311850845814,-0.004996311850845814,0.0,0.0,-0.0
1633078981.703556,-0.013925348408520222,-0.015155032277107239,-10.440887451171875,-0.004369748290628195,-0.004554676823318005,0.0039890604093670845,0.0,0.0,0.0,-0.0020744679495692253,-0.0027390590403229,0.004566192626953125,-0.00418027862906456,-0.004864743445068598,-0.004864743445068598,0.0,0.0,-0.0
1633078981.713654,-0.013988698832690716,-0.015207156538963318,-10.440902709960938,-0.004354703240096569,-0.00453470554202795,0.004020397085696459,0.0,0.0,0.0,-0.0020744679495692253,-0.0027390590403229,0.004566192626953125,-0.00418027862906456,-0.004864743445068598,-0.004864743445068598,0.0,0.0,-0.0
1633078981.723229,-0.013988698832690716,-0.015207156538963318,-10.440902709960938,-0.004339243285357952,-0.004515563603490591,0.004047134891152382,0.0,0.0,0.0,-0.002014285186305642,-0.002689541084691882,0.004572868347167969,-0.004087619483470917,-0.004829955752938986,-0.004829955752938986,0.0,0.0,-0.0
1633078981.733098,-0.014028673991560936,-0.015242212451994419,-10.440900802612305,-0.004323278088122606,-0.004496672656387091,0.0040752580389380455,0.0,0.0,0.0,-0.002014285186305642,-0.002689541084691882,0.004572868347167969,-0.004087619483470917,-0.004829955752938986,-0.004829955752938986,0.0,0.0,-0.0
1633078981.743076,-0.014069672673940659,-0.015278536826372147,-10.440896034240723,-0.004308126866817474,-0.004481724463403225,0.004060393664985895,0.0,0.0,0.0,-0.0019373600371181965,-0.00262172962538898,0.004557609558105469,-0.003955196589231491,-0.004708311520516872,-0.004708311520516872,0.0,0.0,-0.0
1633078981.752936,-0.014094348065555096,-0.015298102051019669,-10.440906524658203,-0.004293431527912617,-0.004468551371246576,0.0040554809384047985,0.0,0.0,0.0,-0.0019373600371181965,-0.00262172962538898,0.004557609558105469,-0.003955196589231491,-0.004708311520516872,-0.004708311520516872,0.0,0.0,-0.0
1633078981.763098,-0.014136216603219509,-0.015335806645452976,-10.440898895263672,-0.0042793950997292995,-0.004458970855921507,0.004075539298355579,0.0,0.0,0.0,-0.0018741432577371597,-0.0025673233903944492,0.0045528411865234375,-0.0038684941828250885,-0.00459304079413414,-0.00459304079413414,0.0,0.0,-0.0
1633078981.773093,-0.01416182890534401,-0.015356858260929585,-10.440905570983887,-0.004265598487108946,-0.004448214545845985,0.004097639117389917,0.0,0.0,0.0,-0.0018741432577371597,-0.0025673233903944492,0.0045528411865234375,-0.0038684941828250885,-0.00459304079413414,-0.00459304079413414,0.0,0.0,-0.0
1633078981.783117,-0.014204800128936768,-0.015396246686577797,-10.440900802612305,-0.004252507351338863,-0.004439182113856077,0.004091495648026466,0.0,0.0,0.0,-0.0018089889781549573,-0.002509905258193612,0.004548072814941406,-0.003773101605474949,-0.004475330468267202,-0.004475330468267202,0.0,0.0,-0.0
1633078981.792988,-0.014248460531234741,-0.015436625108122826,-10.440895080566406,-0.0042401207610964775,-0.004428813699632883,0.004065409768372774,0.0,0.0,0.0,-0.0017675115959718823,-0.0024715459439903498,0.0045413970947265625,-0.0036861978005617857,-0.004393305163830519,-0.004393305163830519,0.0,0.0,-0.0
1633078981.803138,-0.014276291243731976,-0.015460704453289509,-10.440902709960938,-0.004228103440254927,-0.004416894633322954,0.004063533619046211,0.0,0.0,0.0,-0.0017675115959718823,-0.0024715459439903498,0.0045413970947265625,-0.0036861978005617857,-0.004393305163830519,-0.004393305163830519,0.0,0.0,-0.0
1633078981.813067,-0.014320505782961845,-0.015502075664699078,-10.44089412689209,-0.004216124769300222,-0.004404765088111162,0.004087888170033693,0.0,0.0,0.0,-0.001699068583548069,-0.002409367822110653,0.004532814025878906,-0.0035871730651706457,-0.004319845233112574,-0.004319845233112574,0.0,0.0,-0.0
1633078981.823001,-0.014366697520017624,-0.015545722097158432,-10.440881729125977,-0.004205496050417423,-0.004394736606627703,0.004116347059607506,0.0,0.0,0.0,-0.001699068583548069,-0.002409367822110653,0.004532814025878906,-0.0035871730651706457,-0.004319845233112574,-0.004319845233112574,0.0,0.0,-0.0
1633078981.833092,-0.01439534779638052,-0.015571251511573792,-10.440884590148926,-0.004205496050417423,-0.004394736606627703,0.004116347059607506,0.0,0.0,0.0,-0.0016279686242341995,-0.0023436506744474173,0.004513740539550781,-0.003473493270576,-0.004215444438159466,-0.004215444438159466,0.0,0.0,-0.0
1633078981.843422,-0.014455190859735012,-0.0156256016343832,-10.440888404846191,-0.004194061737507582,-0.00438492139801383,0.004098202101886272,0.0,0.0,0.0,-0.0016279686242341995,-0.0023436506744474173,0.004513740539550781,-0.003473493270576,-0.004215444438159466,-0.004215444438159466,0.0,0.0,-0.0
1633078981.853185,-0.014455190859735012,-0.0156256016343832,-10.440888404846191,-0.004172195214778185,-0.004370284266769886,0.004089191555976868,0.0,0.0,0.0,-0.0016279686242341995,-0.0023436506744474173,0.004513740539550781,-0.003473493270576,-0.004215444438159466,-0.004215444438159466,0.0,0.0,-0.0
1633078981.863277,-0.01450191531330347,-0.015670696273446083,-10.440877914428711,-0.0041612861678004265,-0.004367056302726269,0.004115408752113581,0.0,0.0,0.0,-0.0015267295530065894,-0.0022491782438009977,0.004494667053222656,-0.0033344298135489225,-0.004026574548333883,-0.004026574548333883,0.0,0.0,-0.0
1633078981.873034,-0.014533891342580318,-0.015700530260801315,-10.440881729125977,-0.004152033012360334,-0.004363233223557472,0.004142642952501774,0.0,0.0,0.0,-0.0014668208314105868,-0.0021932085510343313,0.004496574401855469,-0.0032429094426333904,-0.003910474944859743,-0.003910474944859743,0.0,0.0,-0.0
1633078981.883215,-0.014564977027475834,-0.015729611739516258,-10.440884590148926,-0.004142315126955509,-0.004358220379799604,0.004149509593844414,0.0,0.0,0.0,-0.0014668208314105868,-0.0021932085510343313,0.004496574401855469,-0.0032429094426333904,-0.003910474944859743,-0.003910474944859743,0.0,0.0,-0.0
1633078981.893235,-0.014612925238907337,-0.01577664539217949,-10.44087028503418,-0.004132119473069906,-0.004353195894509554,0.004150620196014643,0.0,0.0,0.0,-0.0013909238623455167,-0.0021196960005909204,0.004479408264160156,-0.003098643384873867,-0.003761239815503359,-0.003761239815503359,0.0,0.0,-0.0
1633078981.903084,-0.014644868671894073,-0.01580699346959591,-10.44087028503418,-0.004123116377741098,-0.004346554167568684,0.004159723408520222,0.0,0.0,0.0,-0.0013909238623455167,-0.0021196960005909204,0.004479408264160156,-0.003098643384873867,-0.003761239815503359,-0.003761239815503359,0.0,0.0,-0.0
1633078981.913234,-0.014693220146000385,-0.015854790806770325,-10.440853118896484,-0.004113783594220877,-0.0043398477137088776,0.004190244246274233,0.0,0.0,0.0,-0.0013909238623455167,-0.0021196960005909204,0.004479408264160156,-0.003098643384873867,-0.003761239815503359,-0.003761239815503359,0.0,0.0,-0.0
1633078981.923715,-0.014726334251463413,-0.015886686742305756,-10.44085693359375,-0.004105488769710064,-0.0043335831724107265,0.004203900694847107,0.0,0.0,0.0,-0.0013135315384715796,-0.0020439873915165663,0.0044574737548828125,-0.002943909727036953,-0.00361629412509501,-0.00361629412509501,0.0,0.0,-0.0
1633078981.933108,-0.01477531623095274,-0.01593548245728016,-10.440842628479004,-0.004096102435141802,-0.004328445997089148,0.004213108215481043,0.0,0.0,0.0,-0.0013135315384715796,-0.0020439873915165663,0.0044574737548828125,-0.002943909727036953,-0.00361629412509501,-0.00361629412509501,0.0,0.0,-0.0
1633078981.943052,-0.014825567603111267,-0.015985824167728424,-10.440827369689941,-0.004086109343916178,-0.004324861336499453,0.004229285754263401,0.0,0.0,0.0,-0.0012192598078399897,-0.0019498068140819669,0.004418373107910156,-0.0027628233656287193,-0.003408817807212472,-0.003408817807212472,0.0,0.0,-0.0
1633078981.953019,-0.01485920138657093,-0.016018755733966827,-10.440826416015625,-0.004076607991009951,-0.004320508800446987,0.004248644690960646,0.0,0.0,0.0,-0.0012192598078399897,-0.0019498068140819669,0.004418373107910156,-0.0027628233656287193,-0.003408817807212472,-0.003408817807212472,0.0,0.0,-0.0
1633078981.963286,-0.014880682341754436,-0.016034120693802834,-10.440838813781738,-0.004038537852466106,-0.004287571180611849,0.004266641102731228,0.0,0.0,0.0,-0.0011669008526951075,-0.0019039250910282135,0.004422187805175781,-0.002832517959177494,-0.003464707173407078,-0.003464707173407078,0.0,0.0,-0.0
1633078981.973089,-0.014902728609740734,-0.016050465404987335,-10.440850257873535,-0.003999676089733839,-0.004252444487065077,0.004220825619995594,0.0,0.0,0.0,-0.001145956921391189,-0.001888397615402937,0.0044345855712890625,-0.0029315126594156027,-0.003576065180823207,-0.003576065180823207,0.0,0.0,-0.0
1633078981.983105,-0.014909991063177586,-0.016051385551691055,-10.440875053405762,-0.00396420294418931,-0.004217816982418299,0.004185822326689959,0.0,0.0,0.0,-0.001145956921391189,-0.001888397615402937,0.0044345855712890625,-0.0029315126594156027,-0.003576065180823207,-0.003576065180823207,0.0,0.0,-0.0
1633078981.992946,-0.014933123253285885,-0.016069456934928894,-10.440889358520508,-0.003925085999071598,-0.004179319366812706,0.004174060188233852,0.0,0.0,0.0,-0.0011170819634571671,-0.0018703556852415204,0.004467010498046875,-0.0031323395669460297,-0.003820366458967328,-0.003820366458967328,0.0,0.0,-0.0
1633078982.002945,-0.014957245439291,-0.016088882461190224,-10.440899848937988,-0.0038855441380292177,-0.004139761906117201,0.0041919881477952,0.0,0.0,0.0,-0.0011170819634571671,-0.0018703556852415204,0.004467010498046875,-0.0031323395669460297,-0.003820366458967328,-0.003820366458967328,0.0,0.0,-0.0
1633078982.012873,-0.014966592192649841,-0.016092848032712936,-10.440925598144531,-0.0038500919472426176,-0.004104346968233585,0.00418343348428607,0.0,0.0,0.0,-0.0010852864943444729,-0.0018481340957805514,0.004492759704589844,-0.0032645901665091515,-0.003992949612438679,-0.003992949612438679,0.0,0.0,-0.0
1633078982.022944,-0.014992007985711098,-0.01611422374844551,-10.440932273864746,-0.003809494897723198,-0.004066075198352337,0.00412809057161212,0.0,0.0,0.0,-0.0010852864943444729,-0.0018481340957805514,0.004492759704589844,-0.0032645901665091515,-0.003992949612438679,-0.003992949612438679,0.0,0.0,-0.0
1633078982.03302,-0.01500301156193018,-0.01612047106027603,-10.440953254699707,-0.0037743786815553904,-0.004033395554870367,0.00408549839630723,0.0,0.0,0.0,-0.0010506880935281515,-0.001821892219595611,0.004513740539550781,-0.0033632242120802402,-0.00409450801089406,-0.00409450801089406,0.0,0.0,-0.0
1633078982.043247,-0.015014679171144962,-0.0161276925355196,-10.440973281860352,-0.0037743786815553904,-0.004033395554870367,0.00408549839630723,0.0,0.0,0.0,-0.0010506880935281515,-0.001821892219595611,0.004513740539550781,-0.0033632242120802402,-0.00409450801089406,-0.00409450801089406,0.0,0.0,-0.0
1633078982.052825,-0.015042034909129143,-0.016151994466781616,-10.440974235534668,-0.0036978807765990496,-0.003966395277529955,0.004044108558446169,0.0,0.0,0.0,-0.0010136158671230078,-0.0017919449601322412,0.004528999328613281,-0.0034565243404358625,-0.004168105777353048,-0.004168105777353048,0.0,0.0,-0.0
1633078982.063036,-0.015054933726787567,-0.016161048784852028,-10.440990447998047,-0.003663359209895134,-0.003935566172003746,0.0040228418074548244,0.0,0.0,0.0,-0.0010136158671230078,-0.0017919449601322412,0.004528999328613281,-0.0034565243404358625,-0.004168105777353048,-0.004168105777353048,0.0,0.0,-0.0
1633078982.072958,-0.015068470500409603,-0.016171032562851906,-10.441011428833008,-0.003629250917583704,-0.0039045282173901796,0.003994008991867304,0.0,0.0,0.0,-0.0010136158671230078,-0.0017919449601322412,0.004528999328613281,-0.0034565243404358625,-0.004168105777353048,-0.004168105777353048,0.0,0.0,-0.0
1633078982.083724,-0.015096491202712059,-0.016196824610233307,-10.441015243530273,-0.003629250917583704,-0.0039045282173901796,0.003994008991867304,0.0,0.0,0.0,-0.0009618824115023017,-0.0017493563937023282,0.004558563232421875,-0.0035775061696767807,-0.004287439398467541,-0.004287439398467541,0.0,0.0,-0.0
1633078982.093008,-0.015125606209039688,-0.016224045306444168,-10.441017150878906,-0.003550064517185092,-0.0038309842348098755,0.003986631985753775,0.0,0.0,0.0,-0.0009342231787741184,-0.0017234967090189457,0.004559516906738281,-0.0035569029860198498,-0.004281777422875166,-0.004281777422875166,0.0,0.0,-0.0
1633078982.103461,-0.01514016930013895,-0.01623576320707798,-10.441033363342285,-0.0035185448359698057,-0.0038007753901183605,0.004003375768661499,0.0,0.0,0.0,-0.0009342231787741184,-0.0017234967090189457,0.004559516906738281,-0.0035569029860198498,-0.004281777422875166,-0.004281777422875166,0.0,0.0,-0.0
1633078982.113707,-0.015171113424003124,-0.016261717304587364,-10.441058158874512,-0.003458559513092041,-0.003745795227587223,0.00401643943041563,0.0,0.0,0.0,-0.0008909913012757897,-0.0016877083107829094,0.004593849182128906,-0.0036554564721882343,-0.004388154484331608,-0.004388154484331608,0.0,0.0,-0.0
1633078982.123399,-0.0152010852470994,-0.016290705651044846,-10.441052436828613,-0.003424200229346752,-0.0037184455431997776,0.004011291544884443,0.0,0.0,0.0,-0.0008909913012757897,-0.0016877083107829094,0.004593849182128906,-0.0036554564721882343,-0.004388154484331608,-0.004388154484331608,0.0,0.0,-0.0
1633078982.133662,-0.015217381529510021,-0.016305068507790565,-10.441067695617676,-0.003397595137357712,-0.0036977757699787617,0.004007052630186081,0.0,0.0,0.0,-0.0008470366010442376,-0.0016465246444568038,0.004593849182128906,-0.003620938630774617,-0.004313421435654163,-0.004313421435654163,0.0,0.0,-0.0
1633078982.143026,-0.01523431483656168,-0.016320334747433662,-10.441081047058105,-0.0033721926156431437,-0.0036789863370358944,0.00401341775432229,0.0,0.0,0.0,-0.0008470366010442376,-0.0016465246444568038,0.004593849182128906,-0.003620938630774617,-0.004313421435654163,-0.004313421435654163,0.0,0.0,-0.0
1633078982.153179,-0.01523431483656168,-0.016320334747433662,-10.441081047058105,-0.0033439199905842543,-0.0036606972571462393,0.00404569273814559,0.0,0.0,0.0,-0.000801733520347625,-0.0016029804246500134,0.004597663879394531,-0.00356483762152493,-0.0042044478468596935,-0.0042044478468596935,0.0,0.0,-0.0
1633078982.163091,-0.015282813459634781,-0.01636745035648346,-10.441086769104004,-0.0033223414793610573,-0.0036449895706027746,0.004058895632624626,0.0,0.0,0.0,-0.000801733520347625,-0.0016029804246500134,0.004597663879394531,-0.00356483762152493,-0.0042044478468596935,-0.0042044478468596935,0.0,0.0,-0.0
1633078982.17344,-0.015314199030399323,-0.016399169340729713,-10.441079139709473,-0.0032984125427901745,-0.0036274148151278496,0.0040581016801297665,0.0,0.0,0.0,-0.0007550599984824657,-0.0015571288531646132,0.0045948028564453125,-0.003482276573777199,-0.004104355350136757,-0.004104355350136757,0.0,0.0,-0.0
1633078982.1832,-0.015314199030399323,-0.016399169340729713,-10.441079139709473,-0.0032984125427901745,-0.0036274148151278496,0.0040581016801297665,0.0,0.0,0.0,-0.0007550599984824657,-0.0015571288531646132,0.0045948028564453125,-0.003482276573777199,-0.004104355350136757,-0.004104355350136757,0.0,0.0,-0.0
1633078982.193686,-0.01536511443555355,-0.016450075432658195,-10.441075325012207,-0.003276847070083022,-0.0036094344686716795,0.0040689571760594845,0.0,0.0,0.0,-0.0007550599984824657,-0.0015571288531646132,0.0045948028564453125,-0.003482276573777199,-0.004104355350136757,-0.004104355350136757,0.0,0.0,-0.0
1633078982.204184,-0.015385103411972523,-0.016469713300466537,-10.441085815429688,-0.0032596183009445667,-0.003593703731894493,0.004084055777639151,0.0,0.0,0.0,-0.0007066903635859489,-0.0015087680658325553,0.00458526611328125,-0.0033868327736854553,-0.004031024873256683,-0.004031024873256683,0.0,0.0,-0.0
1633078982.212996,-0.015404810197651386,-0.01648915745317936,-10.441094398498535,-0.003228169633075595,-0.003565425518900156,0.004134676419198513,0.0,0.0,0.0,-0.0006689793663099408,-0.0014716401929035783,0.004599571228027344,-0.0033289454877376556,-0.003991811536252499,-0.003991811536252499,0.0,0.0,-0.0
1633078982.223007,-0.015425508841872215,-0.01650981977581978,-10.441100120544434,-0.003214013297110796,-0.0035541460383683443,0.004152029752731323,0.0,0.0,0.0,-0.0006689793663099408,-0.0014716401929035783,0.004599571228027344,-0.0033289454877376556,-0.003991811536252499,-0.003991811536252499,0.0,0.0,-0.0
1633078982.232959,-0.015459674410521984,-0.016545526683330536,-10.44108772277832,-0.0031994804739952087,-0.0035462724044919014,0.004172099754214287,0.0,0.0,0.0,-0.0006168583640828729,-0.001418089377693832,0.0045871734619140625,-0.0032130007166415453,-0.003852281952276826,-0.003852281952276826,0.0,0.0,-0.0
1633078982.243098,-0.015493660233914852,-0.016581228002905846,-10.44107437133789,-0.003186154877766967,-0.0035420521162450314,0.004202455282211304,0.0,0.0,0.0,-0.0006168583640828729,-0.001418089377693832,0.0045871734619140625,-0.0032130007166415453,-0.003852281952276826,-0.003852281952276826,0.0,0.0,-0.0
1633078982.253237,-0.015528008341789246,-0.016617534682154655,-10.441060066223145,-0.003174629993736744,-0.0035405922681093216,0.004246916156262159,0.0,0.0,0.0,-0.000551941164303571,-0.001349681755527854,0.0045490264892578125,-0.003030788851901889,-0.0035981745459139347,-0.0035981745459139347,0.0,0.0,-0.0
1633078982.263,-0.015550988726317883,-0.016641346737742424,-10.441059112548828,-0.003165425034239888,-0.00353802228346467,0.004278217442333698,0.0,0.0,0.0,-0.000551941164303571,-0.001349681755527854,0.0045490264892578125,-0.003030788851901889,-0.0035981745459139347,-0.0035981745459139347,0.0,0.0,-0.0
1633078982.274617,-0.015586053021252155,-0.016678815707564354,-10.441047668457031,-0.003155781188979745,-0.0035356527660042048,0.0042977905832231045,0.0,0.0,0.0,-0.0004967987188138068,-0.0012914647813886404,0.004530906677246094,-0.002883769804611802,-0.003413907950744033,-0.003413907950744033,0.0,0.0,-0.0
1633078982.283006,-0.015609586611390114,-0.01670350506901741,-10.441049575805664,-0.0031473818235099316,-0.0035305253695696592,0.004307652357965708,0.0,0.0,0.0,-0.0004967987188138068,-0.0012914647813886404,0.004530906677246094,-0.002883769804611802,-0.003413907950744033,-0.003413907950744033,0.0,0.0,-0.0
1633078982.293234,-0.015609586611390114,-0.01670350506901741,-10.441049575805664,-0.0031473818235099316,-0.0035305253695696592,0.004307652357965708,0.0,0.0,0.0,-0.0004967987188138068,-0.0012914647813886404,0.004530906677246094,-0.002883769804611802,-0.003413907950744033,-0.003413907950744033,0.0,0.0,-0.0
1633078982.30344,-0.015681905671954155,-0.01678147166967392,-10.441017150878906,-0.0031295025255531073,-0.003513698000460863,0.004291873425245285,0.0,0.0,0.0,-0.00044073257595300674,-0.001231734873726964,0.004513740539550781,-0.0027519294526427984,-0.003297331277281046,-0.003297331277281046,0.0,0.0,-0.0
1633078982.313395,-0.0157067459076643,-0.01680784858763218,-10.441014289855957,-0.0031205210834741592,-0.003503880463540554,0.004299624357372522,0.0,0.0,0.0,-0.0003821404534392059,-0.001168883522041142,0.004487037658691406,-0.002632108051329851,-0.003218077588826418,-0.003218077588826418,0.0,0.0,-0.0
1633078982.322977,-0.0157067459076643,-0.01680784858763218,-10.441014289855957,-0.0031205210834741592,-0.003503880463540554,0.004299624357372522,0.0,0.0,0.0,-0.0003821404534392059,-0.001168883522041142,0.004487037658691406,-0.002632108051329851,-0.003218077588826418,-0.003218077588826418,0.0,0.0,-0.0
1633078982.333142,-0.01574363186955452,-0.016847802326083183,-10.440993309020996,-0.0031090690754354,-0.0034913362469524145,0.004307678900659084,0.0,0.0,0.0,-0.0003821404534392059,-0.001168883522041142,0.004487037658691406,-0.002632108051329851,-0.003218077588826418,-0.003218077588826418,0.0,0.0,-0.0
1633078982.343405,-0.01578085497021675,-0.016888204962015152,-10.440972328186035,-0.003095837077125907,-0.0034788809716701508,0.004257750231772661,0.0,0.0,0.0,-0.0003117368614766747,-0.0010925449896603823,0.004436492919921875,-0.0025218871887773275,-0.003124004928395152,-0.003124004928395152,0.0,0.0,-0.0
1633078982.353055,-0.015806609764695168,-0.016915803775191307,-10.440967559814453,-0.003084647934883833,-0.0034698115196079016,0.004221892450004816,0.0,0.0,0.0,-0.00028293271316215396,-0.0010375715792179108,0.004462242126464844,-0.0026266658678650856,-0.003142415778711438,-0.003142415778711438,0.0,0.0,-0.0
1633078982.363028,-0.015811175107955933,-0.01694607175886631,-10.441000938415527,-0.0030525110196322203,-0.003444298868998885,0.004190492443740368,0.0,0.0,0.0,-0.00028293271316215396,-0.0010375715792179108,0.004462242126464844,-0.0026266658678650856,-0.003142415778711438,-0.003142415778711438,0.0,0.0,-0.0
1633078982.373847,-0.01582932472229004,-0.01699085906147957,-10.44101333618164,-0.0030174970161169767,-0.0034175808541476727,0.004154573660343885,0.0,0.0,0.0,-0.00025964592350646853,-0.0009658567723818123,0.004497528076171875,-0.0028213264886289835,-0.0031868962105363607,-0.0031868962105363607,0.0,0.0,-0.0
1633078982.383236,-0.015835687518119812,-0.017021561041474342,-10.441040992736816,-0.002985691884532571,-0.0033926384057849646,0.004113245755434036,0.0,0.0,0.0,-0.00025964592350646853,-0.0009658567723818123,0.004497528076171875,-0.0028213264886289835,-0.0031868962105363607,-0.0031868962105363607,0.0,0.0,-0.0
1633078982.393091,-0.01585480384528637,-0.017066005617380142,-10.44105052947998,-0.002950007328763604,-0.0033640414476394653,0.004033063538372517,0.0,0.0,0.0,-0.00023353677534032613,-0.0008937137317843735,0.00452423095703125,-0.0029513270128518343,-0.003201307961717248,-0.003201307961717248,0.0,0.0,-0.0
1633078982.402949,-0.015863170847296715,-0.01709750108420849,-10.44107437133789,-0.002918994054198265,-0.003338329028338194,0.003980907611548901,0.0,0.0,0.0,-0.00023353677534032613,-0.0008937137317843735,0.00452423095703125,-0.0029513270128518343,-0.003201307961717248,-0.003201307961717248,0.0,0.0,-0.0
1633078982.413268,-0.0158828254789114,-0.017141317948698997,-10.441082000732422,-0.0028835025150328875,-0.003307585371658206,0.003952686209231615,0.0,0.0,0.0,-0.00023353677534032613,-0.0008937137317843735,0.00452423095703125,-0.0029513270128518343,-0.003201307961717248,-0.003201307961717248,0.0,0.0,-0.0
1633078982.423353,-0.01589202508330345,-0.017172595486044884,-10.441102027893066,-0.0028537532780319452,-0.0032820608466863632,0.0039505064487457275,0.0,0.0,0.0,-0.00020612524531316012,-0.0008223740151152015,0.004546165466308594,-0.003037030342966318,-0.003199160099029541,-0.003199160099029541,0.0,0.0,-0.0
1633078982.432987,-0.015900949016213417,-0.017202993854880333,-10.44112777709961,-0.00282435049302876,-0.003257172182202339,0.00394283514469862,0.0,0.0,0.0,-0.00020612524531316012,-0.0008223740151152015,0.004546165466308594,-0.003037030342966318,-0.003199160099029541,-0.003199160099029541,0.0,0.0,-0.0
1633078982.443039,-0.015921561047434807,-0.017246229574084282,-10.44113540649414,-0.0027903420850634575,-0.0032291582319885492,0.003907826729118824,0.0,0.0,0.0,-0.00017806608229875565,-0.000752421619836241,0.004573822021484375,-0.0030937641859054565,-0.00316047016531229,-0.00316047016531229,0.0,0.0,-0.0
1633078982.453189,-0.015931595116853714,-0.01727675460278988,-10.441156387329102,-0.002762141404673457,-0.0032071724999696016,0.003890845226123929,0.0,0.0,0.0,-0.00014826039841864258,-0.0006825028685852885,0.0045928955078125,-0.003128176322206855,-0.0030820192769169807,-0.0030820192769169807,0.0,0.0,-0.0
1633078982.463174,-0.015952935442328453,-0.017319828271865845,-10.441160202026367,-0.0027288850396871567,-0.003181986277922988,0.0038971269968897104,0.0,0.0,0.0,-0.00014826039841864258,-0.0006825028685852885,0.0045928955078125,-0.003128176322206855,-0.0030820192769169807,-0.0030820192769169807,0.0,0.0,-0.0
1633078982.473107,-0.015965096652507782,-0.017351781949400902,-10.44117546081543,-0.0027017774991691113,-0.0031614406034350395,0.0039118085987865925,0.0,0.0,0.0,-0.00011576506949495524,-0.0006112144910730422,0.0046024322509765625,-0.0031436767894774675,-0.003002323443070054,-0.003002323443070054,0.0,0.0,-0.0
1633078982.483102,-0.01598714105784893,-0.017394868656992912,-10.44117546081543,-0.002668914385139942,-0.0031347961630672216,0.003935806918889284,0.0,0.0,0.0,-0.00011576506949495524,-0.0006112144910730422,0.0046024322509765625,-0.0031436767894774675,-0.003002323443070054,-0.003002323443070054,0.0,0.0,-0.0
1633078982.493104,-0.016009051352739334,-0.017437292262911797,-10.441174507141113,-0.0026359581388533115,-0.0031050227116793394,0.003946326207369566,0.0,0.0,0.0,-0.00011576506949495524,-0.0006112144910730422,0.0046024322509765625,-0.0031436767894774675,-0.003002323443070054,-0.003002323443070054,0.0,0.0,-0.0
1633078982.503139,-0.016031352803111076,-0.01747976243495941,-10.441176414489746,-0.0026036708150058985,-0.0030733647290617228,0.003968558274209499,0.0,0.0,0.0,-7.376391295110807e-05,-0.0005305654485709965,0.004595756530761719,-0.0031350497156381607,-0.0029558876994997263,-0.0029558876994997263,0.0,0.0,-0.0
1633078982.513014,-0.016043568029999733,-0.017509909346699715,-10.441192626953125,-0.002577889710664749,-0.0030484599992632866,0.003987906966358423,0.0,0.0,0.0,-7.376391295110807e-05,-0.0005305654485709965,0.004595756530761719,-0.0031350497156381607,-0.0029558876994997263,-0.0029558876994997263,0.0,0.0,-0.0
1633078982.523028,-0.016066402196884155,-0.017552077770233154,-10.441190719604492,-0.0025459753815084696,-0.003016475588083267,0.004032480530440807,0.0,0.0,0.0,-4.0466988139087334e-05,-0.0004618658567778766,0.004605293273925781,-0.003147521987557411,-0.0029322237242013216,-0.0029322237242013216,0.0,0.0,-0.0
1633078982.532882,-0.016079552471637726,-0.01758229173719883,-10.441203117370605,-0.0025204860139638186,-0.0029930893797427416,0.004054639488458633,0.0,0.0,0.0,-4.0466988139087334e-05,-0.0004618658567778766,0.004605293273925781,-0.003147521987557411,-0.0029322237242013216,-0.0029322237242013216,0.0,0.0,-0.0
1633078982.542901,-0.01610257662832737,-0.017623862251639366,-10.441198348999023,-0.002489174250513315,-0.0029651238583028316,0.004081589635461569,0.0,0.0,0.0,-6.101281087467214e-06,-0.00039367060526274145,0.004609107971191406,-0.0031591071747243404,-0.0028727904427796602,-0.0028727904427796602,0.0,0.0,-0.0
1633078982.553027,-0.016125913709402084,-0.017665395513176918,-10.441190719604492,-0.0024585884530097246,-0.0029391420539468527,0.004113699775189161,0.0,0.0,0.0,1.6068946933955885e-05,-0.00035421401844359934,0.00460052490234375,-0.003131736069917679,-0.002799573354423046,-0.002799573354423046,0.0,0.0,-0.0
1633078982.562964,-0.016139669343829155,-0.01769515872001648,-10.441197395324707,-0.002435153815895319,-0.002919715130701661,0.004138120915740728,0.0,0.0,0.0,1.6068946933955885e-05,-0.00035421401844359934,0.00460052490234375,-0.003131736069917679,-0.002799573354423046,-0.002799573354423046,0.0,0.0,-0.0
1633078982.573034,-0.016163403168320656,-0.017736462876200676,-10.441192626953125,-0.002406410174444318,-0.002893684199079871,0.004173877649009228,0.0,0.0,0.0,5.168393181520514e-05,-0.00028670000028796494,0.004596710205078125,-0.0031342206057161093,-0.0027295721229165792,-0.0027295721229165792,0.0,0.0,-0.0
1633078982.583007,-0.01617816649377346,-0.017766663804650307,-10.441202163696289,-0.002384662162512541,-0.002872766461223364,0.00417783809825778,0.0,0.0,0.0,5.168393181520514e-05,-0.00028670000028796494,0.004596710205078125,-0.0031342206057161093,-0.0027295721229165792,-0.0027295721229165792,0.0,0.0,-0.0
1633078982.593,-0.016202038154006004,-0.01780739240348339,-10.441193580627441,-0.002357188379392028,-0.0028420593589544296,0.004190943669527769,0.0,0.0,0.0,8.838716894388199e-05,-0.00021931696392130107,0.0045909881591796875,-0.0031128209084272385,-0.0026902719400823116,-0.0026902719400823116,0.0,0.0,-0.0
1633078982.603023,-0.016217131167650223,-0.017837105318903923,-10.441200256347656,-0.0023359316401183605,-0.0028179220389574766,0.004204534459859133,0.0,0.0,0.0,8.838716894388199e-05,-0.00021931696392130107,0.0045909881591796875,-0.0031128209084272385,-0.0026902719400823116,-0.0026902719400823116,0.0,0.0,-0.0
1633078982.612978,-0.016232332214713097,-0.017866596579551697,-10.441205024719238,-0.002315150573849678,-0.002793499967083335,0.004225069656968117,0.0,0.0,0.0,8.838716894388199e-05,-0.00021931696392130107,0.0045909881591796875,-0.0031128209084272385,-0.0026902719400823116,-0.0026902719400823116,0.0,0.0,-0.0
1633078982.622944,-0.016257204115390778,-0.01790730468928814,-10.441190719604492,-0.0022889820393174887,-0.002760048722848296,0.004272179678082466,0.0,0.0,0.0,0.00014079482934903353,-0.00012440029240678996,0.004578590393066406,-0.0030995605047792196,-0.002684402745217085,-0.002684402745217085,0.0,0.0,-0.0
1633078982.632896,-0.01627318188548088,-0.0179369505494833,-10.441191673278809,-0.0022692212369292974,-0.002737107453867793,0.00428096204996109,0.0,0.0,0.0,0.00014079482934903353,-0.00012440029240678996,0.004578590393066406,-0.0030995605047792196,-0.002684402745217085,-0.002684402745217085,0.0,0.0,-0.0
1633078982.643014,-0.01629825308918953,-0.017977165058255196,-10.44117546081543,-0.0022439013700932264,-0.002707720035687089,0.004270413424819708,0.0,0.0,0.0,0.00017979135736823082,-5.803294334327802e-05,0.004558563232421875,-0.003056042129173875,-0.0026194213423877954,-0.0026194213423877954,0.0,0.0,-0.0
1633078982.653032,-0.016315223649144173,-0.018007319420576096,-10.441178321838379,-0.0022253766655921936,-0.0026885196566581726,0.004270606674253941,0.0,0.0,0.0,0.00017979135736823082,-5.803294334327802e-05,0.004558563232421875,-0.003056042129173875,-0.0026194213423877954,-0.0026194213423877954,0.0,0.0,-0.0
1633078982.663017,-0.016339506953954697,-0.018046021461486816,-10.441166877746582,-0.0022009299136698246,-0.0026629294734448195,0.004292141646146774,0.0,0.0,0.0,0.00021898253180552274,7.3806381806207355e-06,0.004546165466308594,-0.0030175787396728992,-0.002524732844904065,-0.002524732844904065,0.0,0.0,-0.0
1633078982.672869,-0.016364816576242447,-0.018085697665810585,-10.441152572631836,-0.0021781129762530327,-0.0026381774805486202,0.004325507674366236,0.0,0.0,0.0,0.0002430266613373533,4.507303310674615e-05,0.004530906677246094,-0.0029694591648876667,-0.002453102730214596,-0.002453102730214596,0.0,0.0,-0.0
1633078982.683229,-0.0163820032030344,-0.018115201964974403,-10.441152572631836,-0.0021613817662000656,-0.0026196828112006187,0.004307812545448542,0.0,0.0,0.0,0.0002430266613373533,4.507303310674615e-05,0.004530906677246094,-0.0029694591648876667,-0.002453102730214596,-0.002453102730214596,0.0,0.0,-0.0
1633078982.692977,-0.016407225281000137,-0.018154146149754524,-10.441136360168457,-0.0021398128010332584,-0.002591822762042284,0.004279791843146086,0.0,0.0,0.0,0.00028331493376754224,0.00011009909212589264,0.00450897216796875,-0.0029316763393580914,-0.002402152633294463,-0.002402152633294463,0.0,0.0,-0.0
1633078982.702961,-0.01642487198114395,-0.01818355917930603,-10.441134452819824,-0.002124340971931815,-0.0025711706839501858,0.004276676569133997,0.0,0.0,0.0,0.00028331493376754224,0.00011009909212589264,0.00450897216796875,-0.0029316763393580914,-0.002402152633294463,-0.002402152633294463,0.0,0.0,-0.0
1633078982.713093,-0.016450541093945503,-0.01822235994040966,-10.441121101379395,-0.0021041592117398977,-0.0025408000219613314,0.004296310245990753,0.0,0.0,0.0,0.00032446495606563985,0.0001749021903378889,0.004488945007324219,-0.0028761913999915123,-0.0023690431844443083,-0.0023690431844443083,0.0,0.0,-0.0
1633078982.723019,-0.01646825112402439,-0.018251245841383934,-10.441123008728027,-0.0020899733062833548,-0.0025203360710293055,0.0043149241246283054,0.0,0.0,0.0,0.00032446495606563985,0.0001749021903378889,0.004488945007324219,-0.0028761913999915123,-0.0023690431844443083,-0.0023690431844443083,0.0,0.0,-0.0
1633078982.732888,-0.016486216336488724,-0.018280092626810074,-10.441123962402344,-0.0020759846083819866,-0.0025005557108670473,0.004305937793105841,0.0,0.0,0.0,0.00032446495606563985,0.0001749021903378889,0.004488945007324219,-0.0028761913999915123,-0.0023690431844443083,-0.0023690431844443083,0.0,0.0,-0.0
1633078982.742931,-0.016512565314769745,-0.018318744376301765,-10.441105842590332,-0.0020578063558787107,-0.0024740491062402725,0.0042643132619559765,0.0,0.0,0.0,0.0003833879600279033,0.0002664673957042396,0.0044651031494140625,-0.002802595729008317,-0.002296879654750228,-0.002296879654750228,0.0,0.0,-0.0
1633078982.752958,-0.016530975699424744,-0.01834753528237343,-10.4411039352417,-0.0020445806439965963,-0.002457256428897381,0.004252042155712843,0.0,0.0,0.0,0.0003833879600279033,0.0002664673957042396,0.0044651031494140625,-0.002802595729008317,-0.002296879654750228,-0.002296879654750228,0.0,0.0,-0.0
1633078982.763053,-0.01654430851340294,-0.018390625715255737,-10.441116333007812,-0.00201241672039032,-0.00242090062238276,0.004250887781381607,0.0,0.0,0.0,0.00041354401037096977,0.00033475467353127897,0.004469871520996094,-0.002834087936207652,-0.0022551994770765305,-0.0022551994770765305,0.0,0.0,-0.0
1633078982.773099,-0.016558131203055382,-0.01843329891562462,-10.441125869750977,-0.001981107983738184,-0.0023850470315665007,0.0042474279180169106,0.0,0.0,0.0,0.00042667557136155665,0.00037529421388171613,0.0044803619384765625,-0.002879762090742588,-0.002250265795737505,-0.002250265795737505,0.0,0.0,-0.0
1633078982.783108,-0.016564270481467247,-0.018465768545866013,-10.44115161895752,-0.001954801147803664,-0.0023561471607536077,0.004202055744826794,0.0,0.0,0.0,0.00042667557136155665,0.00037529421388171613,0.0044803619384765625,-0.002879762090742588,-0.002250265795737505,-0.002250265795737505,0.0,0.0,-0.0
1633078982.793007,-0.016578692942857742,-0.018507396802306175,-10.44116497039795,-0.0019253160571679473,-0.002318927086889744,0.0041493303142488,0.0,0.0,0.0,0.00042667557136155665,0.00037529421388171613,0.0044803619384765625,-0.002879762090742588,-0.002250265795737505,-0.002250265795737505,0.0,0.0,-0.0
1633078982.803096,-0.016585741192102432,-0.018539223819971085,-10.441192626953125,-0.0019007897935807705,-0.0022895035799592733,0.004131659399718046,0.0,0.0,0.0,0.00044620921835303307,0.0004456872120499611,0.0045146942138671875,-0.0029821391217410564,-0.0022818094585090876,-0.0022818094585090876,0.0,0.0,-0.0
1633078982.813332,-0.016592882573604584,-0.01857040263712406,-10.441218376159668,-0.0018769374582916498,-0.0022604914847761393,0.004128261469304562,0.0,0.0,0.0,0.00044620921835303307,0.0004456872120499611,0.0045146942138671875,-0.0029821391217410564,-0.0022818094585090876,-0.0022818094585090876,0.0,0.0,-0.0
1633078982.823279,-0.016600674018263817,-0.01860150136053562,-10.441241264343262,-0.0018537190044298768,-0.0022320703137665987,0.004129326902329922,0.0,0.0,0.0,0.00046709124580956995,0.0005350865540094674,0.004584312438964844,-0.003101437585428357,-0.002315077232196927,-0.002315077232196927,0.0,0.0,-0.0
1633078982.83318,-0.01661597564816475,-0.018640901893377304,-10.441246032714844,-0.001826740219257772,-0.002196845831349492,0.004085514694452286,0.0,0.0,0.0,0.00046709124580956995,0.0005350865540094674,0.004584312438964844,-0.003101437585428357,-0.002315077232196927,-0.002315077232196927,0.0,0.0,-0.0
1633078982.842913,-0.01663145422935486,-0.01867981255054474,-10.441248893737793,-0.0018006941536441445,-0.002164411125704646,0.004056637175381184,0.0,0.0,0.0,0.000496332417242229,0.0006094821728765965,0.0045871734619140625,-0.0030787568539381027,-0.00223872484639287,-0.00223872484639287,0.0,0.0,-0.0
1633078982.852994,-0.016640955582261086,-0.018710769712924957,-10.441264152526855,-0.0017799666384235024,-0.0021408668253570795,0.004051627591252327,0.0,0.0,0.0,0.0005137479747645557,0.0006669400027021766,0.004624366760253906,-0.003102815244346857,-0.0021786720026284456,-0.0021786720026284456,0.0,0.0,-0.0
1633078982.862966,-0.01664978638291359,-0.018740294501185417,-10.44128704071045,-0.0017591128125786781,-0.0021176603622734547,0.0040565477684140205,0.0,0.0,0.0,0.0005137479747645557,0.0006669400027021766,0.004624366760253906,-0.003102815244346857,-0.0021786720026284456,-0.0021786720026284456,0.0,0.0,-0.0
1633078982.873068,-0.016665855422616005,-0.018777793273329735,-10.441289901733398,-0.0017342758364975452,-0.00208655116148293,0.004063070751726627,0.0,0.0,0.0,0.0005137479747645557,0.0006669400027021766,0.004624366760253906,-0.003102815244346857,-0.0021786720026284456,-0.0021786720026284456,0.0,0.0,-0.0
1633078982.883109,-0.016682075336575508,-0.018814850598573685,-10.441292762756348,-0.0017104108119383454,-0.0020538775715976954,0.004048149101436138,0.0,0.0,0.0,0.0005444224807433784,0.0007377683068625629,0.0046253204345703125,-0.003077956149354577,-0.0021177998278290033,-0.0021177998278290033,0.0,0.0,-0.0
1633078982.893004,-0.016698628664016724,-0.018851561471819878,-10.441292762756348,-0.001687490614131093,-0.002019774168729782,0.004054426681250334,0.0,0.0,0.0,0.0005601481534540653,0.0007726436597295105,0.004624366760253906,-0.0030483363661915064,-0.0020912548061460257,-0.0020912548061460257,0.0,0.0,-0.0
1633078982.902934,-0.016708670184016228,-0.018879786133766174,-10.441307067871094,-0.001668955315835774,-0.0019942019134759903,0.004065996035933495,0.0,0.0,0.0,0.0005601481534540653,0.0007726436597295105,0.004624366760253906,-0.0030483363661915064,-0.0020912548061460257,-0.0020912548061460257,0.0,0.0,-0.0
1633078982.912941,-0.016725391149520874,-0.01891539804637432,-10.441303253173828,-0.001647051190957427,-0.0019605837296694517,0.004095624200999737,0.0,0.0,0.0,0.000585572503041476,0.000833288358990103,0.004631996154785156,-0.003049426944926381,-0.002081872196868062,-0.002081872196868062,0.0,0.0,-0.0
1633078982.923045,-0.01674244925379753,-0.018950728699564934,-10.441296577453613,-0.0016259183175861835,-0.0019295202801004052,0.004094621632248163,0.0,0.0,0.0,0.000585572503041476,0.000833288358990103,0.004631996154785156,-0.003049426944926381,-0.002081872196868062,-0.002081872196868062,0.0,0.0,-0.0
1633078982.932949,-0.016752999275922775,-0.018977826461195946,-10.441312789916992,-0.0016092960722744465,-0.0019085326930508018,0.004094753414392471,0.0,0.0,0.0,0.0006118002347648144,0.0008925953879952431,0.004635810852050781,-0.0030332221649587154,-0.0020245984196662903,-0.0020245984196662903,0.0,0.0,-0.0
1633078982.943006,-0.016763858497142792,-0.019004810601472855,-10.441327095031738,-0.0015935422852635384,-0.0018888969207182527,0.004103036131709814,0.0,0.0,0.0,0.0006118002347648144,0.0008925953879952431,0.004635810852050781,-0.0030332221649587154,-0.0020245984196662903,-0.0020245984196662903,0.0,0.0,-0.0
1633078982.952997,-0.016774892807006836,-0.019031448289752007,-10.441339492797852,-0.0015779515961185098,-0.0018695746548473835,0.004118837416172028,0.0,0.0,0.0,0.0006118002347648144,0.0008925953879952431,0.004635810852050781,-0.0030332221649587154,-0.0020245984196662903,-0.0020245984196662903,0.0,0.0,-0.0
1633078982.962932,-0.01679239049553871,-0.019065264612436295,-10.441333770751953,-0.001559445052407682,-0.0018428986659273505,0.0041549657471477985,0.0,0.0,0.0,0.0006492218817584217,0.0009756616200320423,0.004650115966796875,-0.003011776367202401,-0.0019280100241303444,-0.0019280100241303444,0.0,0.0,-0.0
1633078982.972932,-0.016810154542326927,-0.019098808988928795,-10.441325187683105,-0.0015415339730679989,-0.0018139962339773774,0.004166870377957821,0.0,0.0,0.0,0.0006660977378487587,0.001007528742775321,0.004641532897949219,-0.002964397892355919,-0.0018811598420143127,-0.0018811598420143127,0.0,0.0,-0.0
1633078982.983126,-0.016822608187794685,-0.01912553980946541,-10.441329002380371,-0.0015278684441000223,-0.0017917390214279294,0.004175437614321709,0.0,0.0,0.0,0.0006660977378487587,0.001007528742775321,0.004641532897949219,-0.002964397892355919,-0.0018811598420143127,-0.0018811598420143127,0.0,0.0,-0.0
1633078982.993057,-0.016840480268001556,-0.019158054143190384,-10.441317558288574,-0.0015098684234544635,-0.0017592309741303325,0.004202964715659618,0.0,0.0,0.0,0.0006949071539565921,0.0010638117091730237,0.00463104248046875,-0.0029413802549242973,-0.001879924675449729,-0.001879924675449729,0.0,0.0,-0.0
1633078983.002731,-0.016852788627147675,-0.019183622673153877,-10.441326141357422,-0.0014965238515287638,-0.001736639067530632,0.0042257788591086864,0.0,0.0,0.0,0.0006949071539565921,0.0010638117091730237,0.00463104248046875,-0.0029413802549242973,-0.001879924675449729,-0.001879924675449729,0.0,0.0,-0.0
1633078983.012831,-0.016865182667970657,-0.019208872690796852,-10.44133472442627,-0.0014833016321063042,-0.0017148259794339538,0.004246254917234182,0.0,0.0,0.0,0.0007183744455687702,0.0011120892595499754,0.0046443939208984375,-0.002921330975368619,-0.0018550842069089413,-0.0018550842069089413,0.0,0.0,-0.0
1633078983.022925,-0.01688404381275177,-0.019241081550717354,-10.441322326660156,-0.0014672542456537485,-0.0016863660421222448,0.004250144120305777,0.0,0.0,0.0,0.0007183744455687702,0.0011120892595499754,0.0046443939208984375,-0.002921330975368619,-0.0018550842069089413,-0.0018550842069089413,0.0,0.0,-0.0
1633078983.033019,-0.01690269634127617,-0.019272541627287865,-10.441308975219727,-0.0014510252512991428,-0.0016606091521680355,0.004263652488589287,0.0,0.0,0.0,0.0007540124352090061,0.0011725748190656304,0.0046138763427734375,-0.00287318741902709,-0.0017946988809853792,-0.0017946988809853792,0.0,0.0,-0.0
1633078983.043737,-0.016921278089284897,-0.019303521141409874,-10.44129467010498,-0.001435192534700036,-0.0016366365598514676,0.004293373785912991,0.0,0.0,0.0,0.0007540124352090061,0.0011725748190656304,0.0046138763427734375,-0.00287318741902709,-0.0017946988809853792,-0.0017946988809853792,0.0,0.0,-0.0
1633078983.05295,-0.016921278089284897,-0.019303521141409874,-10.44129467010498,-0.001435192534700036,-0.0016366365598514676,0.004293373785912991,0.0,0.0,0.0,0.0007540124352090061,0.0011725748190656304,0.0046138763427734375,-0.00287318741902709,-0.0017946988809853792,-0.0017946988809853792,0.0,0.0,-0.0
1633078983.06295,-0.016940033063292503,-0.01933431252837181,-10.441278457641602,-0.0014200699515640736,-0.0016127715352922678,0.004320451989769936,0.0,0.0,0.0,0.0007894823211245239,0.0012312571052461863,0.00457763671875,-0.002822855021804571,-0.0017062285915017128,-0.0017062285915017128,0.0,0.0,-0.0
1633078983.073816,-0.016972379758954048,-0.019388826563954353,-10.441264152526855,-0.0013951532309874892,-0.0015684418613091111,0.004271668381989002,0.0,0.0,0.0,0.0008202116587199271,0.0012830455088987947,0.004561424255371094,-0.0027473776135593653,-0.0016442907508462667,-0.0016442907508462667,0.0,0.0,-0.0
1633078983.083122,-0.016972379758954048,-0.019388826563954353,-10.441264152526855,-0.0013951532309874892,-0.0015684418613091111,0.004271668381989002,0.0,0.0,0.0,0.0008202116587199271,0.0012830455088987947,0.004561424255371094,-0.0027473776135593653,-0.0016442907508462667,-0.0016442907508462667,0.0,0.0,-0.0
1633078983.093012,-0.01699945703148842,-0.019435925409197807,-10.44127082824707,-0.00137515168171376,-0.0015291046584025025,0.0042526377364993095,0.0,0.0,0.0,0.0008459350792691112,0.0013277893885970116,0.004566192626953125,-0.0026874945033341646,-0.0016107355477288365,-0.0016107355477288365,0.0,0.0,-0.0
1633078983.103369,-0.01699945703148842,-0.019435925409197807,-10.44127082824707,-0.00137515168171376,-0.0015291046584025025,0.0042526377364993095,0.0,0.0,0.0,0.0008459350792691112,0.0013277893885970116,0.004566192626953125,-0.0026874945033341646,-0.0016107355477288365,-0.0016107355477288365,0.0,0.0,-0.0
1633078983.113361,-0.017013326287269592,-0.019459277391433716,-10.441271781921387,-0.0013656229712069035,-0.0015091190580278635,0.0042439722456038,0.0,0.0,0.0,0.0008724724757485092,0.0013720024144276977,0.0045642852783203125,-0.002633217489346862,-0.0015860787825658917,-0.0015860787825658917,0.0,0.0,-0.0
1633078983.123952,-0.01704704388976097,-0.01951136626303196,-10.441251754760742,-0.0013421016046777368,-0.0014596842229366302,0.004264106508344412,0.0,0.0,0.0,0.0008724724757485092,0.0013720024144276977,0.0045642852783203125,-0.002633217489346862,-0.0015860787825658917,-0.0015860787825658917,0.0,0.0,-0.0
1633078983.133223,-0.017061453312635422,-0.01953422650694847,-10.441247940063477,-0.0013310579815879464,-0.0014402735978364944,0.004257144406437874,0.0,0.0,0.0,0.0009048315696418285,0.0014211754314601421,0.0045375823974609375,-0.002583301393315196,-0.0015599132748320699,-0.0015599132748320699,0.0,0.0,-0.0
1633078983.143489,-0.017061453312635422,-0.01953422650694847,-10.441247940063477,-0.0013310579815879464,-0.0014402735978364944,0.004257144406437874,0.0,0.0,0.0,0.0009048315696418285,0.0014211754314601421,0.0045375823974609375,-0.002583301393315196,-0.0015599132748320699,-0.0015599132748320699,0.0,0.0,-0.0
1633078983.152888,-0.017100995406508446,-0.019590534269809723,-10.44121265411377,-0.0012944894842803478,-0.0013815630227327347,0.004257138818502426,0.0,0.0,0.0,0.0009423965238966048,0.0014746678061783314,0.004496574401855469,-0.0025633915793150663,-0.001537491800263524,-0.001537491800263524,0.0,0.0,-0.0
1633078983.163484,-0.017110005021095276,-0.019625326618552208,-10.441242218017578,-0.0012944894842803478,-0.0013815630227327347,0.004257138818502426,0.0,0.0,0.0,0.0009423965238966048,0.0014746678061783314,0.004496574401855469,-0.0025633915793150663,-0.001537491800263524,-0.001537491800263524,0.0,0.0,-0.0
1633078983.173335,-0.017119111493229866,-0.01965927891433239,-10.441269874572754,-0.001269565080292523,-0.001353243482299149,0.004242015071213245,0.0,0.0,0.0,0.0009596068412065506,0.0015399751719087362,0.004550933837890625,-0.002693882444873452,-0.0015582966152578592,-0.0015582966152578592,0.0,0.0,-0.0
1633078983.184035,-0.01713329739868641,-0.019697697833180428,-10.441279411315918,-0.001209209207445383,-0.0012803131248801947,0.0041982377879321575,0.0,0.0,0.0,0.0009596068412065506,0.0015399751719087362,0.004550933837890625,-0.002693882444873452,-0.0015582966152578592,-0.0015582966152578592,0.0,0.0,-0.0
1633078983.193233,-0.017142517492175102,-0.019730087369680405,-10.441303253173828,-0.001209209207445383,-0.0012803131248801947,0.0041982377879321575,0.0,0.0,0.0,0.0009818425169214606,0.0016072432044893503,0.004582405090332031,-0.002816751366481185,-0.001615080051124096,-0.001615080051124096,0.0,0.0,-0.0
1633078983.203761,-0.017142517492175102,-0.019730087369680405,-10.441303253173828,-0.0011821013176813722,-0.0012486178893595934,0.004195410758256912,0.0,0.0,0.0,0.0009818425169214606,0.0016072432044893503,0.004582405090332031,-0.002816751366481185,-0.001615080051124096,-0.001615080051124096,0.0,0.0,-0.0
1633078983.212881,-0.017156366258859634,-0.019766589626669884,-10.44130802154541,-0.0011093486100435257,-0.0011611743830144405,0.004229396115988493,0.0,0.0,0.0,0.0010079676285386086,0.0016756862169131637,0.004586219787597656,-0.0029145933222025633,-0.0016546901315450668,-0.0016546901315450668,0.0,0.0,-0.0
1633078983.22302,-0.017179183661937714,-0.019832303747534752,-10.441330909729004,-0.0010815499117597938,-0.001132763922214508,0.004212736617773771,0.0,0.0,0.0,0.0010079676285386086,0.0016756862169131637,0.004586219787597656,-0.0029145933222025633,-0.0016546901315450668,-0.0016546901315450668,0.0,0.0,-0.0
1633078983.233132,-0.017179183661937714,-0.019832303747534752,-10.441330909729004,-0.0010815499117597938,-0.001132763922214508,0.004212736617773771,0.0,0.0,0.0,0.0010079676285386086,0.0016756862169131637,0.004586219787597656,-0.0029145933222025633,-0.0016546901315450668,-0.0016546901315450668,0.0,0.0,-0.0
1633078983.24325,-0.017201820388436317,-0.01989518105983734,-10.441349029541016,-0.0010149379959329963,-0.0010688804322853684,0.004215461667627096,0.0,0.0,0.0,0.0010381803149357438,0.0017640822334215045,0.004616737365722656,-0.003043676493689418,-0.0016082623042166233,-0.0016082623042166233,0.0,0.0,-0.0
1633078983.253726,-0.017211006954312325,-0.019923361018300056,-10.441363334655762,-0.0010149379959329963,-0.0010688804322853684,0.004215461667627096,0.0,0.0,0.0,0.0010381803149357438,0.0017640822334215045,0.004616737365722656,-0.003043676493689418,-0.0016082623042166233,-0.0016082623042166233,0.0,0.0,-0.0
1633078983.263298,-0.017211006954312325,-0.019923361018300056,-10.441363334655762,-0.0009859679266810417,-0.0010432592825964093,0.004228469915688038,0.0,0.0,0.0,0.0010594374034553766,0.0018210445996373892,0.0046234130859375,-0.0031426299829035997,-0.0015740084927529097,-0.0015740084927529097,0.0,0.0,-0.0
1633078983.273516,-0.0172335933893919,-0.019982291385531425,-10.441368103027344,-0.0008853499311953783,-0.0009480708977207541,0.004199962131679058,0.0,0.0,0.0,0.0010594374034553766,0.0018210445996373892,0.0046234130859375,-0.0031426299829035997,-0.0015740084927529097,-0.0015740084927529097,0.0,0.0,-0.0
1633078983.283214,-0.0172429196536541,-0.020008765161037445,-10.441376686096191,-0.0008853499311953783,-0.0009480708977207541,0.004199962131679058,0.0,0.0,0.0,0.0010772246168926358,0.001871987129561603,0.004641532897949219,-0.0032396926544606686,-0.0015820469707250595,-0.0015820469707250595,0.0,0.0,-0.0
1633078983.29321,-0.017255553975701332,-0.020038282498717308,-10.441368103027344,-0.0008437625947408378,-0.0009036872652359307,0.004187699873000383,0.0,0.0,0.0,0.0010772246168926358,0.001871987129561603,0.004641532897949219,-0.0032396926544606686,-0.0015820469707250595,-0.0015820469707250595,0.0,0.0,-0.0
1633078983.303197,-0.017264632508158684,-0.020063413307070732,-10.441375732421875,-0.0008138141711242497,-0.000872127478942275,0.004190972074866295,0.0,0.0,0.0,0.001097851782105863,0.0019239028915762901,0.004637718200683594,-0.0033350561279803514,-0.0016407498624175787,-0.0016407498624175787,0.0,0.0,-0.0
1633078983.313118,-0.017276838421821594,-0.020091407001018524,-10.441365242004395,-0.0007723411545157433,-0.0008259232854470611,0.004215986002236605,0.0,0.0,0.0,0.001097851782105863,0.0019239028915762901,0.004637718200683594,-0.0033350561279803514,-0.0016407498624175787,-0.0016407498624175787,0.0,0.0,-0.0
1633078983.323254,-0.01729745790362358,-0.020141879096627235,-10.441354751586914,-0.0007313956739380956,-0.0007812504773028195,0.004226350225508213,0.0,0.0,0.0,0.0011207546340301633,0.0019763351883739233,0.004608154296875,-0.0034232563339173794,-0.0017078741220757365,-0.0017078741220757365,0.0,0.0,-0.0
1633078983.333105,-0.01729745790362358,-0.020141879096627235,-10.441354751586914,-0.0007026290404610336,-0.0007522169617004693,0.0042369854636490345,0.0,0.0,0.0,0.0011207546340301633,0.0019763351883739233,0.004608154296875,-0.0034232563339173794,-0.0017078741220757365,-0.0017078741220757365,0.0,0.0,-0.0
1633078983.343361,-0.017306264489889145,-0.02016475424170494,-10.44135570526123,-0.0006744134589098394,-0.0007243209984153509,0.004251525271683931,0.0,0.0,0.0,0.0011374021414667368,0.0020201767329126596,0.004611015319824219,-0.0034817997366189957,-0.0016968201380223036,-0.0016968201380223036,0.0,0.0,-0.0
1633078983.353211,-0.01731753908097744,-0.020189885050058365,-10.441339492797852,-0.0006368724862113595,-0.0006863740272819996,0.004251573700457811,0.0,0.0,0.0,0.0011374021414667368,0.0020201767329126596,0.004611015319824219,-0.0034817997366189957,-0.0016968201380223036,-0.0016968201380223036,0.0,0.0,-0.0
1633078983.363119,-0.01733480393886566,-0.020233193412423134,-10.441339492797852,-0.0005886208382435143,-0.0006387988105416298,0.004263787530362606,0.0,0.0,0.0,0.0011563324369490147,0.002064818050712347,0.004593849182128906,-0.0035185073502361774,-0.0016706890892237425,-0.0016706890892237425,0.0,0.0,-0.0
1633078983.372808,-0.01733480393886566,-0.020233193412423134,-10.441339492797852,-0.0005886208382435143,-0.0006387988105416298,0.004263787530362606,0.0,0.0,0.0,0.0011563324369490147,0.002064818050712347,0.004593849182128906,-0.0035185073502361774,-0.0016706890892237425,-0.0016706890892237425,0.0,0.0,-0.0
1633078983.38307,-0.017345547676086426,-0.02025657519698143,-10.441320419311523,-0.0005590775399468839,-0.0006050703232176602,0.004296997096389532,0.0,0.0,0.0,0.0011747211683541536,0.002107406733557582,0.004569053649902344,-0.003506616223603487,-0.0016274896916002035,-0.0016274896916002035,0.0,0.0,-0.0
1633078983.393756,-0.017364714294672012,-0.020299388095736504,-10.44129467010498,-0.0005166390910744667,-0.0005458238301798701,0.004287034273147583,0.0,0.0,0.0,0.0011747211683541536,0.002107406733557582,0.004569053649902344,-0.003506616223603487,-0.0016274896916002035,-0.0016274896916002035,0.0,0.0,-0.0
1633078983.403139,-0.017364714294672012,-0.020299388095736504,-10.44129467010498,-0.0005166390910744667,-0.0005458238301798701,0.004287034273147583,0.0,0.0,0.0,0.0011929294560104609,0.0021480789873749018,0.004540443420410156,-0.003460945561528206,-0.0016208004672080278,-0.0016208004672080278,0.0,0.0,-0.0
1633078983.413065,-0.017375197261571884,-0.020321033895015717,-10.441271781921387,-0.0004961804952472448,-0.000508854107465595,0.004288647789508104,0.0,0.0,0.0,0.0011929294560104609,0.0021480789873749018,0.004540443420410156,-0.003460945561528206,-0.0016208004672080278,-0.0016208004672080278,0.0,0.0,-0.0
1633078983.424452,-0.017394183203577995,-0.02036072313785553,-10.441242218017578,-0.00048279762268066406,-0.0004838415770791471,0.004300657659769058,0.0,0.0,0.0,0.0012109820963814855,0.0021867959294468164,0.00450897216796875,-0.0033942393492907286,-0.0016388066578656435,-0.0016388066578656435,0.0,0.0,-0.0
1633078983.432923,-0.017394183203577995,-0.02036072313785553,-10.441242218017578,-0.0004669492191169411,-0.0004480512870941311,0.004324664361774921,0.0,0.0,0.0,0.0012109820963814855,0.0021867959294468164,0.00450897216796875,-0.0033942393492907286,-0.0016388066578656435,-0.0016388066578656435,0.0,0.0,-0.0
1633078983.443037,-0.017404567450284958,-0.02038063481450081,-10.441218376159668,-0.0004528903227765113,-0.00041518284706398845,0.004313052631914616,0.0,0.0,0.0,0.0012307899305596948,0.002225263277068734,0.0044574737548828125,-0.0033045599702745676,-0.0016499231569468975,-0.0016499231569468975,0.0,0.0,-0.0
1633078983.45362,-0.017413251101970673,-0.020398499444127083,-10.441210746765137,-0.00044356356374919415,-0.0003952566476073116,0.004300709348171949,0.0,0.0,0.0,0.0012307899305596948,0.002225263277068734,0.0044574737548828125,-0.0033045599702745676,-0.0016499231569468975,-0.0016499231569468975,0.0,0.0,-0.0
1633078983.463041,-0.01742369309067726,-0.02041751891374588,-10.441184997558594,-0.00043250079033896327,-0.0003686562704388052,0.00430587911978364,0.0,0.0,0.0,0.0012489593354985118,0.0022603031247854233,0.004421234130859375,-0.0032245556358247995,-0.0015905159525573254,-0.0015905159525573254,0.0,0.0,-0.0
1633078983.472906,-0.017434190958738327,-0.020436085760593414,-10.441156387329102,-0.0004229542100802064,-0.0003442711313255131,0.004332861863076687,0.0,0.0,0.0,0.0012589322868734598,0.0022779416758567095,0.004393577575683594,-0.0031681093387305737,-0.0015411559725180268,-0.0015411559725180268,0.0,0.0,-0.0
1633078983.483346,-0.017443081364035606,-0.020452972501516342,-10.441143989562988,-0.00041712113306857646,-0.0003287515719421208,0.004345349036157131,0.0,0.0,0.0,0.0012589322868734598,0.0022779416758567095,0.004393577575683594,-0.0031681093387305737,-0.0015411559725180268,-0.0015411559725180268,0.0,0.0,-0.0
1633078983.492905,-0.017453614622354507,-0.020470773801207542,-10.441115379333496,-0.0004105939588043839,-0.00030500360298901796,0.0043296064250171185,0.0,0.0,0.0,0.00127738481387496,0.00231089536100626,0.004349708557128906,-0.0030941744334995747,-0.0014959191903471947,-0.0014959191903471947,0.0,0.0,-0.0
1633078983.502787,-0.017462577670812607,-0.020486988127231598,-10.441102027893066,-0.00040596775943413377,-0.0002883701235987246,0.004303243011236191,0.0,0.0,0.0,0.00127738481387496,0.00231089536100626,0.004349708557128906,-0.0030941744334995747,-0.0014959191903471947,-0.0014959191903471947,0.0,0.0,-0.0
1633078983.51276,-0.017473287880420685,-0.02050400711596012,-10.441073417663574,-0.00040089033427648246,-0.000261693203356117,0.004293589387089014,0.0,0.0,0.0,0.0012960743624716997,0.002342466963455081,0.004302978515625,-0.0030205086804926395,-0.001484096166677773,-0.001484096166677773,0.0,0.0,-0.0
1633078983.522813,-0.017482446506619453,-0.020519625395536423,-10.441061019897461,-0.00039759493665769696,-0.0002439693926135078,0.0043012346141040325,0.0,0.0,0.0,0.0012960743624716997,0.002342466963455081,0.004302978515625,-0.0030205086804926395,-0.001484096166677773,-0.001484096166677773,0.0,0.0,-0.0
1633078983.533209,-0.017491692677140236,-0.02053496055305004,-10.441047668457031,-0.00039446164737455547,-0.00022633973276242614,0.004315386060625315,0.0,0.0,0.0,0.0013224437134340405,0.002386186271905899,0.0042591094970703125,-0.0029111760668456554,-0.0014591902727261186,-0.0014591902727261186,0.0,0.0,-0.0
1633078983.543562,-0.017501045018434525,-0.02055002748966217,-10.441033363342285,-0.0003915260313078761,-0.00020926077559124678,0.004303561523556709,0.0,0.0,0.0,0.0013224437134340405,0.002386186271905899,0.0042591094970703125,-0.0029111760668456554,-0.0014591902727261186,-0.0014591902727261186,0.0,0.0,-0.0
1633078983.552996,-0.017512045800685883,-0.020565617829561234,-10.441001892089844,-0.0003891554079018533,-0.00018553415429778397,0.004249835852533579,0.0,0.0,0.0,0.0013224437134340405,0.002386186271905899,0.0042591094970703125,-0.0029111760668456554,-0.0014591902727261186,-0.0014591902727261186,0.0,0.0,-0.0
1633078983.562974,-0.017527209594845772,-0.020603280514478683,-10.441004753112793,-0.00038474303437396884,-0.00016502011567354202,0.004187642131000757,0.0,0.0,0.0,0.0013473000144585967,0.0024367766454815865,0.0042266845703125,-0.0028000588063150644,-0.0013741848524659872,-0.0013741848524659872,0.0,0.0,-0.0
1633078983.572849,-0.017540737986564636,-0.02063915692269802,-10.441020965576172,-0.00038071401650086045,-0.00015292300668079406,0.004146185237914324,0.0,0.0,0.0,0.0013473000144585967,0.0024367766454815865,0.0042266845703125,-0.0028000588063150644,-0.0013741848524659872,-0.0013741848524659872,0.0,0.0,-0.0
1633078983.582952,-0.017567437142133713,-0.02070806175470352,-10.441055297851562,-0.0003730422758962959,-0.00013059788034297526,0.004075793083757162,0.0,0.0,0.0,0.0013729048660025,0.0025040695909410715,0.004261016845703125,-0.0027201310731470585,-0.0012147671077400446,-0.0012147671077400446,0.0,0.0,-0.0
1633078983.593083,-0.017567437142133713,-0.02070806175470352,-10.441055297851562,-0.0003730422758962959,-0.00013059788034297526,0.004075793083757162,0.0,0.0,0.0,0.0013729048660025,0.0025040695909410715,0.004261016845703125,-0.0027201310731470585,-0.0012147671077400446,-0.0012147671077400446,0.0,0.0,-0.0
1633078983.603315,-0.01758207008242607,-0.020741606131196022,-10.441054344177246,-0.00036838490632362664,-0.00011307872773613781,0.004039417020976543,0.0,0.0,0.0,0.0013994175242260098,0.002568186027929187,0.004273414611816406,-0.002653983887284994,-0.0010915701277554035,-0.0010915701277554035,0.0,0.0,-0.0
1633078983.613023,-0.0175966564565897,-0.020774221047759056,-10.44105052947998,-0.0003630511346273124,-9.466394840274006e-05,0.004011683631688356,0.0,0.0,0.0,0.0014132745563983917,0.002599170198664069,0.004268646240234375,-0.002599065424874425,-0.0010275422828271985,-0.0010275422828271985,0.0,0.0,-0.0
1633078983.623092,-0.017611099407076836,-0.020805785432457924,-10.441045761108398,-0.00035544659476727247,-7.404482312267646e-05,0.003974690102040768,0.0,0.0,0.0,0.0014132745563983917,0.002599170198664069,0.004268646240234375,-0.002599065424874425,-0.0010275422828271985,-0.0010275422828271985,0.0,0.0,-0.0
1633078983.633016,-0.017623962834477425,-0.020836183801293373,-10.441057205200195,-0.0003479994193185121,-5.99986087763682e-05,0.003944819327443838,0.0,0.0,0.0,0.0014392156153917313,0.002658034907653928,0.0042724609375,-0.002579862717539072,-0.0009735707426443696,-0.0009735707426443696,0.0,0.0,-0.0
1633078983.643044,-0.017637979239225388,-0.020865950733423233,-10.441051483154297,-0.00033537266426719725,-3.691537131089717e-05,0.003936700522899628,0.0,0.0,0.0,0.0014392156153917313,0.002658034907653928,0.0042724609375,-0.002579862717539072,-0.0009735707426443696,-0.0009735707426443696,0.0,0.0,-0.0
1633078983.653026,-0.01765054650604725,-0.02089465782046318,-10.441061973571777,-0.0003242795937694609,-2.208340993092861e-05,0.003931642509996891,0.0,0.0,0.0,0.0014644700568169355,0.00271358503960073,0.004273414611816406,-0.0025876478757709265,-0.0009286010172218084,-0.0009286010172218084,0.0,0.0,-0.0
1633078983.663111,-0.01766297034919262,-0.02092263475060463,-10.441071510314941,-0.0003118450695183128,-7.596409886900801e-06,0.0039113969542086124,0.0,0.0,0.0,0.0014644700568169355,0.00271358503960073,0.004273414611816406,-0.0025876478757709265,-0.0009286010172218084,-0.0009286010172218084,0.0,0.0,-0.0
1633078983.673097,-0.0176752507686615,-0.02094980888068676,-10.441079139709473,-0.0002978010452352464,7.019854820100591e-06,0.003885677782818675,0.0,0.0,0.0,0.0014993896475061774,0.0027911465149372816,0.0042934417724609375,-0.0026422322262078524,-0.0008414530893787742,-0.0008414530893787742,0.0,0.0,-0.0
1633078983.683285,-0.017687303945422173,-0.020976301282644272,-10.441085815429688,-0.00028250060859136283,2.16024764085887e-05,0.003859261516481638,0.0,0.0,0.0,0.0014993896475061774,0.0027911465149372816,0.0042934417724609375,-0.0026422322262078524,-0.0008414530893787742,-0.0008414530893787742,0.0,0.0,-0.0
1633078983.693033,-0.017699239775538445,-0.021002039313316345,-10.44109058380127,-0.00026612950023263693,3.6661658668890595e-05,0.0038334967102855444,0.0,0.0,0.0,0.0015228462871164083,0.002839119639247656,0.004283905029296875,-0.0026979451067745686,-0.0008108417969197035,-0.0008108417969197035,0.0,0.0,-0.0
1633078983.702963,-0.017711995169520378,-0.021026799455285072,-10.441078186035156,-0.00024077914713416249,6.19947531959042e-05,0.003803018946200609,0.0,0.0,0.0,0.0015228462871164083,0.002839119639247656,0.004283905029296875,-0.0026979451067745686,-0.0008108417969197035,-0.0008108417969197035,0.0,0.0,-0.0
1633078983.713186,-0.017724385485053062,-0.021050646901130676,-10.441065788269043,-0.0002137065603164956,9.015870455186814e-05,0.0037780164275318384,0.0,0.0,0.0,0.0015452979132533073,0.002884072484448552,0.0042724609375,-0.0027596422005444765,-0.000824420596472919,-0.000824420596472919,0.0,0.0,-0.0
1633078983.723151,-0.01773562841117382,-0.021074118092656136,-10.441069602966309,-0.00019481104391161352,0.0001096000851248391,0.0037674226332455873,0.0,0.0,0.0,0.0015452979132533073,0.002884072484448552,0.0042724609375,-0.0027596422005444765,-0.000824420596472919,-0.000824420596472919,0.0,0.0,-0.0
1633078983.733295,-0.017747368663549423,-0.021096408367156982,-10.441058158874512,-0.00016713068180251867,0.0001415791193721816,0.003775650868192315,0.0,0.0,0.0,0.0015667054103687406,0.002926186891272664,0.004261016845703125,-0.0028074674773961306,-0.0008606868796050549,-0.0008606868796050549,0.0,0.0,-0.0
1633078983.743319,-0.017758162692189217,-0.021118449047207832,-10.441060066223145,-0.000147749567986466,0.00016280211275443435,0.003789347829297185,0.0,0.0,0.0,0.0015667054103687406,0.002926186891272664,0.004261016845703125,-0.0028074674773961306,-0.0008606868796050549,-0.0008606868796050549,0.0,0.0,-0.0
1633078983.753913,-0.017769264057278633,-0.02113904058933258,-10.441044807434082,-0.00011865748092532158,0.00019567753770388663,0.0038276733830571175,0.0,0.0,0.0,0.0015874371165409684,0.0029644561000168324,0.004225730895996094,-0.0028743157163262367,-0.0009078331640921533,-0.0009078331640921533,0.0,0.0,-0.0
1633078983.763532,-0.017779985442757607,-0.02115873247385025,-10.441028594970703,-8.87847927515395e-05,0.00022649677703157067,0.0038557813968509436,0.0,0.0,0.0,0.0015874371165409684,0.0029644561000168324,0.004225730895996094,-0.0028743157163262367,-0.0009078331640921533,-0.0009078331640921533,0.0,0.0,-0.0
1633078983.77311,-0.017790036275982857,-0.021178672090172768,-10.441025733947754,-6.825926539022475e-05,0.00024438591208308935,0.0038662198930978775,0.0,0.0,0.0,0.0015874371165409684,0.0029644561000168324,0.004225730895996094,-0.0028743157163262367,-0.0009078331640921533,-0.0009078331640921533,0.0,0.0,-0.0
1633078983.7832,-0.01780005730688572,-0.02119702287018299,-10.441009521484375,-3.8074176700320095e-05,0.00027028052136301994,0.0038929146248847246,0.0,0.0,0.0,0.0016065053641796112,0.0030008319299668074,0.00420379638671875,-0.0029092528857290745,-0.0008650782983750105,-0.0008650782983750105,0.0,0.0,-0.0
1633078983.79315,-0.017809636890888214,-0.021215850487351418,-10.441006660461426,-1.7664529877947643e-05,0.00028584207757376134,0.003914987202733755,0.0,0.0,0.0,0.0016244995640590787,0.0030349250882864,0.004180908203125,-0.002947559580206871,-0.0008268228266388178,-0.0008268228266388178,0.0,0.0,-0.0
1633078983.803007,-0.01781899854540825,-0.021232910454273224,-10.440987586975098,1.3225365364633035e-05,0.0003116417792625725,0.003953414037823677,0.0,0.0,0.0,0.0016244995640590787,0.0030349250882864,0.004180908203125,-0.002947559580206871,-0.0008268228266388178,-0.0008268228266388178,0.0,0.0,-0.0
1633078983.813142,-0.017827965319156647,-0.02124929241836071,-10.440967559814453,4.437860116013326e-05,0.0003397618420422077,0.003931022249162197,0.0,0.0,0.0,0.0016330179059877992,0.003050487954169512,0.0041599273681640625,-0.002958204597234726,-0.000825599767267704,-0.000825599767267704,0.0,0.0,-0.0
1633078983.822982,-0.01783653534948826,-0.02126488648355007,-10.440945625305176,7.611267210450023e-05,0.0003712524485308677,0.003919352777302265,0.0,0.0,0.0,0.0016330179059877992,0.003050487954169512,0.0041599273681640625,-0.002958204597234726,-0.000825599767267704,-0.000825599767267704,0.0,0.0,-0.0
1633078983.833194,-0.01784469746053219,-0.02127966843545437,-10.440922737121582,7.611267210450023e-05,0.0003712524485308677,0.003919352777302265,0.0,0.0,0.0,0.0016330179059877992,0.003050487954169512,0.0041599273681640625,-0.002958204597234726,-0.000825599767267704,-0.000825599767267704,0.0,0.0,-0.0
1633078983.842932,-0.01785297878086567,-0.02129538170993328,-10.440913200378418,0.00013038792531006038,0.0004278342821635306,0.00395205756649375,0.0,0.0,0.0,0.0016489134868606925,0.003079345216974616,0.00411224365234375,-0.0030377423390746117,-0.0009136921144090593,-0.0009136921144090593,0.0,0.0,-0.0
1633078983.852899,-0.01786106452345848,-0.02131056971848011,-10.440906524658203,0.00015275055193342268,0.00045033314381726086,0.0039636618457734585,0.0,0.0,0.0,0.0016644621500745416,0.0031087014358490705,0.004093170166015625,-0.0030567420180886984,-0.0009293940966017544,-0.0009293940966017544,0.0,0.0,-0.0
1633078983.86292,-0.017868230119347572,-0.02132331393659115,-10.440882682800293,0.00018626714881975204,0.00048407327267341316,0.003940882161259651,0.0,0.0,0.0,0.0016644621500745416,0.0031087014358490705,0.004093170166015625,-0.0030567420180886984,-0.0009293940966017544,-0.0009293940966017544,0.0,0.0,-0.0
1633078983.873409,-0.0178749468177557,-0.02133532054722309,-10.440858840942383,0.00021950143855065107,0.0005153112579137087,0.003919949755072594,0.0,0.0,0.0,0.0016776503762230277,0.003132214769721031,0.004042625427246094,-0.003134322352707386,-0.0009905509650707245,-0.0009905509650707245,0.0,0.0,-0.0
1633078983.883317,-0.01788223907351494,-0.02134888619184494,-10.440849304199219,0.00021950143855065107,0.0005153112579137087,0.003919949755072594,0.0,0.0,0.0,0.0016776503762230277,0.003132214769721031,0.004042625427246094,-0.003134322352707386,-0.0009905509650707245,-0.0009905509650707245,0.0,0.0,-0.0
1633078983.893358,-0.01788933575153351,-0.021361980587244034,-10.440838813781738,0.00026373573928140104,0.000552565383259207,0.003932635299861431,0.0,0.0,0.0,0.0016913198633119464,0.0031575418543070555,0.00402069091796875,-0.0031471210531890392,-0.0009562053601257503,-0.0009562053601257503,0.0,0.0,-0.0
1633078983.903073,-0.01789623498916626,-0.021374668926000595,-10.440827369689941,0.00028574757743626833,0.0005711583071388304,0.00395350344479084,0.0,0.0,0.0,0.0016913198633119464,0.0031575418543070555,0.00402069091796875,-0.0031471210531890392,-0.0009562053601257503,-0.0009562053601257503,0.0,0.0,-0.0
1633078983.91304,-0.01790165714919567,-0.02138444595038891,-10.440797805786133,0.0003190609277226031,0.0006024495232850313,0.003952004015445709,0.0,0.0,0.0,0.001703025191091001,0.0031788838095963,0.003977775573730469,-0.0031981768552213907,-0.000981359975412488,-0.000981359975412488,0.0,0.0,-0.0
1633078983.923095,-0.017906691879034042,-0.021393654868006706,-10.440773010253906,0.000352191214915365,0.0006363028078339994,0.003939888905733824,0.0,0.0,0.0,0.001703025191091001,0.0031788838095963,0.003977775573730469,-0.0031981768552213907,-0.000981359975412488,-0.000981359975412488,0.0,0.0,-0.0
1633078983.933057,-0.01791282556951046,-0.021404867991805077,-10.44076156616211,0.0003738325904123485,0.0006588901742361486,0.003943877760320902,0.0,0.0,0.0,0.001713635167106986,0.003198284888640046,0.0039386749267578125,-0.0032383878715336323,-0.001042187213897705,-0.001042187213897705,0.0,0.0,-0.0
1633078983.942971,-0.017918722704052925,-0.02141553722321987,-10.440749168395996,0.00039561145240440965,0.0006823932053521276,0.0039583006873726845,0.0,0.0,0.0,0.001713635167106986,0.003198284888640046,0.0039386749267578125,-0.0032383878715336323,-0.001042187213897705,-0.001042187213897705,0.0,0.0,-0.0
1633078983.95332,-0.01792280375957489,-0.021423043683171272,-10.440720558166504,0.0004280070716049522,0.0007187394658103585,0.003989579621702433,0.0,0.0,0.0,0.0017231145175173879,0.003215551609173417,0.0038957595825195312,-0.0033057047985494137,-0.0011256642173975706,-0.0011256642173975706,0.0,0.0,-0.0
1633078983.96315,-0.01792827621102333,-0.021432818844914436,-10.440706253051758,0.0004494307504501194,0.0007412520935758948,0.003971826285123825,0.0,0.0,0.0,0.0017231145175173879,0.003215551609173417,0.0038957595825195312,-0.0033057047985494137,-0.0011256642173975706,-0.0011256642173975706,0.0,0.0,-0.0
1633078983.973203,-0.01795358583331108,-0.021505452692508698,-10.440723419189453,0.0004494307504501194,0.0007412520935758948,0.003971826285123825,0.0,0.0,0.0,0.0017397213960066438,0.0032585507724434137,0.003879547119140625,-0.0033569284714758396,-0.0010992952156811953,-0.0010992952156811953,0.0,0.0,-0.0
1633078983.983148,-0.01796646974980831,-0.02154146321117878,-10.440738677978516,0.0005217230645939708,0.0007964382530190051,0.003848013002425432,0.0,0.0,0.0,0.0017397213960066438,0.0032585507724434137,0.003879547119140625,-0.0033569284714758396,-0.0010992952156811953,-0.0010992952156811953,0.0,0.0,-0.0
1633078983.993557,-0.01796646974980831,-0.02154146321117878,-10.440738677978516,0.0005217230645939708,0.0007964382530190051,0.003848013002425432,0.0,0.0,0.0,0.0017397213960066438,0.0032585507724434137,0.003879547119140625,-0.0033569284714758396,-0.0010992952156811953,-0.0010992952156811953,0.0,0.0,-0.0
1633078984.00316,-0.017976811155676842,-0.021573150530457497,-10.4407377243042,0.0005504005821421742,0.00081884820247069,0.0038065393455326557,0.0,0.0,0.0,0.0017744215438142419,0.003358153160661459,0.00390625,-0.003384688403457403,-0.0009047364583238959,-0.0009047364583238959,0.0,0.0,-0.0
1633078984.013027,-0.01798645779490471,-0.021603291854262352,-10.44073486328125,0.0005771653377451003,0.0008407498826272786,0.003766990266740322,0.0,0.0,0.0,0.0017835857579484582,0.003386787371709943,0.003902435302734375,-0.0033827100414782763,-0.0008409994770772755,-0.0008409994770772755,0.0,0.0,-0.0
1633078984.022961,-0.017997896298766136,-0.02163548581302166,-10.44074535369873,0.0005933917709626257,0.0008529671467840672,0.0037159365601837635,0.0,0.0,0.0,0.0017835857579484582,0.003386787371709943,0.003902435302734375,-0.0033827100414782763,-0.0008409994770772755,-0.0008409994770772755,0.0,0.0,-0.0
1633078984.032937,-0.018008943647146225,-0.021666623651981354,-10.440755844116211,0.0006081348401494324,0.0008653583354316652,0.003660456044599414,0.0,0.0,0.0,0.001812727889046073,0.0034721894189715385,0.003914833068847656,-0.0033511966466903687,-0.0007175644859671593,-0.0007175644859671593,0.0,0.0,-0.0
1633078984.043116,-0.018017133697867393,-0.021693188697099686,-10.440750122070312,0.0006278292275965214,0.0008879504748620093,0.0036051326896995306,0.0,0.0,0.0,0.001812727889046073,0.0034721894189715385,0.003914833068847656,-0.0033511966466903687,-0.0007175644859671593,-0.0007175644859671593,0.0,0.0,-0.0
1633078984.053005,-0.018027413636446,-0.02172209694981575,-10.44075870513916,0.0006386758177541196,0.0009004798484966159,0.0035860200878232718,0.0,0.0,0.0,0.001831907662563026,0.003526023356243968,0.003928184509277344,-0.0032783010974526405,-0.0006111112888902426,-0.0006111112888902426,0.0,0.0,-0.0
1633078984.06318,-0.018037322908639908,-0.02174985595047474,-10.440766334533691,0.0006481562741100788,0.0009129578829742968,0.0035647668410092592,0.0,0.0,0.0,0.001831907662563026,0.003526023356243968,0.003928184509277344,-0.0032783010974526405,-0.0006111112888902426,-0.0006111112888902426,0.0,0.0,-0.0
1633078984.073148,-0.018044210970401764,-0.02177271619439125,-10.44075870513916,0.000659647979773581,0.0009339601965621114,0.0035259940195828676,0.0,0.0,0.0,0.0018473626114428043,0.0035723280161619186,0.003925323486328125,-0.003169967792928219,-0.0005452660843729973,-0.0005452660843729973,0.0,0.0,-0.0
1633078984.082956,-0.018062690272927284,-0.021823585033416748,-10.44076919555664,0.0006679560174234211,0.0009536294965073466,0.003463317174464464,0.0,0.0,0.0,0.0018473626114428043,0.0035723280161619186,0.003925323486328125,-0.003169967792928219,-0.0005452660843729973,-0.0005452660843729973,0.0,0.0,-0.0
1633078984.092925,-0.01806882582604885,-0.0218436811119318,-10.440757751464844,0.0006705219857394695,0.0009703218238428235,0.0034543981309980154,0.0,0.0,0.0,0.0018618354806676507,0.003615157213062048,0.0039157867431640625,-0.0030246595852077007,-0.0004568154690787196,-0.0004568154690787196,0.0,0.0,-0.0
1633078984.103163,-0.018074702471494675,-0.021862709894776344,-10.44074535369873,0.0006707207066938281,0.0009863313753157854,0.003474363125860691,0.0,0.0,0.0,0.0018618354806676507,0.003615157213062048,0.0039157867431640625,-0.0030246595852077007,-0.0004568154690787196,-0.0004568154690787196,0.0,0.0,-0.0
1633078984.113114,-0.018083197996020317,-0.021885067224502563,-10.440747261047363,0.0006698531215079129,0.000994345871731639,0.0034949802793562412,0.0,0.0,0.0,0.001875489018857479,0.0036544741597026587,0.003902435302734375,-0.002882175613194704,-0.00037787380279041827,-0.00037787380279041827,0.0,0.0,-0.0
1633078984.123291,-0.01808866485953331,-0.0219022948294878,-10.440732955932617,0.0006684932159259915,0.0010094286408275366,0.00354272173717618,0.0,0.0,0.0,0.001875489018857479,0.0036544741597026587,0.003902435302734375,-0.002882175613194704,-0.00037787380279041827,-0.00037787380279041827,0.0,0.0,-0.0
1633078984.133043,-0.01808866485953331,-0.0219022948294878,-10.440732955932617,0.0006684932159259915,0.0010094286408275366,0.00354272173717618,0.0,0.0,0.0,0.001875489018857479,0.0036544741597026587,0.003902435302734375,-0.002882175613194704,-0.00037787380279041827,-0.00037787380279041827,0.0,0.0,-0.0
1633078984.143183,-0.018094085156917572,-0.021918900310993195,-10.440717697143555,0.0006685378612019122,0.0010242140851914883,0.003594881622120738,0.0,0.0,0.0,0.0018858318217098713,0.0036866154987365007,0.0038700103759765625,-0.0027692271396517754,-0.00033447195892222226,-0.00033447195892222226,0.0,0.0,-0.0
1633078984.153176,-0.01809922605752945,-0.02193448133766651,-10.44070053100586,0.0006710304296575487,0.0010391742689535022,0.003630498657003045,0.0,0.0,0.0,0.0018907156772911549,0.003701417474076152,0.0038518907967954874,-0.002717339899390936,-0.0003000592114403844,-0.0003000592114403844,0.0,0.0,-0.0
1633078984.163111,-0.018104135990142822,-0.021949181333184242,-10.440681457519531,0.0006770947366021574,0.0010555654298514128,0.0036427760496735573,0.0,0.0,0.0,0.0018907156772911549,0.003701417474076152,0.0038518907967954874,-0.002717339899390936,-0.0003000592114403844,-0.0003000592114403844,0.0,0.0,-0.0
1633078984.173541,-0.018111247569322586,-0.021966954693198204,-10.440674781799316,0.0006817500106990337,0.001065462944097817,0.0036472585052251816,0.0,0.0,0.0,0.001902136136777699,0.0037322670686990023,0.0038251876831054688,-0.002714620204642415,-0.00027756005874834955,-0.00027756005874834955,0.0,0.0,-0.0
1633078984.182916,-0.018118679523468018,-0.021984905004501343,-10.440669059753418,0.0006888114148750901,0.001076793298125267,0.003657873021438718,0.0,0.0,0.0,0.001902136136777699,0.0037322670686990023,0.0038251876831054688,-0.002714620204642415,-0.00027756005874834955,-0.00027756005874834955,0.0,0.0,-0.0
1633078984.192937,-0.018122948706150055,-0.021997498348355293,-10.44064712524414,0.0007013335125520825,0.0010992931202054024,0.0036819272208958864,0.0,0.0,0.0,0.0019132521701976657,0.0037612835876643658,0.003795623779296875,-0.0027418662793934345,-0.0002915465156547725,-0.0002915465156547725,0.0,0.0,-0.0
1633078984.203136,-0.018129490315914154,-0.02201327495276928,-10.440638542175293,0.0007099135546013713,0.001113977050408721,0.00369998044334352,0.0,0.0,0.0,0.0019132521701976657,0.0037612835876643658,0.003795623779296875,-0.0027418662793934345,-0.0002915465156547725,-0.0002915465156547725,0.0,0.0,-0.0
1633078984.212966,-0.018142376095056534,-0.022043609991669655,-10.44062328338623,0.0007297816919162869,0.0011448041768744588,0.003745641326531768,0.0,0.0,0.0,0.0019317081896588206,0.0038050897419452667,0.0037689208984375,-0.0027740744408220053,-0.0003066641220357269,-0.0003066641220357269,0.0,0.0,-0.0
1633078984.223076,-0.018145376816391945,-0.022052878513932228,-10.440596580505371,0.0007297816919162869,0.0011448041768744588,0.003745641326531768,0.0,0.0,0.0,0.0019317081896588206,0.0038050897419452667,0.0037689208984375,-0.0027740744408220053,-0.0003066641220357269,-0.0003066641220357269,0.0,0.0,-0.0
1633078984.233078,-0.018145376816391945,-0.022052878513932228,-10.440596580505371,0.0007465739035978913,0.0011700053000822663,0.003727247705683112,0.0,0.0,0.0,0.0019317081896588206,0.0038050897419452667,0.0037689208984375,-0.0027740744408220053,-0.0003066641220357269,-0.0003066641220357269,0.0,0.0,-0.0
1633078984.24291,-0.018147995695471764,-0.022061334922909737,-10.440570831298828,0.0007643732824362814,0.001192995347082615,0.00369313545525074,0.0,0.0,0.0,0.0019370467634871602,0.0038219282869249582,0.0037136077880859375,-0.002836382482200861,-0.00036703862133435905,-0.00036703862133435905,0.0,0.0,-0.0
1633078984.25291,-0.018153464421629906,-0.02207399718463421,-10.440559387207031,0.0007769658695906401,0.0012059240834787488,0.003688290249556303,0.0,0.0,0.0,0.0019441761542111635,0.0038407188840210438,0.0036725997924804688,-0.002883404726162553,-0.0003600639174692333,-0.0003600639174692333,0.0,0.0,-0.0
1633078984.262884,-0.018155500292778015,-0.02208111435174942,-10.440531730651855,0.0007973845931701362,0.0012274706969037652,0.003706954652443528,0.0,0.0,0.0,0.0019441761542111635,0.0038407188840210438,0.0036725997924804688,-0.002883404726162553,-0.0003600639174692333,-0.0003600639174692333,0.0,0.0,-0.0
1633078984.273008,-0.01815713196992874,-0.02208750694990158,-10.440503120422363,0.000818782951682806,0.0012497459538280964,0.003715238766744733,0.0,0.0,0.0,0.0019457262242212892,0.0038467918056994677,0.0036449432373046875,-0.002909578150138259,-0.00036947126500308514,-0.00036947126500308514,0.0,0.0,-0.0
1633078984.282952,-0.018158381804823875,-0.022093219682574272,-10.440475463867188,0.0008408207795582712,0.0012740421807393432,0.003674853593111038,0.0,0.0,0.0,0.0019457262242212892,0.0038467918056994677,0.0036449432373046875,-0.002909578150138259,-0.00036947126500308514,-0.00036947126500308514,0.0,0.0,-0.0
1633078984.293045,-0.01816265843808651,-0.022103326395154,-10.440462112426758,0.0008556251996196806,0.0012901835143566132,0.003658727742731571,0.0,0.0,0.0,0.001950976438820362,0.003861820325255394,0.0036020278930664062,-0.0029755602590739727,-0.000417618197388947,-0.000417618197388947,0.0,0.0,-0.0
1633078984.302909,-0.018166620284318924,-0.02211279608309269,-10.440447807312012,0.0008703697239980102,0.0013070791028439999,0.003657915396615863,0.0,0.0,0.0,0.001950976438820362,0.003861820325255394,0.0036020278930664062,-0.0029755602590739727,-0.000417618197388947,-0.000417618197388947,0.0,0.0,-0.0
1633078984.313257,-0.01817043498158455,-0.022121883928775787,-10.440433502197266,0.0008851243183016777,0.001324241398833692,0.003669580677524209,0.0,0.0,0.0,0.001950976438820362,0.003861820325255394,0.0036020278930664062,-0.0029755602590739727,-0.000417618197388947,-0.000417618197388947,0.0,0.0,-0.0
1633078984.323265,-0.01817045547068119,-0.02212514542043209,-10.440403938293457,0.0009081099997274578,0.0013521109940484166,0.003680142341181636,0.0,0.0,0.0,0.0019583834800869226,0.0038825483061373234,0.0035390853881835938,-0.003047285135835409,-0.0004983239341527224,-0.0004983239341527224,0.0,0.0,-0.0
1633078984.333134,-0.018173785880208015,-0.022133199498057365,-10.440388679504395,0.0009227535338141024,0.0013678540708497167,0.003647465258836746,0.0,0.0,0.0,0.0019645344000309706,0.003897401737049222,0.003507614368572831,-0.0030483955051749945,-0.00048544243327341974,-0.00048544243327341974,0.0,0.0,-0.0
1633078984.343029,-0.01817598193883896,-0.022142168134450912,-10.440343856811523,0.000961913145147264,0.0014072085032239556,0.0035727876238524914,0.0,0.0,0.0,0.0019645344000309706,0.003897401737049222,0.003507614368572831,-0.0030483955051749945,-0.00048544243327341974,-0.00048544243327341974,0.0,0.0,-0.0
1633078984.353062,-0.01817598193883896,-0.022142168134450912,-10.440343856811523,0.000961913145147264,0.0014072085032239556,0.0035727876238524914,0.0,0.0,0.0,0.0019645344000309706,0.003897401737049222,0.003507614368572831,-0.0030483955051749945,-0.00048544243327341974,-0.00048544243327341974,0.0,0.0,-0.0
1633078984.363129,-0.018190596252679825,-0.02217838354408741,-10.440343856811523,0.0009817893151193857,0.0014203664613887668,0.0035697754938155413,0.0,0.0,0.0,0.001977517269551754,0.0039331247098743916,0.003476143116131425,-0.0030815498903393745,-0.0004308870993554592,-0.0004308870993554592,0.0,0.0,-0.0
1633078984.373354,-0.018208231776952744,-0.022218456491827965,-10.440356254577637,0.0009935072157531977,0.001424948568455875,0.003561633639037609,0.0,0.0,0.0,0.002010202035307884,0.0040075574070215225,0.003496170276775956,-0.003002581652253866,-0.0002096101234201342,-0.0002096101234201342,0.0,0.0,-0.0
1633078984.383222,-0.01822500117123127,-0.02225673384964466,-10.4403657913208,0.0010057776235044003,0.0014309518737718463,0.0035227863118052483,0.0,0.0,0.0,0.002010202035307884,0.0040075574070215225,0.003496170276775956,-0.003002581652253866,-0.0002096101234201342,-0.0002096101234201342,0.0,0.0,-0.0
1633078984.393005,-0.018237197771668434,-0.02228798344731331,-10.440361022949219,0.001027451129630208,0.0014489184832200408,0.003458168124780059,0.0,0.0,0.0,0.00203659082762897,0.0040710968896746635,0.003499031299725175,-0.002990839770063758,-0.000118342722998932,-0.000118342722998932,0.0,0.0,-0.0
1633078984.40313,-0.01825277879834175,-0.022323617711663246,-10.440369606018066,0.0010401562321931124,0.0014576454414054751,0.0034342091530561447,0.0,0.0,0.0,0.00203659082762897,0.0040710968896746635,0.003499031299725175,-0.002990839770063758,-0.000118342722998932,-0.000118342722998932,0.0,0.0,-0.0
1633078984.413094,-0.018263449892401695,-0.022351954132318497,-10.440363883972168,0.0010615772334858775,0.001477906946092844,0.0034342429134994745,0.0,0.0,0.0,0.00203659082762897,0.0040710968896746635,0.003499031299725175,-0.002990839770063758,-0.000118342722998932,-0.000118342722998932,0.0,0.0,-0.0
1633078984.423157,-0.01827326975762844,-0.02237863652408123,-10.44035816192627,0.0010834336280822754,0.0014981901040300727,0.003433345817029476,0.0,0.0,0.0,0.0020560570992529392,0.004123365040868521,0.0034837722778320312,-0.003007687861099839,-0.00010111287701874971,-0.00010111287701874971,0.0,0.0,-0.0
1633078984.433132,-0.018282392993569374,-0.022404005751013756,-10.440350532531738,0.0011051417095586658,0.00151649652980268,0.003381462534889579,0.0,0.0,0.0,0.0020647242199629545,0.00414746580645442,0.0034761428833007812,-0.0029944381676614285,-6.591924466192722e-05,-6.591924466192722e-05,0.0,0.0,-0.0
1633078984.443069,-0.01829090341925621,-0.022428223863244057,-10.440342903137207,0.0011266665533185005,0.0015326091088354588,0.0033578549046069384,0.0,0.0,0.0,0.0020647242199629545,0.00414746580645442,0.0034761428833007812,-0.0029944381676614285,-6.591924466192722e-05,-6.591924466192722e-05,0.0,0.0,-0.0
1633078984.452931,-0.01830322854220867,-0.02245730720460415,-10.440347671508789,0.0011389603605493903,0.001538431504741311,0.0033572388347238302,0.0,0.0,0.0,0.0020845180843025446,0.004198101814836264,0.0034723281860351562,-0.0029936006758362055,3.138140891678631e-05,3.138140891678631e-05,0.0,0.0,-0.0
1633078984.463699,-0.018314987421035767,-0.02248516120016575,-10.440350532531738,0.0011515510268509388,0.0015447343466803432,0.0033681518398225307,0.0,0.0,0.0,0.0020845180843025446,0.004198101814836264,0.0034723281860351562,-0.0029936006758362055,3.138140891678631e-05,3.138140891678631e-05,0.0,0.0,-0.0
1633078984.472951,-0.018325980752706528,-0.022511545568704605,-10.440351486206055,0.001164397457614541,0.0015520612942054868,0.0033614831045269966,0.0,0.0,0.0,0.00211624545045197,0.004273833706974983,0.0034723284188658,-0.002960145939141512,0.00018549745436757803,0.00018549745436757803,0.0,0.0,-0.0
1633078984.483566,-0.018336625769734383,-0.022537024691700935,-10.440351486206055,0.0011776653118431568,0.0015608735848218203,0.003326179226860404,0.0,0.0,0.0,0.00211624545045197,0.004273833706974983,0.0034723284188658,-0.002960145939141512,0.00018549745436757803,0.00018549745436757803,0.0,0.0,-0.0
1633078984.492888,-0.018341830000281334,-0.022554971277713776,-10.440340042114258,0.0011991765350103378,0.0015810014447197318,0.0032925400882959366,0.0,0.0,0.0,0.00213033240288496,0.00431308476254344,0.0034589769784361124,-0.002960924291983247,0.00019312332733534276,0.00019312332733534276,0.0,0.0,-0.0
1633078984.503078,-0.01835145428776741,-0.022578341886401176,-10.440340042114258,0.0012123456690460443,0.0015922471648082137,0.0032873344607651234,0.0,0.0,0.0,0.00213033240288496,0.00431308476254344,0.0034589769784361124,-0.002960924291983247,0.00019312332733534276,0.00019312332733534276,0.0,0.0,-0.0
1633078984.513268,-0.01835537888109684,-0.02259381115436554,-10.440324783325195,0.001234286930412054,0.001614987151697278,0.0033072589430958033,0.0,0.0,0.0,0.0021373415365815163,0.004341623745858669,0.0034246447030454874,-0.0030041809659451246,0.00013985289842821658,0.00013985289842821658,0.0,0.0,-0.0
