current_time,position.x,position.y,position.z,velocity.x,velocity.y,velocity.z,pos_sp.x,pos_sp.y,pos_sp.z,vel_sp.x,vel_sp.y,vel_sp.z,acc_sp.x,acc_sp.y,acc_sp.y,payload_angles.x,payload_angles.y,payload_angles.z,simulink_acc_sp.x,simulink_acc_sp.y,simulink_acc_sp.y
1633080148.495464,-0.0012358545791357756,0.0035685566253960133,-7.2838335037231445,0.0005401959642767906,-0.0018537819851189852,-0.004600196145474911,0.0,0.0,0.0,0.0011792751029133797,-0.0033927750773727894,-0.0045981393195688725,0.0015608564717695117,-0.0034897809382528067,-0.0034897809382528067,0.0,0.0,-0.0,0.0,0.0,0.0
1633080148.499539,-0.0012358545791357756,0.0035685566253960133,-7.2838335037231445,0.0005401959642767906,-0.0018537819851189852,-0.004600196145474911,0.0,0.0,0.0,0.0011792751029133797,-0.0033927750773727894,-0.0045981393195688725,0.0015608564717695117,-0.0034897809382528067,-0.0034897809382528067,0.0,0.0,-0.0,0.0,0.0,0.0
1633080148.51009,-0.0012302572140470147,0.003568405518308282,-7.283836364746094,0.0005362482625059783,-0.0018656536703929305,-0.004643320571631193,0.0,0.0,0.0,0.001168605056591332,-0.0033931888174265623,-0.004595278296619654,0.0015463826712220907,-0.003402089234441519,-0.003402089234441519,0.0,0.0,-0.0,0.0,0.0,0.0
1633080148.519497,-0.001223262632265687,0.0035804363433271646,-7.283811092376709,0.0005306428065523505,-0.0018770428141579032,-0.004640519618988037,0.0,0.0,0.0,0.0011619603028520942,-0.003404618240892887,-0.004620073828846216,0.001542319543659687,-0.003410383826121688,-0.003410383826121688,0.0,0.0,-0.0,0.0,0.0,0.0
1633080148.529594,-0.0012196723837405443,0.0035851129796355963,-7.283801078796387,0.0005280973855406046,-0.0018836254021152854,-0.004638292361050844,0.0,0.0,0.0,0.0011619603028520942,-0.003404618240892887,-0.004620073828846216,0.001542319543659687,-0.003410383826121688,-0.003410383826121688,0.0,0.0,-0.0,0.0,0.0,0.0
1633080148.540442,-0.001216016593389213,0.0035888785496354103,-7.283784866333008,0.0005255761207081378,-0.0018912558443844318,-0.004652291536331177,0.0,0.0,0.0,0.0011619603028520942,-0.003404618240892887,-0.004620073828846216,0.001542319543659687,-0.003410383826121688,-0.003410383826121688,0.0,0.0,-0.0,0.0,0.0,0.0
1633080148.549655,-0.0012102408800274134,0.0035842591896653175,-7.28378963470459,0.0005223267944529653,-0.001907382975332439,-0.004705592058598995,0.0,0.0,0.0,0.0011495895450934768,-0.0034082499332726,-0.00464200833812356,0.0015265453839674592,-0.0033325147815048695,-0.0033325147815048695,0.0,0.0,-0.0,0.0,0.0,0.0
1633080148.559621,-0.0012045090552419424,0.003579020267352462,-7.283796310424805,0.0005187781644053757,-0.0019257235107943416,-0.004747808910906315,0.0,0.0,0.0,0.0011441443348303437,-0.003403272945433855,-0.004635809455066919,0.0015252860030159354,-0.0032691885717213154,-0.0032691885717213154,0.0,0.0,-0.0,0.0,0.0,0.0
1633080148.569917,-0.0012045090552419424,0.003579020267352462,-7.283796310424805,0.0005187781644053757,-0.0019257235107943416,-0.004747808910906315,0.0,0.0,0.0,0.0011441443348303437,-0.003403272945433855,-0.004635809455066919,0.0015252860030159354,-0.0032691885717213154,-0.0032691885717213154,0.0,0.0,-0.0,0.0,0.0,0.0
1633080148.582012,-0.0011949142208322883,0.003573179943487048,-7.283797740936279,0.0005151998484507203,-0.0019464323995634913,-0.004778760019689798,0.0,0.0,0.0,0.0011350292479619384,-0.0033977245911955833,-0.004634855780750513,0.0015196646563708782,-0.003158304840326309,-0.003158304840326309,0.0,0.0,-0.0,0.0,0.0,0.0
1633080148.590635,-0.001189176575280726,0.0035656339023262262,-7.283810138702393,0.0005126965697854757,-0.001958829816430807,-0.004793792497366667,0.0,0.0,0.0,0.0011350292479619384,-0.0033977245911955833,-0.004634855780750513,0.0015196646563708782,-0.003158304840326309,-0.003158304840326309,0.0,0.0,-0.0,0.0,0.0,0.0
1633080148.599708,-0.001189176575280726,0.0035656339023262262,-7.283810138702393,0.0005103022558614612,-0.0019798539578914642,-0.004852242302149534,0.0,0.0,0.0,0.0011350292479619384,-0.0033977245911955833,-0.004634855780750513,0.0015196646563708782,-0.003158304840326309,-0.003158304840326309,0.0,0.0,-0.0,0.0,0.0,0.0
1633080148.611758,-0.0011794468155130744,0.0035553183406591415,-7.283815860748291,0.0005083053838461637,-0.0020138996187597513,-0.00498574785888195,0.0,0.0,0.0,0.0011239781742915511,-0.003382076509296894,-0.0046057687141001225,0.001496626646257937,-0.0030220593325793743,-0.0030220593325793743,0.0,0.0,-0.0,0.0,0.0,0.0
1633080148.620547,-0.001175596727989614,0.0035533616319298744,-7.283807277679443,0.0005083053838461637,-0.0020138996187597513,-0.00498574785888195,0.0,0.0,0.0,0.0011239781742915511,-0.003382076509296894,-0.0046057687141001225,0.001496626646257937,-0.0030220593325793743,-0.0030220593325793743,0.0,0.0,-0.0,0.0,0.0,0.0
1633080148.629847,-0.0011716119479387999,0.003550451248884201,-7.283801555633545,0.0005085999146103859,-0.00203905813395977,-0.005097685381770134,0.0,0.0,0.0,0.0011166776530444622,-0.0033788972068578005,-0.004625319037586451,0.0014609862118959427,-0.002947782166302204,-0.002947782166302204,0.0,0.0,-0.0,0.0,0.0,0.0
1633080148.639695,-0.0011656546266749501,0.003539204364642501,-7.283817768096924,0.0005105244927108288,-0.002058962360024452,-0.005169193260371685,0.0,0.0,0.0,0.0011072326451539993,-0.0033654477447271347,-0.004615305457264185,0.0014098983956500888,-0.0028443606570363045,-0.0028443606570363045,0.0,0.0,-0.0,0.0,0.0,0.0
1633080148.650177,-0.0011656546266749501,0.003539204364642501,-7.283817768096924,0.0005105244927108288,-0.002058962360024452,-0.005169193260371685,0.0,0.0,0.0,0.0011072326451539993,-0.0033654477447271347,-0.004615305457264185,0.0014098983956500888,-0.0028443606570363045,-0.0028443606570363045,0.0,0.0,-0.0,0.0,0.0,0.0
1633080148.661432,-0.001155445585027337,0.0035223180893808603,-7.283836364746094,0.0005149829667061567,-0.00208937912248075,-0.005233923904597759,0.0,0.0,0.0,0.0010975340846925974,-0.0033494059462100267,-0.004597185645252466,0.0013541070511564612,-0.002748485654592514,-0.002748485654592514,0.0,0.0,-0.0,0.0,0.0,0.0
1633080148.673183,-0.001151283853687346,0.003517210017889738,-7.283837795257568,0.0005166585324332118,-0.0020996390376240015,-0.005247356835752726,0.0,0.0,0.0,0.0010975340846925974,-0.0033494059462100267,-0.004597185645252466,0.0013541070511564612,-0.002748485654592514,-0.002748485654592514,0.0,0.0,-0.0,0.0,0.0,0.0
1633080148.679763,-0.00114684016443789,0.0035106062423437834,-7.283834457397461,0.0005182039458304644,-0.0021093569230288267,-0.005256566219031811,0.0,0.0,0.0,0.0010975340846925974,-0.0033494059462100267,-0.004597185645252466,0.0013541070511564612,-0.002748485654592514,-0.002748485654592514,0.0,0.0,-0.0,0.0,0.0,0.0
1633080148.689974,-0.0010953462915495038,0.0035019502975046635,-7.283817291259766,0.0005182039458304644,-0.0021093569230288267,-0.005256566219031811,0.0,0.0,0.0,0.001040439703501761,-0.003330056555569172,-0.004615782294422388,0.0011848226422443986,-0.0027265443932265043,-0.0027265443932265043,0.0,0.0,-0.0,0.0,0.0,0.0
1633080148.699703,-0.0010452757123857737,0.0034922633785754442,-7.283803462982178,0.0005273384740576148,-0.0021124950144439936,-0.005233727861195803,0.0,0.0,0.0,0.001040439703501761,-0.003330056555569172,-0.004615782294422388,0.0011848226422443986,-0.0027265443932265043,-0.0027265443932265043,0.0,0.0,-0.0,0.0,0.0,0.0
1633080148.709791,-0.0009987707016989589,0.003490281756967306,-7.283771991729736,0.0005343821248970926,-0.0021123208571225405,-0.005192766897380352,0.0,0.0,0.0,0.000992872635833919,-0.0033208539243787527,-0.004629610572010279,0.001057649147696793,-0.0027559532318264246,-0.0027559532318264246,0.0,0.0,-0.0,0.0,0.0,0.0
1633080148.720013,-0.0009514853009022772,0.003479856066405773,-7.283761501312256,0.0005425194394774735,-0.002103810664266348,-0.005091623403131962,0.0,0.0,0.0,0.000903771782759577,-0.0033090668730437756,-0.004672049079090357,0.000873178883921355,-0.0028413236141204834,-0.0028413236141204834,0.0,0.0,-0.0,0.0,0.0,0.0
1633080148.729923,-0.0009075917769223452,0.003477457445114851,-7.283732891082764,0.0005425194394774735,-0.002103810664266348,-0.005091623403131962,0.0,0.0,0.0,0.000903771782759577,-0.0033090668730437756,-0.004672049079090357,0.000873178883921355,-0.0028413236141204834,-0.0028413236141204834,0.0,0.0,-0.0,0.0,0.0,0.0
1633080148.741087,-0.0008627217030152678,0.003466162597760558,-7.283725738525391,0.0005438441876322031,-0.002095744013786316,-0.005012874491512775,0.0,0.0,0.0,0.0008194463443942368,-0.0032960581593215466,-0.004708288703113794,0.00073649623664096,-0.0028763660229742527,-0.0028763660229742527,0.0,0.0,-0.0,0.0,0.0,0.0
1633080148.749684,-0.0008213655673898757,0.0034626948181539774,-7.283701419830322,0.0005441142711788416,-0.0020916766952723265,-0.004985978826880455,0.0,0.0,0.0,0.0008194463443942368,-0.0032960581593215466,-0.004708288703113794,0.00073649623664096,-0.0028763660229742527,-0.0028763660229742527,0.0,0.0,-0.0,0.0,0.0,0.0
1633080148.761011,-0.0007810989045538008,0.003458672435954213,-7.2836737632751465,0.0005441142711788416,-0.0020916766952723265,-0.004985978826880455,0.0,0.0,0.0,0.0008194463443942368,-0.0032960581593215466,-0.004708288703113794,0.00073649623664096,-0.0028763660229742527,-0.0028763660229742527,0.0,0.0,-0.0,0.0,0.0,0.0
1633080148.771481,-0.0007399239111691713,0.0034464383497834206,-7.283665657043457,0.0005397007334977388,-0.002085211221128702,-0.004894680809229612,0.0,0.0,0.0,0.0007027884712442756,-0.0032773201819509268,-0.004768847022205591,0.0005665051285177469,-0.0028875430580228567,-0.0028875430580228567,0.0,0.0,-0.0,0.0,0.0,0.0
1633080148.781163,-0.0006999311153776944,0.0034333732910454273,-7.283660888671875,0.0005347055848687887,-0.002079784870147705,-0.0048823971301317215,0.0,0.0,0.0,0.0006647953414358199,-0.0032649082131683826,-0.004772661719471216,0.000528016418684274,-0.002869531512260437,-0.002869531512260437,0.0,0.0,-0.0,0.0,0.0,0.0
1633080148.791688,-0.0006612244760617614,0.003420082153752446,-7.283658504486084,0.0005289679393172264,-0.002070402493700385,-0.004893262404948473,0.0,0.0,0.0,0.0006647953414358199,-0.0032649082131683826,-0.004772661719471216,0.000528016418684274,-0.002869531512260437,-0.002869531512260437,0.0,0.0,-0.0,0.0,0.0,0.0
1633080148.799645,-0.0006258056964725256,0.0034147631376981735,-7.283638000488281,0.0005289679393172264,-0.002070402493700385,-0.004893262404948473,0.0,0.0,0.0,0.0006647953414358199,-0.0032649082131683826,-0.004772661719471216,0.000528016418684274,-0.002869531512260437,-0.002869531512260437,0.0,0.0,-0.0,0.0,0.0,0.0
1633080148.81014,-0.0005912811611779034,0.0034089512191712856,-7.283620357513428,0.0005262793856672943,-0.002059847116470337,-0.004878019914031029,0.0,0.0,0.0,0.0005943761789239943,-0.0032472286839038134,-0.004796026740223169,0.0004414939903654158,-0.00292391749098897,-0.00292391749098897,0.0,0.0,-0.0,0.0,0.0,0.0
1633080148.819799,-0.0005912811611779034,0.0034089512191712856,-7.283620357513428,0.0005230219685472548,-0.002048179740086198,-0.00485109630972147,0.0,0.0,0.0,0.0005943761789239943,-0.0032472286839038134,-0.004796026740223169,0.0004414939903654158,-0.00292391749098897,-0.00292391749098897,0.0,0.0,-0.0,0.0,0.0,0.0
1633080148.831043,-0.0005231567192822695,0.0033885110169649124,-7.283604145050049,0.0005109530175104737,-0.0020206936169415712,-0.004771812353283167,0.0,0.0,0.0,0.0005277677555568516,-0.0032284168992191553,-0.0048117623664438725,0.0003646075783763081,-0.00298589700832963,-0.00298589700832963,0.0,0.0,-0.0,0.0,0.0,0.0
1633080148.839575,-0.0004916830803267658,0.0033819403033703566,-7.283587455749512,0.0005063370917923748,-0.0020093112252652645,-0.004778734873980284,0.0,0.0,0.0,0.0005277677555568516,-0.0032284168992191553,-0.0048117623664438725,0.0003646075783763081,-0.00298589700832963,-0.00298589700832963,0.0,0.0,-0.0,0.0,0.0,0.0
1633080148.849819,-0.0004591936885844916,0.003367037745192647,-7.283592224121094,0.0004968151333741844,-0.001996668055653572,-0.0048070489428937435,0.0,0.0,0.0,0.00043609473505057395,-0.0032018895726650953,-0.004842756781727076,0.00025947330868802965,-0.003028111532330513,-0.003028111532330513,0.0,0.0,-0.0,0.0,0.0,0.0
1633080148.859997,-0.00042947594192810357,0.003359743859618902,-7.2835798263549805,0.0004968151333741844,-0.001996668055653572,-0.0048070489428937435,0.0,0.0,0.0,0.00043609473505057395,-0.0032018895726650953,-0.004842756781727076,0.00025947330868802965,-0.003028111532330513,-0.003028111532330513,0.0,0.0,-0.0,0.0,0.0,0.0
1633080148.869555,-0.0003987431700807065,0.0033447796013206244,-7.283587455749512,0.0004810798855032772,-0.0019767368212342262,-0.004774181637912989,0.0,0.0,0.0,0.000378666736651212,-0.003180744359269738,-0.00484800199046731,0.00020378839690238237,-0.002997756702825427,-0.002997756702825427,0.0,0.0,-0.0,0.0,0.0,0.0
1633080148.879613,-0.0003707280848175287,0.003336898051202297,-7.283578395843506,0.0004749227373395115,-0.0019675837829709053,-0.004746230784803629,0.0,0.0,0.0,0.000378666736651212,-0.003180744359269738,-0.00484800199046731,0.00020378839690238237,-0.002997756702825427,-0.002997756702825427,0.0,0.0,-0.0,0.0,0.0,0.0
1633080148.889529,-0.00034177021007053554,0.003321655560284853,-7.283588409423828,0.00046399544226005673,-0.0019546188414096832,-0.0047706919722259045,0.0,0.0,0.0,0.0003245424304623157,-0.003158776555210352,-0.004846571478992701,0.00015300563245546073,-0.0029856201726943254,-0.0029856201726943254,0.0,0.0,-0.0,0.0,0.0,0.0
1633080148.900214,-0.0003136219165753573,0.0033056880347430706,-7.283597946166992,0.00045227952068671584,-0.0019388172077015042,-0.004799288231879473,0.0,0.0,0.0,0.0003245424304623157,-0.003158776555210352,-0.004846571478992701,0.00015300563245546073,-0.0029856201726943254,-0.0029856201726943254,0.0,0.0,-0.0,0.0,0.0,0.0
1633080148.909665,-0.00028806758928112686,0.0032975533977150917,-7.283588886260986,0.0004453784495126456,-0.0019256991799920797,-0.004791720770299435,0.0,0.0,0.0,0.0002978015400003642,-0.0031436074059456587,-0.004837034735828638,0.00013946332910563797,-0.0029849985148757696,-0.0029849985148757696,0.0,0.0,-0.0,0.0,0.0,0.0
1633080148.921466,-0.000261610490269959,0.0032816247548907995,-7.283600807189941,0.0004330176452640444,-0.0019071412971243262,-0.004761985968798399,0.0,0.0,0.0,0.0002978015400003642,-0.0031436074059456587,-0.004837034735828638,0.00013946332910563797,-0.0029849985148757696,-0.0029849985148757696,0.0,0.0,-0.0,0.0,0.0,0.0
1633080148.929895,-0.0002376675111008808,0.003273013746365905,-7.283595561981201,0.0004254691011738032,-0.0018935808911919594,-0.004739859141409397,0.0,0.0,0.0,0.0002483906864654273,-0.003120747162029147,-0.0048346505500376225,9.817561658564955e-05,-0.0030259108170866966,-0.0030259108170866966,0.0,0.0,-0.0,0.0,0.0,0.0
1633080148.939678,-0.00021440013370011002,0.003264395985752344,-7.283591270446777,0.00041779479943215847,-0.00188084552064538,-0.004743738565593958,0.0,0.0,0.0,0.0002483906864654273,-0.003120747162029147,-0.0048346505500376225,9.817561658564955e-05,-0.0030259108170866966,-0.0030259108170866966,0.0,0.0,-0.0,0.0,0.0,0.0
1633080148.949579,-0.0001917422196129337,0.003255541669204831,-7.2835893630981445,0.00040991828427650034,-0.0018690963042899966,-0.004770743660628796,0.0,0.0,0.0,0.00018201583588961512,-0.003095968160778284,-0.004846571478992701,2.7552960091270506e-05,-0.0030563678592443466,-0.0030563678592443466,0.0,0.0,-0.0,0.0,0.0,0.0
1633080148.96095,-0.0001917422196129337,0.003255541669204831,-7.2835893630981445,0.00040991828427650034,-0.0018690963042899966,-0.004770743660628796,0.0,0.0,0.0,0.00018201583588961512,-0.003095968160778284,-0.004846571478992701,2.7552960091270506e-05,-0.0030563678592443466,-0.0030563678592443466,0.0,0.0,-0.0,0.0,0.0,0.0
1633080148.96966,-0.0001468702539568767,0.0032301091123372316,-7.283604145050049,0.00038881864747963846,-0.0018456947291269898,-0.004800896625965834,0.0,0.0,0.0,0.0001393874699715525,-0.003071807324886322,-0.004832266364246607,-1.457126927562058e-06,-0.0030145125929266214,-0.0030145125929266214,0.0,0.0,-0.0,0.0,0.0,0.0
1633080148.979809,-0.00012631442223209888,0.003220966551452875,-7.283601760864258,0.00038117350777611136,-0.00183689605910331,-0.0047831665724515915,0.0,0.0,0.0,0.0001393874699715525,-0.003071807324886322,-0.004832266364246607,-1.457126927562058e-06,-0.0030145125929266214,-0.0030145125929266214,0.0,0.0,-0.0,0.0,0.0,0.0
1633080148.990114,-0.0001047696714522317,0.003203988540917635,-7.283620357513428,0.00036821229150518775,-0.001824464532546699,-0.00479516526684165,0.0,0.0,0.0,9.939192386809736e-05,-0.00304699270054698,-0.0048155770637094975,-3.322193515487015e-05,-0.002970038680359721,-0.002970038680359721,0.0,0.0,-0.0,0.0,0.0,0.0
1633080148.999857,-8.397866622544825e-05,0.0031870135571807623,-7.2836408615112305,0.0003556352749001235,-0.0018107948126271367,-0.004856282379478216,0.0,0.0,0.0,9.939192386809736e-05,-0.00304699270054698,-0.0048155770637094975,-3.322193515487015e-05,-0.002970038680359721,-0.002970038680359721,0.0,0.0,-0.0,0.0,0.0,0.0
1633080149.009747,-6.395640957634896e-05,0.0031702802516520023,-7.283662796020508,0.00034358183620497584,-0.001795802847482264,-0.0048990631476044655,0.0,0.0,0.0,6.061932072043419e-05,-0.0030149698723107576,-0.0047736153937876225,-5.637218418996781e-05,-0.0029455311596393585,-0.0029455311596393585,0.0,0.0,-0.0,0.0,0.0,0.0
1633080149.020452,-6.395640957634896e-05,0.0031702802516520023,-7.283662796020508,0.00034358183620497584,-0.001795802847482264,-0.0048990631476044655,0.0,0.0,0.0,6.061932072043419e-05,-0.0030149698723107576,-0.0047736153937876225,-5.637218418996781e-05,-0.0029455311596393585,-0.0029455311596393585,0.0,0.0,-0.0,0.0,0.0,0.0
1633080149.032805,-2.687267624423839e-05,0.0031429564114660025,-7.283693790435791,0.000324290303979069,-0.0017683383775874972,-0.004890745971351862,0.0,0.0,0.0,4.2112485971301794e-05,-0.002998822834342718,-0.004749296698719263,-7.053303124848753e-05,-0.0029327436350286007,-0.0029327436350286007,0.0,0.0,-0.0,0.0,0.0,0.0
1633080149.041895,-8.617164894531015e-06,0.003126156283542514,-7.283719539642334,0.0003127649542875588,-0.001753870164975524,-0.0049347663298249245,0.0,0.0,0.0,8.047040864767041e-06,-0.0029730522073805332,-0.004717348609119654,-0.00010647100862115622,-0.0029230182990431786,-0.0029230182990431786,0.0,0.0,-0.0,0.0,0.0,0.0
1633080149.049776,9.283656254410744e-06,0.0031077212188392878,-7.283747673034668,0.0003001891600433737,-0.0017403457313776016,-0.004985661245882511,0.0,0.0,0.0,8.047040864767041e-06,-0.0029730522073805332,-0.004717348609119654,-0.00010647100862115622,-0.0029230182990431786,-0.0029230182990431786,0.0,0.0,-0.0,0.0,0.0,0.0
1633080149.061798,2.5287783500971273e-05,0.0030973474495112896,-7.283753395080566,0.0003001891600433737,-0.0017403457313776016,-0.004985661245882511,0.0,0.0,0.0,8.047040864767041e-06,-0.0029730522073805332,-0.004717348609119654,-0.00010647100862115622,-0.0029230182990431786,-0.0029230182990431786,0.0,0.0,-0.0,0.0,0.0,0.0
1633080149.073519,4.083246676600538e-05,0.003086978103965521,-7.283759593963623,0.00028561687213368714,-0.0017242052126675844,-0.004976578056812286,0.0,0.0,0.0,-2.4162658519344404e-05,-0.002945683663710952,-0.004683970008045435,-0.00012807744496967643,-0.0028842254541814327,-0.0028842254541814327,0.0,0.0,-0.0,0.0,0.0,0.0
1633080149.079617,5.591399531112984e-05,0.0030761961825191975,-7.283768177032471,0.0002779679198283702,-0.0017160444986075163,-0.004959268495440483,0.0,0.0,0.0,-2.4162658519344404e-05,-0.002945683663710952,-0.004683970008045435,-0.00012807744496967643,-0.0028842254541814327,-0.0028842254541814327,0.0,0.0,-0.0,0.0,0.0,0.0
1633080149.08991,0.0001106797280954197,0.0030687639955431223,-7.283759593963623,0.0002719503827393055,-0.0016935677267611027,-0.004974186420440674,0.0,0.0,0.0,-0.00010528500570217147,-0.0029185295570641756,-0.004677293822169304,-0.00025899341562762856,-0.002906347857788205,-0.002906347857788205,0.0,0.0,-0.0,0.0,0.0,0.0
1633080149.100572,0.000163579621585086,0.003060670103877783,-7.283755302429199,0.00026500894455239177,-0.0016692124772816896,-0.004974236246198416,0.0,0.0,0.0,-0.00015553990670014173,-0.0029108403250575066,-0.004681585356593132,-0.0003536244039423764,-0.002955768024548888,-0.002955768024548888,0.0,0.0,-0.0,0.0,0.0,0.0
1633080149.11098,0.0002135840622941032,0.003059098031371832,-7.283732891082764,0.0002626160567160696,-0.0016491224523633718,-0.004950239788740873,0.0,0.0,0.0,-0.00015553990670014173,-0.0029108403250575066,-0.004681585356593132,-0.0003536244039423764,-0.002955768024548888,-0.002955768024548888,0.0,0.0,-0.0,0.0,0.0,0.0
1633080149.120242,0.0002628680958878249,0.003050572006031871,-7.28372859954834,0.0002626160567160696,-0.0016491224523633718,-0.004950239788740873,0.0,0.0,0.0,-0.00015553990670014173,-0.0029108403250575066,-0.004681585356593132,-0.0003536244039423764,-0.002955768024548888,-0.002955768024548888,0.0,0.0,-0.0,0.0,0.0,0.0
1633080149.129686,0.0002628680958878249,0.003050572006031871,-7.28372859954834,0.0002545402676332742,-0.0016241223784163594,-0.004903040826320648,0.0,0.0,0.0,-0.0002498639514669776,-0.002901247004047036,-0.00470876507461071,-0.000525643874425441,-0.0030687234830111265,-0.0030687234830111265,0.0,0.0,-0.0,0.0,0.0,0.0
1633080149.140388,0.0003557437448762357,0.003039643866941333,-7.283705711364746,0.00024196117010433227,-0.0015842586290091276,-0.004850667901337147,0.0,0.0,0.0,-0.0002498639514669776,-0.002901247004047036,-0.00470876507461071,-0.000525643874425441,-0.0030687234830111265,-0.0030687234830111265,0.0,0.0,-0.0,0.0,0.0,0.0
1633080149.14999,0.0003992753045167774,0.003037082962691784,-7.283687114715576,0.00023779271577950567,-0.0015692687593400478,-0.004830323159694672,0.0,0.0,0.0,-0.00033809582237154245,-0.0028908653184771538,-0.004732130095362663,-0.0006656027399003506,-0.003121379530057311,-0.003121379530057311,0.0,0.0,-0.0,0.0,0.0,0.0
1633080149.160339,0.00044241262366995215,0.0030280444771051407,-7.283689498901367,0.00023779271577950567,-0.0015692687593400478,-0.004830323159694672,0.0,0.0,0.0,-0.00033809582237154245,-0.0028908653184771538,-0.004732130095362663,-0.0006656027399003506,-0.003121379530057311,-0.003121379530057311,0.0,0.0,-0.0,0.0,0.0,0.0
1633080149.169679,0.00044241262366995215,0.0030280444771051407,-7.283689498901367,0.0002276960585732013,-0.0015528911026194692,-0.004791582934558392,0.0,0.0,0.0,-0.00042043125722557306,-0.0028798459097743034,-0.004748819395899773,-0.0007830483373254538,-0.0031182512175291777,-0.0031182512175291777,0.0,0.0,-0.0,0.0,0.0,0.0
1633080149.179713,0.00048418427468277514,0.0030189789831638336,-7.283693313598633,0.0002171947417082265,-0.0015373133355751634,-0.0047395359724760056,0.0,0.0,0.0,-0.00042043125722557306,-0.0028798459097743034,-0.004748819395899773,-0.0007830483373254538,-0.0031182512175291777,-0.0031182512175291777,0.0,0.0,-0.0,0.0,0.0,0.0
1633080149.189629,0.0005246088840067387,0.0030099782161414623,-7.283698081970215,0.00020641705486923456,-0.0015207352116703987,-0.004742450080811977,0.0,0.0,0.0,-0.0004985176492482424,-0.002862683031708002,-0.004739759489893913,-0.0008659057784825563,-0.003093317849561572,-0.003093317849561572,0.0,0.0,-0.0,0.0,0.0,0.0
1633080149.199994,0.0005630225641652942,0.0030066007748246193,-7.283682346343994,0.00020069957827217877,-0.0015060720033943653,-0.004759530536830425,0.0,0.0,0.0,-0.0004985176492482424,-0.002862683031708002,-0.004739759489893913,-0.0008659057784825563,-0.003093317849561572,-0.003093317849561572,0.0,0.0,-0.0,0.0,0.0,0.0
1633080149.210212,0.000600796309299767,0.0029972237534821033,-7.283687591552734,0.0001893334265332669,-0.0014862359967082739,-0.004762067925184965,0.0,0.0,0.0,-0.0005708957323804498,-0.002850566292181611,-0.004750726744532585,-0.0009566837106831372,-0.003124986309558153,-0.003124986309558153,0.0,0.0,-0.0,0.0,0.0,0.0
1633080149.221698,0.0006366699817590415,0.002993691945448518,-7.283675193786621,0.00018344704585615546,-0.0014701627660542727,-0.004740780685096979,0.0,0.0,0.0,-0.0006380206905305386,-0.002843881957232952,-0.0047750454396009445,-0.0010581709211692214,-0.0031781510915607214,-0.0031781510915607214,0.0,0.0,-0.0,0.0,0.0,0.0
1633080149.229534,0.0006714541814289987,0.0029901876114308834,-7.283663272857666,0.00017755715816747397,-0.0014543397119268775,-0.004708951339125633,0.0,0.0,0.0,-0.0006380206905305386,-0.002843881957232952,-0.0047750454396009445,-0.0010581709211692214,-0.0031781510915607214,-0.0031781510915607214,0.0,0.0,-0.0,0.0,0.0,0.0
1633080149.239935,0.0007373826811090112,0.0029822152573615313,-7.283646106719971,0.00016517424955964088,-0.0014250108506530523,-0.004696392919868231,0.0,0.0,0.0,-0.0006380206905305386,-0.002843881957232952,-0.0047750454396009445,-0.0010581709211692214,-0.0031781510915607214,-0.0031781510915607214,0.0,0.0,-0.0,0.0,0.0,0.0
1633080149.250064,0.0007692101062275469,0.002972239861264825,-7.283659934997559,0.00015348051965702325,-0.0014089439064264297,-0.004718408919870853,0.0,0.0,0.0,-0.0007308888016268611,-0.0028268315363675356,-0.0047788601368665695,-0.0011724741198122501,-0.0032028029672801495,-0.0032028029672801495,0.0,0.0,-0.0,0.0,0.0,0.0
1633080149.259727,0.0007994298939593136,0.0029679180588573217,-7.283650875091553,0.00014734221622347832,-0.001397862215526402,-0.0047082058154046535,0.0,0.0,0.0,-0.0007308888016268611,-0.0028268315363675356,-0.0047788601368665695,-0.0011724741198122501,-0.0032028029672801495,-0.0032028029672801495,0.0,0.0,-0.0,0.0,0.0,0.0
1633080149.269822,0.0008292710408568382,0.002957879798486829,-7.283662796020508,0.0001358893932774663,-0.001384756644256413,-0.004676185082644224,0.0,0.0,0.0,-0.0007308888016268611,-0.0028268315363675356,-0.0047788601368665695,-0.0011724741198122501,-0.0032028029672801495,-0.0032028029672801495,0.0,0.0,-0.0,0.0,0.0,0.0
1633080149.279828,0.000857508392073214,0.0029529212042689323,-7.283658027648926,0.0001294623507419601,-0.0013742292067036033,-0.004644116852432489,0.0,0.0,0.0,-0.0007879467448219657,-0.002813189523294568,-0.004776475951075554,-0.0012487847125157714,-0.0032008644193410873,-0.0032008644193410873,0.0,0.0,-0.0,0.0,0.0,0.0
1633080149.289615,0.0008852983010001481,0.0029429756104946136,-7.2836713790893555,0.00011840259685413912,-0.0013598916120827198,-0.004621510859578848,0.0,0.0,0.0,-0.0008411725866608322,-0.0027990303933620453,-0.0047674160450696945,-0.001318072434514761,-0.003211247967556119,-0.003211247967556119,0.0,0.0,-0.0,0.0,0.0,0.0
1633080149.301008,0.0009117820882238448,0.0029379292391240597,-7.283668518066406,0.00011195555271115154,-0.0013479019980877638,-0.004597813356667757,0.0,0.0,0.0,-0.0008411725866608322,-0.0027990303933620453,-0.0047674160450696945,-0.001318072434514761,-0.003211247967556119,-0.003211247967556119,0.0,0.0,-0.0,0.0,0.0,0.0
1633080149.309979,0.0009376698872074485,0.002927720081061125,-7.283683776855469,0.0001006234233500436,-0.0013320683501660824,-0.004556093364953995,0.0,0.0,0.0,-0.0008909256430342793,-0.00278453784994781,-0.004755495116114616,-0.0013805982889607549,-0.0032454070169478655,-0.0032454070169478655,0.0,0.0,-0.0,0.0,0.0,0.0
1633080149.319882,0.0009625536040402949,0.0029172590002417564,-7.283700466156006,8.897361112758517e-05,-0.0013173194602131844,-0.004504150710999966,0.0,0.0,0.0,-0.0009145651711151004,-0.0027745997067540884,-0.004738805815577507,-0.0014044237323105335,-0.0032553214114159346,-0.0032553214114159346,0.0,0.0,-0.0,0.0,0.0,0.0
1633080149.329932,0.0009625536040402949,0.0029172590002417564,-7.283700466156006,8.897361112758517e-05,-0.0013173194602131844,-0.004504150710999966,0.0,0.0,0.0,-0.0009145651711151004,-0.0027745997067540884,-0.004738805815577507,-0.0014044237323105335,-0.0032553214114159346,-0.0032553214114159346,0.0,0.0,-0.0,0.0,0.0,0.0
1633080149.339987,0.0009865855099633336,0.002906771609559655,-7.2837138175964355,7.703241135459393e-05,-0.0013056137831881642,-0.004494450055062771,0.0,0.0,0.0,-0.0009591874550096691,-0.002759534167125821,-0.004728792235255241,-0.0014505712315440178,-0.003233721712604165,-0.003233721712604165,0.0,0.0,-0.0,0.0,0.0,0.0
1633080149.350699,0.0010319538414478302,0.002890709089115262,-7.283728122711182,6.987881351960823e-05,-0.0012990282848477364,-0.0045183757320046425,0.0,0.0,0.0,-0.0009591874550096691,-0.002759534167125821,-0.004728792235255241,-0.0014505712315440178,-0.003233721712604165,-0.003233721712604165,0.0,0.0,-0.0,0.0,0.0,0.0
1633080149.359779,0.001053280895575881,0.0028848014771938324,-7.283729076385498,5.675991269527003e-05,-0.0012946637580171227,-0.004559102933853865,0.0,0.0,0.0,-0.0009591874550096691,-0.002759534167125821,-0.004728792235255241,-0.0014505712315440178,-0.003233721712604165,-0.003233721712604165,0.0,0.0,-0.0,0.0,0.0,0.0
1633080149.369666,0.001053280895575881,0.0028848014771938324,-7.283729076385498,4.8296362365363166e-05,-0.001293214038014412,-0.004578412976115942,0.0,0.0,0.0,-0.0010007560485973954,-0.002743765013292432,-0.004711149260401726,-0.00148143304977566,-0.0031583982054144144,-0.0031583982054144144,0.0,0.0,-0.0,0.0,0.0,0.0
1633080149.379745,0.0010937125189229846,0.00287287007085979,-7.283734321594238,3.9499940612586215e-05,-0.0012934099650010467,-0.004592874087393284,0.0,0.0,0.0,-0.0010007560485973954,-0.002743765013292432,-0.004711149260401726,-0.00148143304977566,-0.0031583982054144144,-0.0031583982054144144,0.0,0.0,-0.0,0.0,0.0,0.0
1633080149.391096,0.0011127868201583624,0.002861439948901534,-7.283757209777832,2.9540766263380647e-05,-0.0012951449025422335,-0.004608068149536848,0.0,0.0,0.0,-0.0010572867467999458,-0.002721571596339345,-0.004682539030909538,-0.0014938475796952844,-0.003011214779689908,-0.003011214779689908,0.0,0.0,-0.0,0.0,0.0,0.0
1633080149.399727,0.0011127868201583624,0.002861439948901534,-7.283757209777832,1.1483113667054567e-05,-0.0013009642716497183,-0.004666067194193602,0.0,0.0,0.0,-0.0010572867467999458,-0.002721571596339345,-0.004682539030909538,-0.0014938475796952844,-0.003011214779689908,-0.003011214779689908,0.0,0.0,-0.0,0.0,0.0,0.0
1633080149.40989,0.0011483462294563651,0.0028424933552742004,-7.283786773681641,-1.435590547771426e-06,-0.0013055010931566358,-0.004713902249932289,0.0,0.0,0.0,-0.0010910681448876858,-0.002703572390601039,-0.004653451964259148,-0.0014367259573191404,-0.0028534408193081617,-0.0028534408193081617,0.0,0.0,-0.0,0.0,0.0,0.0
1633080149.420544,0.0011483462294563651,0.0028424933552742004,-7.283786773681641,-2.37324111367343e-05,-0.0013149887090548873,-0.004772509913891554,0.0,0.0,0.0,-0.0010910681448876858,-0.002703572390601039,-0.004653451964259148,-0.0014367259573191404,-0.0028534408193081617,-0.0028534408193081617,0.0,0.0,-0.0,0.0,0.0,0.0
1633080149.429699,0.0011648982763290405,0.0028299952391535044,-7.283811569213867,-4.8566369514446706e-05,-0.0013269531773403287,-0.004827622789889574,0.0,0.0,0.0,-0.0011067925952374935,-0.00269169919192791,-0.004628656432032585,-0.0013777585700154305,-0.0027457207906991243,-0.0027457207906991243,0.0,0.0,-0.0,0.0,0.0,0.0
1633080149.440564,0.0011961201671510935,0.0028147543780505657,-7.283827304840088,-6.561051122844219e-05,-0.0013356325216591358,-0.004853516351431608,0.0,0.0,0.0,-0.0011067925952374935,-0.00269169919192791,-0.004628656432032585,-0.0013777585700154305,-0.0027457207906991243,-0.0027457207906991243,0.0,0.0,-0.0,0.0,0.0,0.0
1633080149.449846,0.0011961201671510935,0.0028147543780505657,-7.283827304840088,-8.310556586366147e-05,-0.0013449550606310368,-0.004873133264482021,0.0,0.0,0.0,-0.001150165917351842,-0.0026677525602281094,-0.004596231505274773,-0.0012929871445521712,-0.0025636155623942614,-0.0025636155623942614,0.0,0.0,-0.0,0.0,0.0,0.0
1633080149.459713,0.0012239953503012657,0.0027912529185414314,-7.28387451171875,-0.0001052359220921062,-0.0013572046300396323,-0.004892082419246435,0.0,0.0,0.0,-0.0011629348155111074,-0.002654894022271037,-0.004566190764307976,-0.0012301522074267268,-0.0024630341213196516,-0.0024630341213196516,0.0,0.0,-0.0,0.0,0.0,0.0
1633080149.469592,0.0012239953503012657,0.0027912529185414314,-7.28387451171875,-0.0001342480245511979,-0.0013730895007029176,-0.004911676049232483,0.0,0.0,0.0,-0.0011629348155111074,-0.002654894022271037,-0.004566190764307976,-0.0012301522074267268,-0.0024630341213196516,-0.0024630341213196516,0.0,0.0,-0.0,0.0,0.0,0.0
1633080149.479367,0.0012490128865465522,0.0027680397033691406,-7.283915996551514,-0.00018312768952455372,-0.0013974796747788787,-0.004928670357912779,0.0,0.0,0.0,-0.0011867014691233635,-0.002632841467857361,-0.00452375179156661,-0.0011499696411192417,-0.0023460285738110542,-0.0023460285738110542,0.0,0.0,-0.0,0.0,0.0,0.0
1633080149.489429,0.0012490128865465522,0.0027680397033691406,-7.283915996551514,-0.00018312768952455372,-0.0013974796747788787,-0.004928670357912779,0.0,0.0,0.0,-0.0011867014691233635,-0.002632841467857361,-0.00452375179156661,-0.0011499696411192417,-0.0023460285738110542,-0.0023460285738110542,0.0,0.0,-0.0,0.0,0.0,0.0
1633080149.499422,0.0012985676294192672,0.002758139045909047,-7.283909320831299,-0.00022242906561587006,-0.00140484853181988,-0.004931135103106499,0.0,0.0,0.0,-0.0011867014691233635,-0.002632841467857361,-0.00452375179156661,-0.0011499696411192417,-0.0023460285738110542,-0.0023460285738110542,0.0,0.0,-0.0,0.0,0.0,0.0
1633080149.509448,0.0013462034985423088,0.0027476248797029257,-7.28390645980835,-0.00022242906561587006,-0.00140484853181988,-0.004931135103106499,0.0,0.0,0.0,-0.0012790325563400984,-0.0026134473737329245,-0.004533765371888876,-0.0012881564907729626,-0.0023466874845325947,-0.0023466874845325947,0.0,0.0,-0.0,0.0,0.0,0.0
1633080149.519443,0.0013927604304626584,0.002742422977462411,-7.283886432647705,-0.00023119260731618851,-0.001403101603500545,-0.004914165008813143,0.0,0.0,0.0,-0.0012790325563400984,-0.0026134473737329245,-0.004533765371888876,-0.0012881564907729626,-0.0023466874845325947,-0.0023466874845325947,0.0,0.0,-0.0,0.0,0.0,0.0
1633080149.529451,0.0014367641415446997,0.0027316163759678602,-7.283886909484863,-0.0002465419238433242,-0.001403131172992289,-0.004876081831753254,0.0,0.0,0.0,-0.0013650651089847088,-0.002598239341750741,-0.004553315695375204,-0.0014543123543262482,-0.00237064971588552,-0.00237064971588552,0.0,0.0,-0.0,0.0,0.0,0.0
1633080149.539776,0.00152026757132262,0.0027144774794578552,-7.283874988555908,-0.00026460870867595077,-0.001402484835125506,-0.004853928927332163,0.0,0.0,0.0,-0.0013650651089847088,-0.002598239341750741,-0.004553315695375204,-0.0014543123543262482,-0.00237064971588552,-0.00237064971588552,0.0,0.0,-0.0,0.0,0.0,0.0
1633080149.549497,0.0015600827755406499,0.0027084634639322758,-7.283857822418213,-0.00026460870867595077,-0.001402484835125506,-0.004853928927332163,0.0,0.0,0.0,-0.0014443934196606278,-0.0025819572620093822,-0.004565236624330282,-0.0016180957900360227,-0.0023642878513783216,-0.0023642878513783216,0.0,0.0,-0.0,0.0,0.0,0.0
1633080149.559407,0.0015985553618520498,0.002702239900827408,-7.28384256362915,-0.0002725613012444228,-0.0014008652651682496,-0.004833726678043604,0.0,0.0,0.0,-0.001518766861408949,-0.0025703315623104572,-0.004597661551088095,-0.0017915796488523483,-0.002357331570237875,-0.002357331570237875,0.0,0.0,-0.0,0.0,0.0,0.0
1633080149.569365,0.0015985553618520498,0.002702239900827408,-7.28384256362915,-0.0002725613012444228,-0.0014008652651682496,-0.004833726678043604,0.0,0.0,0.0,-0.001518766861408949,-0.0025703315623104572,-0.004597661551088095,-0.0017915796488523483,-0.002357331570237875,-0.002357331570237875,0.0,0.0,-0.0,0.0,0.0,0.0
1633080149.579414,0.001634360058233142,0.0026900339871644974,-7.283849239349365,-0.0002813035680446774,-0.0014016327913850546,-0.004805621225386858,0.0,0.0,0.0,-0.0015866549219936132,-0.002552248304709792,-0.004601953085511923,-0.0019249834585934877,-0.002334537450224161,-0.002334537450224161,0.0,0.0,-0.0,0.0,0.0,0.0
1633080149.589471,0.0016700165579095483,0.0026832048315554857,-7.283838272094727,-0.00028446465148590505,-0.0013991688610985875,-0.004796079359948635,0.0,0.0,0.0,-0.0015866549219936132,-0.002552248304709792,-0.004601953085511923,-0.0019249834585934877,-0.002334537450224161,-0.002334537450224161,0.0,0.0,-0.0,0.0,0.0,0.0
1633080149.599352,0.001735298428684473,0.0026586451567709446,-7.283857345581055,-0.00029984654975123703,-0.0013884104555472732,-0.004776296205818653,0.0,0.0,0.0,-0.0016486727399751544,-0.0025289165787398815,-0.004583356436342001,-0.0020231669768691063,-0.0023427081760019064,-0.0023427081760019064,0.0,0.0,-0.0,0.0,0.0,0.0
1633080149.609916,0.0017670773668214679,0.0026516118086874485,-7.28385066986084,-0.00029984654975123703,-0.0013884104555472732,-0.004776296205818653,0.0,0.0,0.0,-0.0016486727399751544,-0.0025289165787398815,-0.004583356436342001,-0.0020231669768691063,-0.0023427081760019064,-0.0023427081760019064,0.0,0.0,-0.0,0.0,0.0,0.0
1633080149.619472,0.0017670773668214679,0.0026516118086874485,-7.28385066986084,-0.00030289695132523775,-0.0013814421836286783,-0.004744820762425661,0.0,0.0,0.0,-0.0016486727399751544,-0.0025289165787398815,-0.004583356436342001,-0.0020231669768691063,-0.0023427081760019064,-0.0023427081760019064,0.0,0.0,-0.0,0.0,0.0,0.0
1633080149.629356,0.0018258857307955623,0.0026315038558095694,-7.28385591506958,-0.00031430611852556467,-0.0013664914295077324,-0.0047333380207419395,0.0,0.0,0.0,-0.0017067096196115017,-0.00251011922955513,-0.004576203878968954,-0.0021173718851059675,-0.002369469730183482,-0.002369469730183482,0.0,0.0,-0.0,0.0,0.0,0.0
1633080149.639922,0.0018531136447563767,0.002618755679577589,-7.283868312835693,-0.00031430611852556467,-0.0013664914295077324,-0.0047333380207419395,0.0,0.0,0.0,-0.0017067096196115017,-0.00251011922955513,-0.004576203878968954,-0.0021173718851059675,-0.002369469730183482,-0.002369469730183482,0.0,0.0,-0.0,0.0,0.0,0.0
1633080149.649584,0.0018791246693581343,0.002605868736281991,-7.2838826179504395,-0.00032243237365037203,-0.001359908259473741,-0.004758042749017477,0.0,0.0,0.0,-0.0017605972243472934,-0.002491021528840065,-0.004572389181703329,-0.002195121953263879,-0.002365856897085905,-0.002365856897085905,0.0,0.0,-0.0,0.0,0.0,0.0
1633080149.660865,0.0019054342992603779,0.002598088700324297,-7.283880233764648,-0.0003307193692307919,-0.0013541134539991617,-0.004745122045278549,0.0,0.0,0.0,-0.0018103017937391996,-0.002471387851983309,-0.004560468252748251,-0.0022568723652511835,-0.002342388965189457,-0.002342388965189457,0.0,0.0,-0.0,0.0,0.0,0.0
1633080149.669377,0.0019054342992603779,0.002598088700324297,-7.283880233764648,-0.00033475333475507796,-0.0013489208649843931,-0.0047204140573740005,0.0,0.0,0.0,-0.0018103017937391996,-0.002471387851983309,-0.004560468252748251,-0.0022568723652511835,-0.002342388965189457,-0.002342388965189457,0.0,0.0,-0.0,0.0,0.0,0.0
1633080149.67935,0.0019295900128781796,0.002585403388366103,-7.283895969390869,-0.00034302857238799334,-0.0013413658598437905,-0.004712780471891165,0.0,0.0,0.0,-0.0018103017937391996,-0.002471387851983309,-0.004560468252748251,-0.0022568723652511835,-0.002342388965189457,-0.002342388965189457,0.0,0.0,-0.0,0.0,0.0,0.0
1633080149.690606,0.0019525450188666582,0.00257232878357172,-7.283914089202881,-0.0003513580304570496,-0.0013309395872056484,-0.00472009414806962,0.0,0.0,0.0,-0.0018550569657236338,-0.002446915954351425,-0.004527089651674032,-0.0022946118842810392,-0.0023388140834867954,-0.0023388140834867954,0.0,0.0,-0.0,0.0,0.0,0.0
1633080149.70043,0.00197601318359375,0.002564511029049754,-7.283910274505615,-0.0003551490372046828,-0.001321475487202406,-0.004706117324531078,0.0,0.0,0.0,-0.0018550569657236338,-0.002446915954351425,-0.004527089651674032,-0.0022946118842810392,-0.0023388140834867954,-0.0023388140834867954,0.0,0.0,-0.0,0.0,0.0,0.0
1633080149.710379,0.001997229875996709,0.0025515598244965076,-7.283925533294678,-0.0003627690311986953,-0.0013073650188744068,-0.004671458154916763,0.0,0.0,0.0,-0.0018975076964125037,-0.002427185419946909,-0.004515645559877157,-0.002347931731492281,-0.0023742159828543663,-0.0023742159828543663,0.0,0.0,-0.0,0.0,0.0,0.0
1633080149.719919,0.0020173476077616215,0.0025383345782756805,-7.283943176269531,-0.0003701592795550823,-0.001292875618673861,-0.004631678108125925,0.0,0.0,0.0,-0.0019166195997968316,-0.002414621412754059,-0.004498002585023642,-0.002360624959692359,-0.0023863285314291716,-0.0023863285314291716,0.0,0.0,-0.0,0.0,0.0,0.0
1633080149.730412,0.002038034610450268,0.0025303764268755913,-7.283943176269531,-0.0003734322963282466,-0.0012832959182560444,-0.004632692784070969,0.0,0.0,0.0,-0.0019166195997968316,-0.002414621412754059,-0.004498002585023642,-0.002360624959692359,-0.0023863285314291716,-0.0023863285314291716,0.0,0.0,-0.0,0.0,0.0,0.0
1633080149.739983,0.002056318102404475,0.0025172897148877382,-7.283962726593018,-0.0003804332227446139,-0.0012718834914267063,-0.004657677840441465,0.0,0.0,0.0,-0.0019536414183676243,-0.002394628943875432,-0.0044784522615373135,-0.0024120640009641647,-0.0023896319326013327,-0.0023896319326013327,0.0,0.0,-0.0,0.0,0.0,0.0
1633080149.750135,0.002075358759611845,0.002509193029254675,-7.283966064453125,-0.0003838986449409276,-0.0012647396652027965,-0.004653273615986109,0.0,0.0,0.0,-0.0019536414183676243,-0.002394628943875432,-0.0044784522615373135,-0.0024120640009641647,-0.0023896319326013327,-0.0023896319326013327,0.0,0.0,-0.0,0.0,0.0,0.0
1633080149.759391,0.0020936208311468363,0.002501180162653327,-7.283969879150391,-0.0003874033864121884,-0.0012582553317770362,-0.004636034835129976,0.0,0.0,0.0,-0.0020056895446032286,-0.0023713663686066866,-0.004465577658265829,-0.0025097874458879232,-0.002381141297519207,-0.002381141297519207,0.0,0.0,-0.0,0.0,0.0,0.0
1633080149.769386,0.0021280692890286446,0.0024848226457834244,-7.283976078033447,-0.000395159178879112,-0.0012451065704226494,-0.0045898244716227055,0.0,0.0,0.0,-0.0020056895446032286,-0.0023713663686066866,-0.004465577658265829,-0.0025097874458879232,-0.002381141297519207,-0.002381141297519207,0.0,0.0,-0.0,0.0,0.0,0.0
1633080149.779367,0.0021440854761749506,0.002476210007444024,-7.283979415893555,-0.000399684882722795,-0.0012374235084280372,-0.004587376955896616,0.0,0.0,0.0,-0.002037020632997155,-0.0023556032683700323,-0.004462239798158407,-0.002567019546404481,-0.0023873697500675917,-0.0023873697500675917,0.0,0.0,-0.0,0.0,0.0,0.0
1633080149.789363,0.0021580017637461424,0.002463148906826973,-7.284000396728516,-0.0004083279345650226,-0.001225668704137206,-0.004573503974825144,0.0,0.0,0.0,-0.002037020632997155,-0.0023556032683700323,-0.004462239798158407,-0.002567019546404481,-0.0023873697500675917,-0.0023873697500675917,0.0,0.0,-0.0,0.0,0.0,0.0
1633080149.800295,0.002171059837564826,0.0024499206338077784,-7.284023284912109,-0.00041802541818469763,-0.0012132732663303614,-0.004538333043456078,0.0,0.0,0.0,-0.0020626462064683437,-0.0023306282237172127,-0.004417893942445517,-0.002569441217929125,-0.002401369158178568,-0.002401369158178568,0.0,0.0,-0.0,0.0,0.0,0.0
1633080149.80942,0.002185156801715493,0.0024415410589426756,-7.284029006958008,-0.00042405255953781307,-0.0012052273377776146,-0.004506236873567104,0.0,0.0,0.0,-0.0020626462064683437,-0.0023306282237172127,-0.004417893942445517,-0.002569441217929125,-0.002401369158178568,-0.002401369158178568,0.0,0.0,-0.0,0.0,0.0,0.0
1633080149.819438,0.002185156801715493,0.0024415410589426756,-7.284029006958008,-0.00042405255953781307,-0.0012052273377776146,-0.004506236873567104,0.0,0.0,0.0,-0.0020626462064683437,-0.0023306282237172127,-0.004417893942445517,-0.002569441217929125,-0.002401369158178568,-0.002401369158178568,0.0,0.0,-0.0,0.0,0.0,0.0
1633080149.829402,0.0021969189401715994,0.0024283251259475946,-7.284053325653076,-0.00043572994763962924,-0.0011957960668951273,-0.004491482395678759,0.0,0.0,0.0,-0.002087212400510907,-0.0023101125843822956,-0.00438785320147872,-0.0025771167129278183,-0.0023998599499464035,-0.0023998599499464035,0.0,0.0,-0.0,0.0,0.0,0.0
1633080149.839397,0.002209601690992713,0.0024195793084800243,-7.284062385559082,-0.0004437212774064392,-0.0011912271147593856,-0.0045110625214874744,0.0,0.0,0.0,-0.0021109418012201786,-0.002293894998729229,-0.004375932272523642,-0.0025839032605290413,-0.0023600615095347166,-0.0023600615095347166,0.0,0.0,-0.0,0.0,0.0,0.0
1633080149.849372,0.002231656340882182,0.0023978191893547773,-7.284088611602783,-0.0004681242280639708,-0.0011881383834406734,-0.004534806590527296,0.0,0.0,0.0,-0.0021109418012201786,-0.002293894998729229,-0.004375932272523642,-0.0025839032605290413,-0.0023600615095347166,-0.0023600615095347166,0.0,0.0,-0.0,0.0,0.0,0.0
1633080149.859855,0.002231656340882182,0.0023978191893547773,-7.284088611602783,-0.0004681242280639708,-0.0011881383834406734,-0.004534806590527296,0.0,0.0,0.0,-0.002130627166479826,-0.0022728682961314917,-0.004346845205873251,-0.0025405767373740673,-0.002266623778268695,-0.002266623778268695,0.0,0.0,-0.0,0.0,0.0,0.0
1633080149.869654,0.0022426187060773373,0.0023891206365078688,-7.284094333648682,-0.00047913184971548617,-0.0011891914764419198,-0.004517829976975918,0.0,0.0,0.0,-0.002130627166479826,-0.0022728682961314917,-0.004346845205873251,-0.0025405767373740673,-0.002266623778268695,-0.002266623778268695,0.0,0.0,-0.0,0.0,0.0,0.0
1633080149.879389,0.002250984311103821,0.0023754145950078964,-7.284119129180908,-0.0004991862224414945,-0.001192166586406529,-0.004493859596550465,0.0,0.0,0.0,-0.002147745806723833,-0.002251046011224389,-0.004312989767640829,-0.002469087718054652,-0.002172761596739292,-0.002172761596739292,0.0,0.0,-0.0,0.0,0.0,0.0
1633080149.889332,0.002307679271325469,0.0023588340263813734,-7.28411865234375,-0.0005269570392556489,-0.0011899806559085846,-0.004523414187133312,0.0,0.0,0.0,-0.002147745806723833,-0.002251046011224389,-0.004312989767640829,-0.002469087718054652,-0.002172761596739292,-0.002172761596739292,0.0,0.0,-0.0,0.0,0.0,0.0
1633080149.899358,0.002307679271325469,0.0023588340263813734,-7.28411865234375,-0.0005269570392556489,-0.0011899806559085846,-0.004523414187133312,0.0,0.0,0.0,-0.0022372123785316944,-0.0022409893572330475,-0.004350659903138876,-0.0026039229705929756,-0.002180886920541525,-0.002180886920541525,0.0,0.0,-0.0,0.0,0.0,0.0
1633080149.910089,0.00239803409203887,0.002347898203879595,-7.284080505371094,-0.0005342974327504635,-0.0011851434828713536,-0.004506231751292944,0.0,0.0,0.0,-0.0022372123785316944,-0.0022409893572330475,-0.004350659903138876,-0.0026039229705929756,-0.002180886920541525,-0.002180886920541525,0.0,0.0,-0.0,0.0,0.0,0.0
1633080149.920021,0.00239803409203887,0.002347898203879595,-7.284080505371094,-0.0005515369703061879,-0.001181981060653925,-0.004471029620617628,0.0,0.0,0.0,-0.0022372123785316944,-0.0022409893572330475,-0.004350659903138876,-0.0026039229705929756,-0.002180886920541525,-0.002180886920541525,0.0,0.0,-0.0,0.0,0.0,0.0
1633080149.929881,0.0024390583857893944,0.002339664613828063,-7.284074306488037,-0.0005711819394491613,-0.0011810609139502048,-0.004422778729349375,0.0,0.0,0.0,-0.0023172448854893446,-0.0022258851677179337,-0.004367349203675985,-0.002665588865056634,-0.002159805502742529,-0.002159805502742529,0.0,0.0,-0.0,0.0,0.0,0.0
1633080149.939819,0.0024780500680208206,0.0023310696706175804,-7.284070014953613,-0.0005918851238675416,-0.001182819833047688,-0.00437197694554925,0.0,0.0,0.0,-0.002391873626038432,-0.0022138822823762894,-0.004392144735902548,-0.002743371995165944,-0.0021170612890273333,-0.0021170612890273333,0.0,0.0,-0.0,0.0,0.0,0.0
1633080149.949541,0.002552975667640567,0.00231796782463789,-7.284047603607178,-0.000623120809905231,-0.0011876625940203667,-0.004300181288272142,0.0,0.0,0.0,-0.002391873626038432,-0.0022138822823762894,-0.004392144735902548,-0.002743371995165944,-0.0021170612890273333,-0.0021170612890273333,0.0,0.0,-0.0,0.0,0.0,0.0
1633080149.959356,0.002552975667640567,0.00231796782463789,-7.284047603607178,-0.000623120809905231,-0.0011876625940203667,-0.004300181288272142,0.0,0.0,0.0,-0.002391873626038432,-0.0022138822823762894,-0.004392144735902548,-0.002743371995165944,-0.0021170612890273333,-0.0021170612890273333,0.0,0.0,-0.0,0.0,0.0,0.0
1633080149.969365,0.0025893000420182943,0.002313342411071062,-7.284030914306641,-0.0006341581465676427,-0.0011888790177181363,-0.004286684561520815,0.0,0.0,0.0,-0.0024599742610007524,-0.0022008789237588644,-0.00441074138507247,-0.002810524543747306,-0.002062481129541993,-0.002062481129541993,0.0,0.0,-0.0,0.0,0.0,0.0
1633080149.979344,0.002621689345687628,0.0023038836661726236,-7.284031867980957,-0.0006556229782290757,-0.0011921980185434222,-0.004270234610885382,0.0,0.0,0.0,-0.0024599742610007524,-0.0022008789237588644,-0.00441074138507247,-0.002810524543747306,-0.002062481129541993,-0.002062481129541993,0.0,0.0,-0.0,0.0,0.0,0.0
1633080149.989363,0.002652241848409176,0.0022939760237932205,-7.284031391143799,-0.0006787690217606723,-0.0011942539131268859,-0.004265012219548225,0.0,0.0,0.0,-0.0025197691284120083,-0.0021824808791279793,-0.00441074138507247,-0.0028199933003634214,-0.00201204139739275,-0.00201204139739275,0.0,0.0,-0.0,0.0,0.0,0.0
1633080149.999413,0.0026842623483389616,0.0022888854146003723,-7.284014701843262,-0.0006920414743945003,-0.0011936674127355218,-0.004246460739523172,0.0,0.0,0.0,-0.0025197691284120083,-0.0021824808791279793,-0.00441074138507247,-0.0028199933003634214,-0.00201204139739275,-0.00201204139739275,0.0,0.0,-0.0,0.0,0.0,0.0
1633080150.009333,0.0027119324076920748,0.002278796164318919,-7.2840166091918945,-0.0007179290987551212,-0.0011952109634876251,-0.004243860952556133,0.0,0.0,0.0,-0.0025764750316739082,-0.0021680600475519896,-0.004425523336976767,-0.0028456782456487417,-0.0019993609748780727,-0.0019993609748780727,0.0,0.0,-0.0,0.0,0.0,0.0
1633080150.019363,0.002768690465018153,0.0022674479987472296,-7.283992767333984,-0.0007338422583416104,-0.0011956251692026854,-0.00425634253770113,0.0,0.0,0.0,-0.0025764750316739082,-0.0021680600475519896,-0.004425523336976767,-0.0028456782456487417,-0.0019993609748780727,-0.0019993609748780727,0.0,0.0,-0.0,0.0,0.0,0.0
1633080150.029365,0.002768690465018153,0.0022674479987472296,-7.283992767333984,-0.0007502452353946865,-0.0011968304170295596,-0.004285662434995174,0.0,0.0,0.0,-0.0026303953491151333,-0.0021572792902588844,-0.004449365194886923,-0.0028826268389821053,-0.001984110800549388,-0.001984110800549388,0.0,0.0,-0.0,0.0,0.0,0.0
1633080150.039431,0.002817214233800769,0.002250565914437175,-7.283993721008301,-0.0007800173480063677,-0.0012020452413707972,-0.004328896291553974,0.0,0.0,0.0,-0.002676492789760232,-0.002141241217032075,-0.004448411520570517,-0.0028487923555076122,-0.0019208951853215694,-0.0019208951853215694,0.0,0.0,-0.0,0.0,0.0,0.0
1633080150.049458,0.002817214233800769,0.002250565914437175,-7.283993721008301,-0.0007981585804373026,-0.0012052450329065323,-0.004346142057329416,0.0,0.0,0.0,-0.002676492789760232,-0.002141241217032075,-0.004448411520570517,-0.0028487923555076122,-0.0019208951853215694,-0.0019208951853215694,0.0,0.0,-0.0,0.0,0.0,0.0
1633080150.059378,0.0028378828428685665,0.002239466179162264,-7.284005165100098,-0.0008292471175082028,-0.001212294795550406,-0.004381427075713873,0.0,0.0,0.0,-0.0027177236042916775,-0.0021244704257696867,-0.004445550497621298,-0.002814320847392082,-0.0018531868699938059,-0.0018531868699938059,0.0,0.0,-0.0,0.0,0.0,0.0
1633080150.069373,0.0028606150299310684,0.0022329124622046947,-7.28399658203125,-0.0008481876575388014,-0.0012162216007709503,-0.004418998025357723,0.0,0.0,0.0,-0.0027177236042916775,-0.0021244704257696867,-0.004445550497621298,-0.002814320847392082,-0.0018531868699938059,-0.0018531868699938059,0.0,0.0,-0.0,0.0,0.0,0.0
1633080150.079351,0.002882207976654172,0.0022262604907155037,-7.283989906311035,-0.00086704216664657,-0.001220134785398841,-0.004464182537049055,0.0,0.0,0.0,-0.0027576813008636236,-0.002111540175974369,-0.00445651775225997,-0.002797749126330018,-0.0017965593142434955,-0.0017965593142434955,0.0,0.0,-0.0,0.0,0.0,0.0
1633080150.089357,0.0029026756528764963,0.002219301648437977,-7.283985614776611,-0.0008864667033776641,-0.0012241804506629705,-0.004514787811785936,0.0,0.0,0.0,-0.0027576813008636236,-0.002111540175974369,-0.00445651775225997,-0.002797749126330018,-0.0017965593142434955,-0.0017965593142434955,0.0,0.0,-0.0,0.0,0.0,0.0
1633080150.099366,0.00293337251059711,0.00219539157114923,-7.284018039703369,-0.0009182595531456172,-0.0012312486069276929,-0.004596502985805273,0.0,0.0,0.0,-0.0027576813008636236,-0.002111540175974369,-0.00445651775225997,-0.002797749126330018,-0.0017965593142434955,-0.0017965593142434955,0.0,0.0,-0.0,0.0,0.0,0.0
1633080150.109454,0.00293337251059711,0.00219539157114923,-7.284018039703369,-0.000950012297835201,-0.0012379243271425366,-0.004653776530176401,0.0,0.0,0.0,-0.002786843106150627,-0.002088825684040785,-0.00442456966266036,-0.0026949301827698946,-0.001708398456685245,-0.001708398456685245,0.0,0.0,-0.0,0.0,0.0,0.0
1633080150.119426,0.002950712339952588,0.0021880732383579016,-7.284018516540527,-0.0009691260056570172,-0.0012411567149683833,-0.0046759359538555145,0.0,0.0,0.0,-0.00281502609141171,-0.002069928916171193,-0.004407403524965048,-0.0026382661890238523,-0.001656004460528493,-0.001656004460528493,0.0,0.0,-0.0,0.0,0.0,0.0
1633080150.129463,0.0029630386270582676,0.002175500150769949,-7.2840352058410645,-0.0010005006333813071,-0.0012458879500627518,-0.004702679347246885,0.0,0.0,0.0,-0.00281502609141171,-0.002069928916171193,-0.004407403524965048,-0.0026382661890238523,-0.001656004460528493,-0.001656004460528493,0.0,0.0,-0.0,0.0,0.0,0.0
1633080150.139579,0.0029781970661133528,0.0021676993928849697,-7.284034729003906,-0.001019145711325109,-0.0012471689842641354,-0.004718981683254242,0.0,0.0,0.0,-0.002839168766513467,-0.0020504132844507694,-0.004387375898659229,-0.0025949841365218163,-0.0016340409638360143,-0.0016340409638360143,0.0,0.0,-0.0,0.0,0.0,0.0
1633080150.149571,0.0029884520918130875,0.002154957503080368,-7.284054279327393,-0.0010479126358404756,-0.001248168176971376,-0.00474595557898283,0.0,0.0,0.0,-0.002839168766513467,-0.0020504132844507694,-0.004387375898659229,-0.0025949841365218163,-0.0016340409638360143,-0.0016340409638360143,0.0,0.0,-0.0,0.0,0.0,0.0
1633080150.159395,0.0030019136611372232,0.002147021470591426,-7.284056663513184,-0.0010644192807376385,-0.0012473523383960128,-0.0047574732452631,0.0,0.0,0.0,-0.002839168766513467,-0.0020504132844507694,-0.004387375898659229,-0.0025949841365218163,-0.0016340409638360143,-0.0016340409638360143,0.0,0.0,-0.0,0.0,0.0,0.0
1633080150.169379,0.003010057844221592,0.002133941976353526,-7.284079551696777,-0.0010895509039983153,-0.001246130559593439,-0.004774046596139669,0.0,0.0,0.0,-0.0028596941847354174,-0.0020304485224187374,-0.004362103529274464,-0.002576288301497698,-0.0016260436968877912,-0.0016260436968877912,0.0,0.0,-0.0,0.0,0.0,0.0
1633080150.179464,0.003017290262505412,0.0021207977551966906,-7.284103870391846,-0.001111522433348,-0.0012447675690054893,-0.004796126391738653,0.0,0.0,0.0,-0.0028596941847354174,-0.0020304485224187374,-0.004362103529274464,-0.002576288301497698,-0.0016260436968877912,-0.0016260436968877912,0.0,0.0,-0.0,0.0,0.0,0.0
1633080150.189335,0.0030333264730870724,0.0020990599878132343,-7.284137725830078,-0.0011396765476092696,-0.0012421797728165984,-0.0048338198103010654,0.0,0.0,0.0,-0.0028724572621285915,-0.002005336107686162,-0.0043120356276631355,-0.0025683599524199963,-0.0015998379094526172,-0.0015998379094526172,0.0,0.0,-0.0,0.0,0.0,0.0
1633080150.199402,0.0030333264730870724,0.0020990599878132343,-7.284137725830078,-0.0011396765476092696,-0.0012421797728165984,-0.0048338198103010654,0.0,0.0,0.0,-0.0028724572621285915,-0.002005336107686162,-0.0043120356276631355,-0.0025683599524199963,-0.0015998379094526172,-0.0015998379094526172,0.0,0.0,-0.0,0.0,0.0,0.0
1633080150.209439,0.0030379167292267084,0.0020855944603681564,-7.28416109085083,-0.0011539676925167441,-0.0012399241095408797,-0.004841731861233711,0.0,0.0,0.0,-0.0028861602768301964,-0.001984518487006426,-0.004280564375221729,-0.002605720888823271,-0.00157638150267303,-0.00157638150267303,0.0,0.0,-0.0,0.0,0.0,0.0
1633080150.219405,0.0030463035218417645,0.002076963894069195,-7.284167289733887,-0.001161206979304552,-0.0012372025521472096,-0.004824927542358637,0.0,0.0,0.0,-0.0028861602768301964,-0.001984518487006426,-0.004280564375221729,-0.002605720888823271,-0.00157638150267303,-0.00157638150267303,0.0,0.0,-0.0,0.0,0.0,0.0
1633080150.229383,0.003054096596315503,0.002068273490294814,-7.284173965454102,-0.0011680835159495473,-0.0012336706276983023,-0.004808564204722643,0.0,0.0,0.0,-0.002901531057432294,-0.0019680634140968323,-0.004267689771950245,-0.0026545412838459015,-0.001573084737174213,-0.001573084737174213,0.0,0.0,-0.0,0.0,0.0,0.0
1633080150.23942,0.003061155788600445,0.002059460850432515,-7.284182071685791,-0.0011749234981834888,-0.0012293646577745676,-0.0047899335622787476,0.0,0.0,0.0,-0.0029098275117576122,-0.0019466372905299067,-0.004231450147926807,-0.0026651958469301462,-0.0015785428695380688,-0.0015785428695380688,0.0,0.0,-0.0,0.0,0.0,0.0
1633080150.249433,0.0030628296080976725,0.002045719651505351,-7.284210205078125,-0.0011870774906128645,-0.0012225245591253042,-0.004752310458570719,0.0,0.0,0.0,-0.0029098275117576122,-0.0019466372905299067,-0.004231450147926807,-0.0026651958469301462,-0.0015785428695380688,-0.0015785428695380688,0.0,0.0,-0.0,0.0,0.0,0.0
1633080150.259359,0.003063754877075553,0.0020319437608122826,-7.284239292144775,-0.0011995199602097273,-0.0012161430204287171,-0.004705463070422411,0.0,0.0,0.0,-0.0029154771473258734,-0.0019249272299930453,-0.004191395826637745,-0.002647778717800975,-0.0015625294763594866,-0.0015625294763594866,0.0,0.0,-0.0,0.0,0.0,0.0
1633080150.269411,0.0030687765683978796,0.0020228668581694365,-7.284250259399414,-0.0012069577351212502,-0.0012127708178013563,-0.004676719196140766,0.0,0.0,0.0,-0.0029154771473258734,-0.0019249272299930453,-0.004191395826637745,-0.002647778717800975,-0.0015625294763594866,-0.0015625294763594866,0.0,0.0,-0.0,0.0,0.0,0.0
1633080150.279547,0.003073437139391899,0.0020138865802437067,-7.284256458282471,-0.0012211850844323635,-0.00120927719399333,-0.004633759148418903,0.0,0.0,0.0,-0.002923717489466071,-0.0019077392062172294,-0.004178044386208057,-0.0026453128084540367,-0.001518650446087122,-0.001518650446087122,0.0,0.0,-0.0,0.0,0.0,0.0
1633080150.289477,0.0031192912720143795,0.0019978077616542578,-7.284254550933838,-0.0012211850844323635,-0.00120927719399333,-0.004633759148418903,0.0,0.0,0.0,-0.002923717489466071,-0.0019077392062172294,-0.004178044386208057,-0.0026453128084540367,-0.001518650446087122,-0.001518650446087122,0.0,0.0,-0.0,0.0,0.0,0.0
1633080150.299434,0.0031192912720143795,0.0019978077616542578,-7.284254550933838,-0.0012197887990623713,-0.0012015383690595627,-0.0045771547593176365,0.0,0.0,0.0,-0.003001387231051922,-0.0018943995237350464,-0.00419521052390337,-0.002885713241994381,-0.0015458660200238228,-0.0015458660200238228,0.0,0.0,-0.0,0.0,0.0,0.0
1633080150.309415,0.00315920845605433,0.001990732504054904,-7.284246444702148,-0.001217853045091033,-0.001193428528495133,-0.0045061539858579636,0.0,0.0,0.0,-0.003001387231051922,-0.0018943995237350464,-0.00419521052390337,-0.002885713241994381,-0.0015458660200238228,-0.0015458660200238228,0.0,0.0,-0.0,0.0,0.7765198139497761,-0.0
1633080150.319344,0.003238716395571828,0.001980827422812581,-7.284216403961182,-0.0012088976800441742,-0.0011719390749931335,-0.004383191931992769,0.0,0.0,0.0,-0.003001387231051922,-0.0018943995237350464,-0.00419521052390337,-0.002885713241994381,-0.0015458660200238228,-0.0015458660200238228,0.0,0.0,-0.0,0.0,0.7765198139497761,-0.0
1633080150.329485,0.003238716395571828,0.001980827422812581,-7.284216403961182,-0.0012088976800441742,-0.0011719390749931335,-0.004383191931992769,0.0,0.0,0.0,-0.0030769198201596737,-0.0018849896732717752,-0.004225251264870167,-0.003100913017988205,-0.0016044832300394773,-0.0016044832300394773,0.0,0.0,-0.0,0.0,0.7765198139497761,-0.0
1633080150.339858,0.0032735830172896385,0.0019733752124011517,-7.284212589263916,-0.0012062109308317304,-0.001156079233624041,-0.004328873474150896,0.0,0.0,0.0,-0.0031460581813007593,-0.0018748696893453598,-0.004252430982887745,-0.0033015331719070673,-0.0017041802639141679,-0.0017041802639141679,0.0,0.0,-0.0,0.0,0.8903677897516115,-0.0
1633080150.349865,0.00331149366684258,0.0019701747223734856,-7.284189224243164,-0.0012002112343907356,-0.001142347464337945,-0.004280542954802513,0.0,0.0,0.0,-0.0031460581813007593,-0.0018748696893453598,-0.004252430982887745,-0.0033015331719070673,-0.0017041802639141679,-0.0017041802639141679,0.0,0.0,-0.0,0.0,0.8903677897516115,-0.0
1633080150.36011,0.0033483877778053284,0.0019672606140375137,-7.284165859222412,-0.0011941831326112151,-0.001128836185671389,-0.004233114887028933,0.0,0.0,0.0,-0.003214434254914522,-0.0018690318102017045,-0.0042967768386006355,-0.0035028583370149136,-0.0017906988505274057,-0.0017906988505274057,0.0,0.0,-0.0,0.0,0.8903677897516115,-0.0
1633080150.369585,0.003383468370884657,0.001964029623195529,-7.284144878387451,-0.001188620924949646,-0.0011156989494338632,-0.004202705342322588,0.0,0.0,0.0,-0.003214434254914522,-0.0018690318102017045,-0.0042967768386006355,-0.0035028583370149136,-0.0017906988505274057,-0.0017906988505274057,0.0,0.0,-0.0,0.0,0.9959169713523616,-0.0
1633080150.379388,0.0034173002932220697,0.0019607762806117535,-7.284125328063965,-0.0011834390461444855,-0.0011035623028874397,-0.004175423178821802,0.0,0.0,0.0,-0.0032726661302149296,-0.001858490169979632,-0.00431728083640337,-0.0036281899083405733,-0.0018250619759783149,-0.0018250619759783149,0.0,0.0,-0.0,0.0,0.9959169713523616,-0.0
1633080150.389829,0.00344476499594748,0.0019529331475496292,-7.284124374389648,-0.0011827601119875908,-0.0010899117914959788,-0.00413126777857542,0.0,0.0,0.0,-0.0032726661302149296,-0.001858490169979632,-0.00431728083640337,-0.0036281899083405733,-0.0018250619759783149,-0.0018250619759783149,0.0,0.0,-0.0,0.0,0.9959169713523616,-0.0
1633080150.400025,0.003470827592536807,0.0019451051484793425,-7.284125328063965,-0.0011840334627777338,-0.0010792235843837261,-0.004114348907023668,0.0,0.0,0.0,-0.0032726661302149296,-0.001858490169979632,-0.00431728083640337,-0.0036281899083405733,-0.0018250619759783149,-0.0018250619759783149,0.0,0.0,-0.0,0.013882143002286719,1.0961538707560758,-0.016691204933449624
1633080150.409844,0.003495341632515192,0.001937106833793223,-7.284128189086914,-0.0011882149847224355,-0.0010710483184084296,-0.004104757681488991,0.0,0.0,0.0,-0.003320713760331273,-0.001843455247581005,-0.004313466139137745,-0.0036726605612784624,-0.0017980515258386731,-0.0017980515258386731,0.0,0.0,-0.0,0.013882143002286719,1.0961538707560758,-0.016691204933449624
1633080150.419443,0.003523375140503049,0.0019332491792738438,-7.28411340713501,-0.0011895484058186412,-0.0010652464115992188,-0.004092896357178688,0.0,0.0,0.0,-0.0033684412483125925,-0.0018320969538763165,-0.004326340742409229,-0.0037032440304756165,-0.0017695865826681256,-0.0017695865826681256,0.0,0.0,-0.0,0.013882143002286719,1.0961538707560758,-0.016691204933449624
1633080150.429583,0.003571032779291272,0.0019209985621273518,-7.284103870391846,-0.00119955581612885,-0.0010589227313175797,-0.004109913948923349,0.0,0.0,0.0,-0.0033684412483125925,-0.0018320969538763165,-0.004326340742409229,-0.0037032440304756165,-0.0017695865826681256,-0.0017695865826681256,0.0,0.0,-0.0,0.0025704798165006827,1.1935739212596963,-0.016783959306776522
1633080150.439327,0.003571032779291272,0.0019209985621273518,-7.284103870391846,-0.0012051720404997468,-0.0010534722823649645,-0.004141801968216896,0.0,0.0,0.0,-0.0033684412483125925,-0.0018320969538763165,-0.004326340742409229,-0.0037032440304756165,-0.0017695865826681256,-0.0017695865826681256,0.0,0.0,-0.0,0.0025704798165006827,1.1935739212596963,-0.016783959306776522
1633080150.450031,0.0035903414245694876,0.0019125605467706919,-7.284111022949219,-0.001221064361743629,-0.0010467141401022673,-0.004194890148937702,0.0,0.0,0.0,-0.003410963574424386,-0.0018201363272964954,-0.004330632276833057,-0.0036839295644313097,-0.0017526131123304367,-0.0017526131123304367,0.0,0.0,-0.0,0.0025704798165006827,1.1935739212596963,-0.016783959306776522
1633080150.459922,0.0036130354274064302,0.0019080478232353926,-7.284104347229004,-0.0012306926073506474,-0.001041016192175448,-0.0042168740183115005,0.0,0.0,0.0,-0.003453330835327506,-0.0018116733990609646,-0.004343506880104542,-0.0036871740594506264,-0.0017557645915076137,-0.0017557645915076137,0.0,0.0,-0.0,0.0008798506017603045,1.2898752383047936,-0.01744086659513414
1633080150.469958,0.003650564467534423,0.0018948822980746627,-7.284111022949219,-0.0012639034539461136,-0.0010295403189957142,-0.004278688691556454,0.0,0.0,0.0,-0.003453330835327506,-0.0018116733990609646,-0.004343506880104542,-0.0036871740594506264,-0.0017557645915076137,-0.0017557645915076137,0.0,0.0,-0.0,0.0008798506017603045,1.2898752383047936,-0.01744086659513414
1633080150.479511,0.003650564467534423,0.0018948822980746627,-7.284111022949219,-0.0012639034539461136,-0.0010295403189957142,-0.004278688691556454,0.0,0.0,0.0,-0.003486654255539179,-0.001798852114006877,-0.004333016462624073,-0.0036120563745498657,-0.0017353297444060445,-0.0017353297444060445,0.0,0.0,-0.0,0.0008798506017603045,1.2898752383047936,-0.01744086659513414
1633080150.489711,0.0036832813639193773,0.0018812561174854636,-7.284124374389648,-0.0012774538481608033,-0.0010253832442685962,-0.004321457352489233,0.0,0.0,0.0,-0.003486654255539179,-0.001798852114006877,-0.004333016462624073,-0.0036120563745498657,-0.0017353297444060445,-0.0017353297444060445,0.0,0.0,-0.0,0.0018027313694920484,1.386469156920761,-0.01803061076439917
1633080150.499393,0.0036832813639193773,0.0018812561174854636,-7.284124374389648,-0.0013034256407991052,-0.0010215776273980737,-0.004391982685774565,0.0,0.0,0.0,-0.0035155825316905975,-0.0017855659825727344,-0.004316327162086964,-0.0035277572460472584,-0.0017010190058499575,-0.0017010190058499575,0.0,0.0,-0.0,0.0018027313694920484,1.386469156920761,-0.01803061076439917
1633080150.509446,0.0037004665937274694,0.0018761707469820976,-7.284125328063965,-0.0013197434600442648,-0.0010190291795879602,-0.0044230311177670956,0.0,0.0,0.0,-0.0035155825316905975,-0.0017855659825727344,-0.004316327162086964,-0.0035277572460472584,-0.0017010190058499575,-0.0017010190058499575,0.0,0.0,-0.0,0.0018027313694920484,1.386469156920761,-0.01803061076439917
1633080150.519358,0.0037114399019628763,0.0018671131692826748,-7.284144401550293,-0.0013482959475368261,-0.001016867347061634,-0.004457295872271061,0.0,0.0,0.0,-0.0035350399557501078,-0.0017681312747299671,-0.004275796003639698,-0.0033940563444048166,-0.0016526462277397513,-0.0016526462277397513,0.0,0.0,-0.0,0.0018935801199020305,1.4844817493871605,-0.018870709892362357
1633080150.52938,0.0037209480069577694,0.0018578184535726905,-7.284165859222412,-0.0013781455345451832,-0.0010145907290279865,-0.0044923932291567326,0.0,0.0,0.0,-0.0035350399557501078,-0.0017681312747299671,-0.004275796003639698,-0.0033940563444048166,-0.0016526462277397513,-0.0016526462277397513,0.0,0.0,-0.0,0.0018935801199020305,1.4844817493871605,-0.018870709892362357
1633080150.539418,0.0037348056212067604,0.0018524654442444444,-7.284171104431152,-0.00139606895390898,-0.001012034248560667,-0.004529063124209642,0.0,0.0,0.0,-0.0035350399557501078,-0.0017681312747299671,-0.004275796003639698,-0.0033940563444048166,-0.0016526462277397513,-0.0016526462277397513,0.0,0.0,-0.0,0.0018935801199020305,1.4844817493871605,-0.018870709892362357
1633080150.549392,0.003741786815226078,0.0018428602488711476,-7.284195899963379,-0.0014270951505750418,-0.0010082580847665668,-0.00457770936191082,0.0,0.0,0.0,nan,nan,nan,1.484481692314148,0.0018935800762847066,0.0018935800762847066,0.0,0.0,-0.0,0.001835211877030968,1.584571528686428,-0.019564412962645293
1633080150.559364,0.0037469486705958843,0.0018326903227716684,-7.284224987030029,-0.0014604354510083795,-0.001003761077299714,-0.004604351241141558,0.0,0.0,0.0,nan,nan,nan,1.484481692314148,0.0018935800762847066,0.0018935800762847066,0.0,0.0,-0.0,0.001835211877030968,1.584571528686428,-0.019564412962645293
1633080150.570122,0.003757662605494261,0.0018269408028572798,-7.2842326164245605,-0.0014966046437621117,-0.0009978151647374034,-0.004933679010719061,0.0,0.0,0.0,nan,nan,nan,1.484481692314148,0.0018935800762847066,0.0018935800762847066,0.0,0.0,-0.0,0.001835211877030968,1.584571528686428,-0.019564412962645293
1633080150.579361,0.0037677318323403597,0.0018212294671684504,-7.284241676330566,-0.0014966046437621117,-0.0009978151647374034,-0.004933679010719061,0.0,0.0,0.0,nan,nan,nan,1.5845714807510376,0.0018352118786424398,0.0018352118786424398,0.0,0.0,-0.0,0.0018046464403700204,1.6868696548227338,-0.020103032710030676
1633080150.589358,0.0037767847534269094,0.0018153192941099405,-7.2842631340026855,-0.0014995943056419492,-0.0009965047938749194,-0.007204272784292698,0.0,0.0,0.0,nan,nan,nan,1.5845714807510376,0.0018352118786424398,0.0018352118786424398,0.0,0.0,-0.0,0.0018046464403700204,1.6868696548227338,-0.020103032710030676
1633080150.599359,0.003789422567933798,0.0017990380292758346,-7.284438610076904,-0.0010709408670663834,-0.001002542208880186,-0.015206067822873592,0.0,0.0,0.0,nan,nan,nan,1.5845714807510376,0.0018352118786424398,0.0018352118786424398,0.0,0.0,-0.0,0.0018046464403700204,1.6868696548227338,-0.020103032710030676
1633080150.609464,0.003789422567933798,0.0017990380292758346,-7.284438610076904,-0.0010709408670663834,-0.001002542208880186,-0.015206067822873592,0.0,0.0,0.0,nan,nan,nan,1.5845714807510376,0.0018352118786424398,0.0018352118786424398,0.0,0.0,-0.0,0.0019149050728212355,1.791006105825074,-0.050459628943353894
1633080150.619373,0.0038019991479814053,0.0017927915323525667,-7.284544944763184,-0.0005237970617599785,-0.00100847112480551,-0.017574774101376534,0.0,0.0,0.0,nan,nan,nan,1.6868696212768555,0.001804646453820169,0.001804646453820169,0.0,0.0,-0.0,0.0019149050728212355,1.791006105825074,-0.050459628943353894
1633080150.629695,0.003822105936706066,0.0017822219524532557,-7.2847490310668945,0.0009612833964638412,-0.0010210421169176698,-0.020168988034129143,0.0,0.0,0.0,nan,nan,nan,1.6868696212768555,0.001804646453820169,0.001804646453820169,0.0,0.0,-0.0,0.0019149050728212355,1.791006105825074,-0.050459628943353894
1633080150.639361,0.003919464070349932,0.0017642875900492072,-7.28514289855957,0.005835158750414848,-0.0010499336058273911,-0.02370641566812992,0.0,0.0,0.0,nan,nan,nan,1.791006088256836,0.0019149050349369645,0.0019149050349369645,0.0,0.0,-0.0,0.002154556526374869,1.8956138387857104,-0.08394266568124294
1633080150.649381,0.003919464070349932,0.0017642875900492072,-7.28514289855957,0.005835158750414848,-0.0010499336058273911,-0.02370641566812992,0.0,0.0,0.0,nan,nan,nan,1.791006088256836,0.0019149050349369645,0.0019149050349369645,0.0,0.0,-0.0,0.002154556526374869,1.8956138387857104,-0.08394266568124294
1633080150.659453,0.004031225573271513,0.0017529213801026344,-7.285415172576904,0.010421652346849442,-0.001066859345883131,-0.02560478448867798,0.0,0.0,0.0,nan,nan,nan,1.791006088256836,0.0019149050349369645,0.0019149050349369645,0.0,0.0,-0.0,0.002154556526374869,1.8956138387857104,-0.08394266568124294
1633080150.669389,0.004145924933254719,0.0017454561311751604,-7.285604476928711,0.014305921271443367,-0.0010753171518445015,-0.026723362505435944,0.0,0.0,0.0,nan,nan,nan,1.791006088256836,0.0019149050349369645,0.0019149050349369645,0.0,0.0,-0.0,0.002422379159228597,1.9969243085142188,-0.10710505545139312
1633080150.679348,0.0043736714869737625,0.00173349364195019,-7.285914897918701,0.021307138726115227,-0.0010844155913218856,-0.028119707480072975,0.0,0.0,0.0,nan,nan,nan,1.8956137895584106,0.002154556568711996,0.002154556568711996,0.0,0.0,-0.0,0.002422379159228597,1.9969243085142188,-0.10710505545139312
1633080150.689402,0.004584058187901974,0.0017255720449611545,-7.28612756729126,0.026868212968111038,-0.001088611432351172,-0.028670119121670723,0.0,0.0,0.0,nan,nan,nan,1.8956137895584106,0.002154556568711996,0.002154556568711996,0.0,0.0,-0.0,0.002422379159228597,1.9969243085142188,-0.10710505545139312
1633080150.699462,0.005014738067984581,0.0017190433572977781,-7.286416053771973,0.03608310967683792,-0.0010856986045837402,-0.028929490596055984,0.0,0.0,0.0,nan,nan,nan,1.8956137895584106,0.002154556568711996,0.002154556568711996,0.0,0.0,-0.0,0.002234202380178009,2.089520613578762,-0.1210366577655077
1633080150.709367,0.006038754712790251,0.001709240023046732,-7.286891460418701,0.05476200580596924,-0.0010654162615537643,-0.02808695286512375,0.0,0.0,0.0,nan,nan,nan,1.9969242811203003,0.002422379096969962,0.002422379096969962,0.0,0.0,-0.0,0.002234202380178009,2.089520613578762,-0.1210366577655077
1633080150.719391,0.006038754712790251,0.001709240023046732,-7.286891460418701,0.05476200580596924,-0.0010654162615537643,-0.02808695286512375,0.0,0.0,0.0,nan,nan,nan,1.9969242811203003,0.002422379096969962,0.002422379096969962,0.0,0.0,-0.0,0.002234202380178009,2.089520613578762,-0.1210366577655077
1633080150.729375,0.006551933474838734,0.0017066651489585638,-7.287059307098389,0.06292294710874557,-0.001053755171597004,-0.027287526056170464,0.0,0.0,0.0,nan,nan,nan,1.9969242811203003,0.002422379096969962,0.002422379096969962,0.0,0.0,-0.0,0.0018437496048526792,2.167239875178278,-0.12041641231626272
1633080150.739344,0.007434410508722067,0.0016996001359075308,-7.287329196929932,0.07630176842212677,-0.0010385174537077546,-0.025643590837717056,0.0,0.0,0.0,nan,nan,nan,2.0895206928253174,0.002234202343970537,0.002234202343970537,0.0,0.0,-0.0,0.0018437496048526792,2.167239875178278,-0.12041641231626272
1633080150.749379,0.008905738592147827,0.0016933402512222528,-7.287628173828125,0.09584080427885056,-0.0010137750068679452,-0.02272510714828968,0.0,0.0,0.0,nan,nan,nan,2.0895206928253174,0.002234202343970537,0.002234202343970537,0.0,0.0,-0.0,0.0018437496048526792,2.167239875178278,-0.12041641231626272
1633080150.759381,0.008905738592147827,0.0016933402512222528,-7.287628173828125,0.09584080427885056,-0.0010137750068679452,-0.02272510714828968,0.0,0.0,0.0,nan,nan,nan,2.1672399044036865,0.0018437496619299054,0.0018437496619299054,0.0,0.0,-0.0,0.0017287849108256136,2.2266698691619764,-0.10674515757709742
1633080150.769365,0.010198410600423813,0.0016860509058460593,-7.287844181060791,0.1116601899266243,-0.000994304078631103,-0.020118536427617073,0.0,0.0,0.0,nan,nan,nan,2.1672399044036865,0.0018437496619299054,0.0018437496619299054,0.0,0.0,-0.0,0.0017287849108256136,2.2266698691619764,-0.10674515757709742
1633080150.77939,0.011184878647327423,0.0016826841747388244,-7.28795862197876,0.12275458127260208,-0.0009793362114578485,-0.018259823322296143,0.0,0.0,0.0,nan,nan,nan,2.1672399044036865,0.0018437496619299054,0.0018437496619299054,0.0,0.0,-0.0,0.0017287849108256136,2.2266698691619764,-0.10674515757709742
1633080150.78954,0.012795111164450645,0.0016754522221162915,-7.288119792938232,0.13992448151111603,-0.0009592142887413502,-0.015364693477749825,0.0,0.0,0.0,nan,nan,nan,2.1672399044036865,0.0018437496619299054,0.0018437496619299054,0.0,0.0,-0.0,0.0017941554572374827,2.2715684634926983,-0.09134627386927605
1633080150.79937,0.014627343975007534,0.0016682347049936652,-7.288247585296631,0.1579974740743637,-0.000938445096835494,-0.01235389057546854,0.0,0.0,0.0,nan,nan,nan,2.2266697883605957,0.0017287848750129342,0.0017287848750129342,0.0,0.0,-0.0,0.0017941554572374827,2.2715684634926983,-0.09134627386927605
1633080150.809447,0.016665799543261528,0.0016611507162451744,-7.288341045379639,0.17669282853603363,-0.000915296608582139,-0.009444630704820156,0.0,0.0,0.0,nan,nan,nan,2.2266697883605957,0.0017287848750129342,0.0017287848750129342,0.0,0.0,-0.0,0.0017941554572374827,2.2715684634926983,-0.09134627386927605
1633080150.819429,0.02060459926724434,0.00165086321067065,-7.288407325744629,0.20942655205726624,-0.0008701116894371808,-0.0040773204527795315,0.0,0.0,0.0,nan,nan,nan,2.271568536758423,0.001794155454263091,0.001794155454263091,0.0,0.0,-0.0,0.0014799134703630946,2.2968149426175373,-0.04939391527324915
1633080150.829372,0.02060459926724434,0.00165086321067065,-7.288407325744629,0.20942655205726624,-0.0008701116894371808,-0.0040773204527795315,0.0,0.0,0.0,nan,nan,nan,2.271568536758423,0.001794155454263091,0.001794155454263091,0.0,0.0,-0.0,0.0014799134703630946,2.2968149426175373,-0.04939391527324915
1633080150.839424,0.022392654791474342,0.0016474341973662376,-7.288397789001465,0.2231101244688034,-0.0008502916898578405,-0.0017473442712798715,0.0,0.0,0.0,nan,nan,nan,2.271568536758423,0.001794155454263091,0.001794155454263091,0.0,0.0,-0.0,0.0014799134703630946,2.2968149426175373,-0.04939391527324915
1633080150.849382,0.024235611781477928,0.0016442409250885248,-7.2883710861206055,0.2366316169500351,-0.000830064935144037,0.0005073163192719221,0.0,0.0,0.0,nan,nan,nan,2.271568536758423,0.001794155454263091,0.001794155454263091,0.0,0.0,-0.0,0.0012802113570017943,2.299553657847372,-0.01886859415331855
1633080150.859347,0.02724081091582775,0.0016376846469938755,-7.28831148147583,0.2577478885650635,-0.0007983371033333242,0.00385930179618299,0.0,0.0,0.0,nan,nan,nan,2.2968149185180664,0.001479913480579853,0.001479913480579853,0.0,0.0,-0.0,0.0012802113570017943,2.299553657847372,-0.01886859415331855
1633080150.869394,0.029400480911135674,0.0016344903269782662,-7.288239479064941,0.272120863199234,-0.0007753096870146692,0.006007238756865263,0.0,0.0,0.0,nan,nan,nan,2.2968149185180664,0.001479913480579853,0.001479913480579853,0.0,0.0,-0.0,0.0012802113570017943,2.299553657847372,-0.01886859415331855
1633080150.879403,0.03527636453509331,0.0016253720968961716,-7.288004398345947,0.3087681233882904,-0.0007197697996161878,0.011465980671346188,0.0,0.0,0.0,nan,nan,nan,2.299553632736206,0.001280211377888918,0.001280211377888918,0.0,0.0,-0.0,0.0010107941270806743,2.2881074158668437,0.01235721509670839
1633080150.889381,0.03527636453509331,0.0016253720968961716,-7.288004398345947,0.3087681233882904,-0.0007197697996161878,0.011465980671346188,0.0,0.0,0.0,nan,nan,nan,2.299553632736206,0.001280211377888918,0.001280211377888918,0.0,0.0,-0.0,0.0010107941270806743,2.2881074158668437,0.01235721509670839
1633080150.899406,0.039157968014478683,0.00161957077216357,-7.28781795501709,0.33130159974098206,-0.0006879365537315607,0.01474449411034584,0.0,0.0,0.0,nan,nan,nan,2.299553632736206,0.001280211377888918,0.001280211377888918,0.0,0.0,-0.0,0.0010107941270806743,2.2881074158668437,0.01235721509670839
1633080150.909337,0.04624888673424721,0.0016112534794956446,-7.287418842315674,0.3697076439857483,-0.0006359118851833045,0.019574545323848724,0.0,0.0,0.0,nan,nan,nan,2.288107395172119,0.0010107940761372447,0.0010107940761372447,0.0,0.0,-0.0,0.000765548134745035,2.267393907240958,0.04799335743999109
1633080150.91933,0.04624888673424721,0.0016112534794956446,-7.287418842315674,0.3697076439857483,-0.0006359118851833045,0.019574545323848724,0.0,0.0,0.0,nan,nan,nan,2.288107395172119,0.0010107940761372447,0.0010107940761372447,0.0,0.0,-0.0,0.000765548134745035,2.267393907240958,0.04799335743999109
1633080150.929472,0.04925693944096565,0.0016085634706541896,-7.287232398986816,0.3850666284561157,-0.0006164213991723955,0.021266374737024307,0.0,0.0,0.0,nan,nan,nan,2.288107395172119,0.0010107940761372447,0.0010107940761372447,0.0,0.0,-0.0,0.000765548134745035,2.267393907240958,0.04799335743999109
1633080150.939483,0.057370636612176895,0.0016008912352845073,-7.286720275878906,0.4085553288459778,-0.0005893761990591884,0.023770801723003387,0.0,0.0,0.0,nan,nan,nan,2.2673938274383545,0.0007655481458641589,0.0007655481458641589,0.0,0.0,-0.0,0.0009699786293121986,2.2398419626843475,0.07525210961466655
1633080150.949401,0.057370636612176895,0.0016008912352845073,-7.286720275878906,0.4243004620075226,-0.0005717520834878087,0.025307783856987953,0.0,0.0,0.0,nan,nan,nan,2.2673938274383545,0.0007655481458641589,0.0007655481458641589,0.0,0.0,-0.0,0.0009699786293121986,2.2398419626843475,0.07525210961466655
1633080150.959443,0.06261700391769409,0.0015961088938638568,-7.286381721496582,0.44816917181015015,-0.0005465690628625453,0.02752724289894104,0.0,0.0,0.0,nan,nan,nan,2.239841938018799,0.0009699786314740777,0.0009699786314740777,0.0,0.0,-0.0,0.0009699786293121986,2.2398419626843475,0.07525210961466655
1633080150.969357,0.0701499804854393,0.001591092674061656,-7.285871982574463,0.4805101752281189,-0.0005141400033608079,0.03050684556365013,0.0,0.0,0.0,nan,nan,nan,2.239841938018799,0.0009699786314740777,0.0009699786314740777,0.0,0.0,-0.0,0.0008133509348217281,2.2057423598355834,0.10182769883191213
1633080150.97951,0.0701499804854393,0.001591092674061656,-7.285871982574463,0.4805101752281189,-0.0005141400033608079,0.03050684556365013,0.0,0.0,0.0,nan,nan,nan,2.239841938018799,0.0009699786314740777,0.0009699786314740777,0.0,0.0,-0.0,0.0008133509348217281,2.2057423598355834,0.10182769883191213
1633080150.989926,0.08221129328012466,0.001582445460371673,-7.285058498382568,0.504447340965271,-0.0004919095663353801,0.03250979259610176,0.0,0.0,0.0,nan,nan,nan,2.239841938018799,0.0009699786314740777,0.0009699786314740777,0.0,0.0,-0.0,0.0008133509348217281,2.2057423598355834,0.10182769883191213
1633080150.999476,0.08655144274234772,0.0015800850233063102,-7.2847580909729,0.5450512766838074,-0.0004551642050500959,0.035547833889722824,0.0,0.0,0.0,nan,nan,nan,2.205742359161377,0.0008133509545587003,0.0008133509545587003,0.0,0.0,-0.0,0.0007152474460561235,2.1658425740341736,0.1235982585675083
1633080151.009405,0.08655144274234772,0.0015800850233063102,-7.2847580909729,0.5450512766838074,-0.0004551642050500959,0.035547833889722824,0.0,0.0,0.0,nan,nan,nan,2.205742359161377,0.0008133509545587003,0.0008133509545587003,0.0,0.0,-0.0,0.0007152474460561235,2.1658425740341736,0.1235982585675083
1633080151.019893,0.09780599176883698,0.0015737863723188639,-7.283990383148193,0.5853769183158875,-0.0004209685430396348,0.03829474002122879,0.0,0.0,0.0,nan,nan,nan,2.1658425331115723,0.0007152474718168378,0.0007152474718168378,0.0,0.0,-0.0,0.0007152474460561235,2.1658425740341736,0.1235982585675083
1633080151.029648,0.09780599176883698,0.0015737863723188639,-7.283990383148193,0.5853769183158875,-0.0004209685430396348,0.03829474002122879,0.0,0.0,0.0,nan,nan,nan,2.1658425331115723,0.0007152474718168378,0.0007152474718168378,0.0,0.0,-0.0,0.0007573894507045826,2.1223585479011393,0.14229202426737175
1633080151.039564,0.10994426906108856,0.0015676419716328382,-7.283166408538818,0.6258662939071655,-0.0003903394390363246,0.04098544269800186,0.0,0.0,0.0,nan,nan,nan,2.1658425331115723,0.0007152474718168378,0.0007152474718168378,0.0,0.0,-0.0,0.0007573894507045826,2.1223585479011393,0.14229202426737175
1633080151.049694,0.10994426906108856,0.0015676419716328382,-7.283166408538818,0.6258662939071655,-0.0003903394390363246,0.04098544269800186,0.0,0.0,0.0,nan,nan,nan,2.1658425331115723,0.0007152474718168378,0.0007152474718168378,0.0,0.0,-0.0,0.0007573894507045826,2.1223585479011393,0.14229202426737175
1633080151.059794,0.12282882630825043,0.0015617423923686147,-7.282297134399414,0.6419355273246765,-0.0003795794036705047,0.041997868567705154,0.0,0.0,0.0,nan,nan,nan,2.122358560562134,0.0007573894690722227,0.0007573894690722227,0.0,0.0,-0.0,0.0006720635740834662,2.0730123548341464,0.16201683155959473
1633080151.069584,0.13096284866333008,0.0015581318875774741,-7.281754493713379,0.6899698972702026,-0.0003527776862028986,0.04482140764594078,0.0,0.0,0.0,nan,nan,nan,2.122358560562134,0.0007573894690722227,0.0007573894690722227,0.0,0.0,-0.0,0.0006720635740834662,2.0730123548341464,0.16201683155959473
1633080151.079728,0.13096284866333008,0.0015581318875774741,-7.281754493713379,0.6899698972702026,-0.0003527776862028986,0.04482140764594078,0.0,0.0,0.0,nan,nan,nan,2.122358560562134,0.0007573894690722227,0.0007573894690722227,0.0,0.0,-0.0,0.0006720635740834662,2.0730123548341464,0.16201683155959473
1633080151.089971,0.1451181322336197,0.0015523566398769617,-7.280814170837402,0.7062651515007019,-0.00034516886807978153,0.045767612755298615,0.0,0.0,0.0,nan,nan,nan,2.122358560562134,0.0007573894690722227,0.0007573894690722227,0.0,0.0,-0.0,0.0006066839892941461,2.0137934073310313,0.17996545247500761
1633080151.099644,0.151165172457695,0.00151958002243191,-7.2804388999938965,0.7455695867538452,-0.00033356549101881683,0.04807771369814873,0.0,0.0,0.0,nan,nan,nan,2.073012351989746,0.0006720635574311018,0.0006720635574311018,0.0,0.0,-0.0,0.0006066839892941461,2.0137934073310313,0.17996545247500761
1633080151.109727,0.151165172457695,0.00151958002243191,-7.2804388999938965,0.7455695867538452,-0.00033356549101881683,0.04807771369814873,0.0,0.0,0.0,nan,nan,nan,2.073012351989746,0.0006720635574311018,0.0006720635574311018,0.0,0.0,-0.0,0.0006066839892941461,2.0137934073310313,0.17996545247500761
1633080151.120299,0.16629992425441742,0.0014559305272996426,-7.279493808746338,0.7840352654457092,-0.0003286316932644695,0.05039866641163826,0.0,0.0,0.0,nan,nan,nan,2.013793468475342,0.0006066840142011642,0.0006066840142011642,0.0,0.0,-0.0,0.0007408590323855672,1.946034487826897,0.19581004835432395
1633080151.129632,0.17587190866470337,0.0014248486841097474,-7.278892993927002,0.8071494698524475,-0.0003259196237195283,0.05183989927172661,0.0,0.0,0.0,nan,nan,nan,2.013793468475342,0.0006066840142011642,0.0006066840142011642,0.0,0.0,-0.0,0.0007408590323855672,1.946034487826897,0.19581004835432395
1633080151.139689,0.17587190866470337,0.0014248486841097474,-7.278892993927002,0.8071494698524475,-0.0003259196237195283,0.05183989927172661,0.0,0.0,0.0,nan,nan,nan,2.013793468475342,0.0006066840142011642,0.0006066840142011642,0.0,0.0,-0.0,0.0007408590323855672,1.946034487826897,0.19581004835432395
1633080151.149673,0.18242086470127106,0.0013959974749013782,-7.278482913970947,0.8224471807479858,-0.00032574127544648945,0.052807800471782684,0.0,0.0,0.0,nan,nan,nan,2.013793468475342,0.0006066840142011642,0.0006066840142011642,0.0,0.0,-0.0,0.0008090176080236651,1.8714188834978502,0.21389289289480076
1633080151.15955,0.1991446167230606,0.0013394270790740848,-7.277429580688477,0.8449703454971313,-0.0003241731319576502,0.054252833127975464,0.0,0.0,0.0,nan,nan,nan,1.9460344314575195,0.0007408590172417462,0.0007408590172417462,0.0,0.0,-0.0,0.0008090176080236651,1.8714188834978502,0.21389289289480076
1633080151.16965,0.20955894887447357,0.0013117109192535281,-7.276771068572998,0.8820736408233643,-0.000323706102790311,0.05662185698747635,0.0,0.0,0.0,nan,nan,nan,1.9460344314575195,0.0007408590172417462,0.0007408590172417462,0.0,0.0,-0.0,0.0008090176080236651,1.8714188834978502,0.21389289289480076
1633080151.179548,0.20955894887447357,0.0013117109192535281,-7.276771068572998,0.8820736408233643,-0.000323706102790311,0.05662185698747635,0.0,0.0,0.0,nan,nan,nan,1.871418833732605,0.0008090176270343363,0.0008090176270343363,0.0,0.0,-0.0,0.000834184560696012,1.7914892445530348,0.23052731908624993
1633080151.189565,0.21754033863544464,0.0012857572874054313,-7.27626895904541,0.8985296487808228,-0.0003247407148592174,0.0577172115445137,0.0,0.0,0.0,nan,nan,nan,1.871418833732605,0.0008090176270343363,0.0008090176270343363,0.0,0.0,-0.0,0.000834184560696012,1.7914892445530348,0.23052731908624993
1633080151.199678,0.22814686596393585,0.0012595991138368845,-7.275597095489502,0.9197512865066528,-0.0003258911892771721,0.05912722274661064,0.0,0.0,0.0,nan,nan,nan,1.871418833732605,0.0008090176270343363,0.0008090176270343363,0.0,0.0,-0.0,0.000834184560696012,1.7914892445530348,0.23052731908624993
1633080151.210039,0.23936986923217773,0.001233952003531158,-7.2748847007751465,0.9414169788360596,-0.0003276033385191113,0.06059671938419342,0.0,0.0,0.0,nan,nan,nan,1.7914892435073853,0.0008341845823451877,0.0008341845823451877,0.0,0.0,-0.0,0.0008732739087771819,1.7061095344395323,0.24975647061830386
1633080151.219548,0.2545508146286011,0.0011874185875058174,-7.273919582366943,0.9695122241973877,-0.00033174114651046693,0.06245411932468414,0.0,0.0,0.0,nan,nan,nan,1.7914892435073853,0.0008341845823451877,0.0008341845823451877,0.0,0.0,-0.0,0.0008732739087771819,1.7061095344395323,0.24975647061830386
1633080151.229856,0.2624076306819916,0.00116502377204597,-7.2734198570251465,0.9695122241973877,-0.00033174114651046693,0.06245411932468414,0.0,0.0,0.0,nan,nan,nan,1.7914892435073853,0.0008341845823451877,0.0008341845823451877,0.0,0.0,-0.0,0.0008732739087771819,1.7061095344395323,0.24975647061830386
1633080151.239402,0.2624076306819916,0.00116502377204597,-7.2734198570251465,0.9835352897644043,-0.00033376170904375613,0.06341589987277985,0.0,0.0,0.0,nan,nan,nan,1.7061095237731934,0.0008732739370316267,0.0008732739370316267,0.0,0.0,-0.0,0.0009075094309731141,1.6160886139777024,0.2667561480379663
1633080151.249374,0.27433186769485474,0.001141863875091076,-7.2726569175720215,1.004194974899292,-0.00033509786590002477,0.06485731154680252,0.0,0.0,0.0,nan,nan,nan,1.7061095237731934,0.0008732739370316267,0.0008732739370316267,0.0,0.0,-0.0,0.0009075094309731141,1.6160886139777024,0.2667561480379663
1633080151.260146,0.2905047535896301,0.0010999779915437102,-7.2716240882873535,1.031022548675537,-0.0003380765556357801,0.06681777536869049,0.0,0.0,0.0,nan,nan,nan,1.7061095237731934,0.0008732739370316267,0.0008732739370316267,0.0,0.0,-0.0,0.0009075094309731141,1.6160886139777024,0.2667561480379663
1633080151.269735,0.3029576539993286,0.0010785071644932032,-7.270822525024414,1.0508171319961548,-0.00033916576649062335,0.06830773502588272,0.0,0.0,0.0,nan,nan,nan,1.616088628768921,0.0009075094130821526,0.0009075094130821526,0.0,0.0,-0.0,0.0009225101183897,1.5202463609382013,0.2881125919497572
1633080151.279555,0.31134819984436035,0.001058870111592114,-7.270280361175537,1.06374192237854,-0.0003414583916310221,0.06927807629108429,0.0,0.0,0.0,nan,nan,nan,1.616088628768921,0.0009075094130821526,0.0009075094130821526,0.0,0.0,-0.0,0.0009225101183897,1.5202463609382013,0.2881125919497572
1633080151.289725,0.32427269220352173,0.001038354355841875,-7.269440650939941,1.0830477476119995,-0.0003444485191721469,0.07073373347520828,0.0,0.0,0.0,nan,nan,nan,1.616088628768921,0.0009075094130821526,0.0009075094130821526,0.0,0.0,-0.0,0.0009225101183897,1.5202463609382013,0.2881125919497572
1633080151.299678,0.3331392705440521,0.001019600429572165,-7.26886510848999,1.0958764553070068,-0.0003477860882412642,0.07169253379106522,0.0,0.0,0.0,nan,nan,nan,1.616088628768921,0.0009075094130821526,0.0009075094130821526,0.0,0.0,-0.0,0.0009107095558309456,1.4236395424220463,0.30209107339149344
1633080151.309626,0.34608194231987,0.001000076998025179,-7.268021106719971,1.1140245199203491,-0.00035220422432757914,0.07311136275529861,0.0,0.0,0.0,nan,nan,nan,1.5202463865280151,0.0009225101093761623,0.0009225101093761623,0.0,0.0,-0.0,0.0009107095558309456,1.4236395424220463,0.30209107339149344
1633080151.319674,0.35952478647232056,0.0009808302856981754,-7.267140865325928,1.1321555376052856,-0.0003578730393201113,0.07463150471448898,0.0,0.0,0.0,nan,nan,nan,1.4236395359039307,0.0009107095538638532,0.0009107095538638532,0.0,0.0,-0.0,0.0009107095558309456,1.4236395424220463,0.30209107339149344
1633080151.329721,0.373244971036911,0.0009619657648727298,-7.266239166259766,1.1499605178833008,-0.000364410545444116,0.07611454278230667,0.0,0.0,0.0,nan,nan,nan,1.4236395359039307,0.0009107095538638532,0.0009107095538638532,0.0,0.0,-0.0,0.0009396049044575921,1.3294800970640939,0.3217541478550993
1633080151.339324,0.38239002227783203,0.0009449322824366391,-7.265637397766113,1.1614490747451782,-0.00036948127672076225,0.07707013189792633,0.0,0.0,0.0,nan,nan,nan,1.4236395359039307,0.0009107095538638532,0.0009107095538638532,0.0,0.0,-0.0,0.0009396049044575921,1.3294800970640939,0.3217541478550993
1633080151.349633,0.3964284360408783,0.0009267692803405225,-7.264703750610352,1.1785292625427246,-0.00037540445919148624,0.07854464650154114,0.0,0.0,0.0,nan,nan,nan,1.4236395359039307,0.0009107095538638532,0.0009107095538638532,0.0,0.0,-0.0,0.0009396049044575921,1.3294800970640939,0.3217541478550993
1633080151.359413,0.40586888790130615,0.0009104358614422381,-7.264073848724365,1.1896536350250244,-0.0003800665435846895,0.07944151014089584,0.0,0.0,0.0,nan,nan,nan,1.3294800519943237,0.0009396048844791949,0.0009396048844791949,0.0,0.0,-0.0,0.0010503907969214392,1.2333039140167676,0.3421455480135046
1633080151.36932,0.41539397835731506,0.0008944264845922589,-7.2634382247924805,1.2005795240402222,-0.0003849545610137284,0.08035574853420258,0.0,0.0,0.0,nan,nan,nan,1.3294800519943237,0.0009396048844791949,0.0009396048844791949,0.0,0.0,-0.0,0.0010503907969214392,1.2333039140167676,0.3421455480135046
1633080151.380183,0.4250313937664032,0.000878772116266191,-7.262793064117432,1.211330771446228,-0.00039015093352645636,0.08130227774381638,0.0,0.0,0.0,nan,nan,nan,1.3294800519943237,0.0009396048844791949,0.0009396048844791949,0.0,0.0,-0.0,0.0010503907969214392,1.2333039140167676,0.3421455480135046
1633080151.389594,0.4396146833896637,0.0008619012078270316,-7.261813640594482,1.2270700931549072,-0.0003972816339228302,0.08266476541757584,0.0,0.0,0.0,nan,nan,nan,1.2333039045333862,0.0010503907687962055,0.0010503907687962055,0.0,0.0,-0.0,0.0010746405863062175,1.1342135046545736,0.3600548526621424
1633080151.399897,0.4543793201446533,0.0008453172049485147,-7.2608184814453125,1.242353081703186,-0.0004052800650242716,0.084015853703022,0.0,0.0,0.0,nan,nan,nan,1.2333039045333862,0.0010503907687962055,0.0010503907687962055,0.0,0.0,-0.0,0.0010746405863062175,1.1342135046545736,0.3600548526621424
1633080151.409483,0.4692942202091217,0.0008289502002298832,-7.259808540344238,1.257139801979065,-0.0004149391606915742,0.08539608865976334,0.0,0.0,0.0,nan,nan,nan,1.2333039045333862,0.0010503907687962055,0.0010503907687962055,0.0,0.0,-0.0,0.0010746405863062175,1.1342135046545736,0.3600548526621424
1633080151.419546,0.4794072210788727,0.0008144656312651932,-7.259122371673584,1.266810655593872,-0.00042315744212828577,0.08629664778709412,0.0,0.0,0.0,nan,nan,nan,1.1342134475708008,0.0010746405459940434,0.0010746405459940434,0.0,0.0,-0.0,0.0011794693206630337,1.0329669371554846,0.37965493127470834
1633080151.429619,0.48984771966934204,0.0008001668029464781,-7.258409023284912,1.2765048742294312,-0.0004319596046116203,0.08720305562019348,0.0,0.0,0.0,nan,nan,nan,1.1342134475708008,0.0010746405459940434,0.0010746405459940434,0.0,0.0,-0.0,0.0011794693206630337,1.0329669371554846,0.37965493127470834
1633080151.439679,0.4997927248477936,0.0007862726342864335,-7.257728099822998,1.2854766845703125,-0.00044040248030796647,0.08804606646299362,0.0,0.0,0.0,nan,nan,nan,1.1342134475708008,0.0010746405459940434,0.0010746405459940434,0.0,0.0,-0.0,0.0011794693206630337,1.0329669371554846,0.37965493127470834
1633080151.449566,0.5102007985115051,0.0007724935421720147,-7.25701379776001,1.2945905923843384,-0.0004490251012612134,0.08891849219799042,0.0,0.0,0.0,nan,nan,nan,1.0329669713974,0.001179469283670187,0.001179469283670187,0.0,0.0,-0.0,0.001239488259616234,0.9307422202096443,0.3975816547847353
1633080151.459317,0.5258432626724243,0.000757100060582161,-7.255937576293945,1.30778968334198,-0.0004611056356225163,0.0900951400399208,0.0,0.0,0.0,nan,nan,nan,1.0329669713974,0.001179469283670187,0.001179469283670187,0.0,0.0,-0.0,0.001239488259616234,0.9307422202096443,0.3975816547847353
1633080151.469665,0.5414839386940002,0.0007419101893901825,-7.25485897064209,1.3203874826431274,-0.00047329888911917806,0.09118235856294632,0.0,0.0,0.0,nan,nan,nan,1.0329669713974,0.001179469283670187,0.001179469283670187,0.0,0.0,-0.0,0.001239488259616234,0.9307422202096443,0.3975816547847353
1633080151.479636,0.5521044135093689,0.0007286951877176762,-7.254125118255615,1.3286113739013672,-0.00048186423373408616,0.09189455211162567,0.0,0.0,0.0,nan,nan,nan,1.0329669713974,0.001179469283670187,0.001179469283670187,0.0,0.0,-0.0,0.001347516314007228,0.829380740037884,0.4144911864376627
1633080151.489489,0.5681516528129578,0.000713690067641437,-7.253014087677002,1.340540885925293,-0.0004930129507556558,0.09294019639492035,0.0,0.0,0.0,nan,nan,nan,0.9307422041893005,0.0012394882505759597,0.0012394882505759597,0.0,0.0,-0.0,0.001347516314007228,0.829380740037884,0.4144911864376627
1633080151.499649,0.5790922045707703,0.0006726130377501249,-7.252291679382324,1.3483376502990723,-0.0005054866778664291,0.09365034848451614,0.0,0.0,0.0,nan,nan,nan,0.9307422041893005,0.0012394882505759597,0.0012394882505759597,0.0,0.0,-0.0,0.001347516314007228,0.829380740037884,0.4144911864376627
1633080151.509562,0.5948699712753296,0.0006309245363809168,-7.251230239868164,1.359104037284851,-0.0005216312711127102,0.09462247043848038,0.0,0.0,0.0,nan,nan,nan,0.8293807506561279,0.0013475163141265512,0.0013475163141265512,0.0,0.0,-0.0,0.0012499315370059242,0.7284357828997307,0.43140599787002426
1633080151.519606,0.6056748628616333,0.0005921117844991386,-7.250512599945068,1.3661669492721558,-0.000535287952516228,0.09519282728433609,0.0,0.0,0.0,nan,nan,nan,0.8293807506561279,0.0013475163141265512,0.0013475163141265512,0.0,0.0,-0.0,0.0012499315370059242,0.7284357828997307,0.43140599787002426
1633080151.529729,0.6165181994438171,0.0005544079467654228,-7.249791145324707,1.3730013370513916,-0.0005490970215760171,0.09577251225709915,0.0,0.0,0.0,nan,nan,nan,0.8293807506561279,0.0013475163141265512,0.0013475163141265512,0.0,0.0,-0.0,0.0012499315370059242,0.7284357828997307,0.43140599787002426
1633080151.539571,0.6329894065856934,0.0005155020044185221,-7.248673915863037,1.3829145431518555,-0.0005670401151292026,0.09663121402263641,0.0,0.0,0.0,nan,nan,nan,0.8293807506561279,0.0013475163141265512,0.0013475163141265512,0.0,0.0,-0.0,0.0015628541189322478,0.6279476111698841,0.4460858343518339
1633080151.5496,0.6495146751403809,0.00047752249520272017,-7.247551441192627,1.3923230171203613,-0.0005849121953360736,0.09728486835956573,0.0,0.0,0.0,nan,nan,nan,0.728435754776001,0.0012499315198510885,0.0012499315198510885,0.0,0.0,-0.0,0.0015628541189322478,0.6279476111698841,0.4460858343518339
1633080151.56013,0.6661214828491211,0.000440279021859169,-7.246422290802002,1.4012266397476196,-0.0006024590693414211,0.09789822995662689,0.0,0.0,0.0,nan,nan,nan,0.6279476284980774,0.001562854158692062,0.001562854158692062,0.0,0.0,-0.0,0.0015628541189322478,0.6279476111698841,0.4460858343518339
1633080151.569359,0.6773220300674438,0.0004061325453221798,-7.245663166046143,1.4069329500198364,-0.0006151233683340251,0.09827082604169846,0.0,0.0,0.0,nan,nan,nan,0.6279476284980774,0.001562854158692062,0.001562854158692062,0.0,0.0,-0.0,0.0017614432567589218,0.5283823367645851,0.4602477705455385
1633080151.579326,0.694269061088562,0.00037025255733169615,-7.244502544403076,1.4151149988174438,-0.0006297025829553604,0.09877927601337433,0.0,0.0,0.0,nan,nan,nan,0.6279476284980774,0.001562854158692062,0.001562854158692062,0.0,0.0,-0.0,0.0017614432567589218,0.5283823367645851,0.4602477705455385
1633080151.589783,0.7111982107162476,0.00033524163882248104,-7.243343830108643,1.4227604866027832,-0.0006423922604881227,0.09921874105930328,0.0,0.0,0.0,nan,nan,nan,0.6279476284980774,0.001562854158692062,0.001562854158692062,0.0,0.0,-0.0,0.0017614432567589218,0.5283823367645851,0.4602477705455385
1633080151.599564,0.7111982107162476,0.00033524163882248104,-7.243343830108643,1.4227604866027832,-0.0006423922604881227,0.09921874105930328,0.0,0.0,0.0,nan,nan,nan,0.6279476284980774,0.001562854158692062,0.001562854158692062,0.0,0.0,-0.0,0.0017219182972389917,0.42960323288672714,0.47212436780100686
1633080151.609561,0.7397739291191101,0.00027012801729142666,-7.241396903991699,1.4345039129257202,-0.0006633898592554033,0.09969398379325867,0.0,0.0,0.0,nan,nan,nan,0.5283823609352112,0.0017614432144910097,0.0017614432144910097,0.0,0.0,-0.0,0.0017219182972389917,0.42960323288672714,0.47212436780100686
1633080151.619522,0.7566505074501038,0.00023757723101880401,-7.240245342254639,1.4407575130462646,-0.000673871545586735,0.09995940327644348,0.0,0.0,0.0,nan,nan,nan,0.5283823609352112,0.0017614432144910097,0.0017614432144910097,0.0,0.0,-0.0,0.0017219182972389917,0.42960323288672714,0.47212436780100686
